tree
version=v2
num_class=1
num_tree_per_iteration=1
label_index=0
max_feature_idx=127
objective=regression
feature_names=all_correlation_best_percentile25_ratio all_correlation_best_percentile50_ratio all_correlation_best_percentile75_ratio all_correlation_kurtosis all_correlation_percentile5_percentile25_ratio all_correlation_skew all_correlation_stddev_best_ratio all_correlation_stddev_median_ratio all_loss_best_percentile25_ratio all_loss_best_percentile50_ratio all_loss_best_percentile75_ratio all_loss_kurtosis all_loss_percentile5_percentile25_ratio all_loss_skew all_loss_stddev_best_ratio all_loss_stddev_median_ratio log10_cardinality recent_10_correlation_best_percentile25_ratio recent_10_correlation_best_percentile50_ratio recent_10_correlation_best_percentile75_ratio recent_10_correlation_kurtosis recent_10_correlation_percentile5_percentile25_ratio recent_10_correlation_skew recent_10_correlation_stddev_best_ratio recent_10_correlation_stddev_median_ratio recent_10_loss_best_percentile25_ratio recent_10_loss_best_percentile50_ratio recent_10_loss_best_percentile75_ratio recent_10_loss_kurtosis recent_10_loss_percentile5_percentile25_ratio recent_10_loss_skew recent_10_loss_stddev_best_ratio recent_10_loss_stddev_median_ratio recent_15%_correlation_best_percentile25_ratio recent_15%_correlation_best_percentile50_ratio recent_15%_correlation_best_percentile75_ratio recent_15%_correlation_kurtosis recent_15%_correlation_percentile5_percentile25_ratio recent_15%_correlation_skew recent_15%_correlation_stddev_best_ratio recent_15%_correlation_stddev_median_ratio recent_15%_loss_best_percentile25_ratio recent_15%_loss_best_percentile50_ratio recent_15%_loss_best_percentile75_ratio recent_15%_loss_kurtosis recent_15%_loss_percentile5_percentile25_ratio recent_15%_loss_skew recent_15%_loss_stddev_best_ratio recent_15%_loss_stddev_median_ratio recent_25_correlation_best_percentile25_ratio recent_25_correlation_best_percentile50_ratio recent_25_correlation_best_percentile75_ratio recent_25_correlation_kurtosis recent_25_correlation_percentile5_percentile25_ratio recent_25_correlation_skew recent_25_correlation_stddev_best_ratio recent_25_correlation_stddev_median_ratio recent_25_loss_best_percentile25_ratio recent_25_loss_best_percentile50_ratio recent_25_loss_best_percentile75_ratio recent_25_loss_kurtosis recent_25_loss_percentile5_percentile25_ratio recent_25_loss_skew recent_25_loss_stddev_best_ratio recent_25_loss_stddev_median_ratio top_10%_correlation_best_percentile25_ratio top_10%_correlation_best_percentile50_ratio top_10%_correlation_best_percentile75_ratio top_10%_correlation_kurtosis top_10%_correlation_percentile5_percentile25_ratio top_10%_correlation_skew top_10%_correlation_stddev_best_ratio top_10%_correlation_stddev_median_ratio top_10%_loss_best_percentile25_ratio top_10%_loss_best_percentile50_ratio top_10%_loss_best_percentile75_ratio top_10%_loss_kurtosis top_10%_loss_percentile5_percentile25_ratio top_10%_loss_skew top_10%_loss_stddev_best_ratio top_10%_loss_stddev_median_ratio top_20%_correlation_best_percentile25_ratio top_20%_correlation_best_percentile50_ratio top_20%_correlation_best_percentile75_ratio top_20%_correlation_kurtosis top_20%_correlation_percentile5_percentile25_ratio top_20%_correlation_skew top_20%_correlation_stddev_best_ratio top_20%_correlation_stddev_median_ratio top_20%_loss_best_percentile25_ratio top_20%_loss_best_percentile50_ratio top_20%_loss_best_percentile75_ratio top_20%_loss_kurtosis top_20%_loss_percentile5_percentile25_ratio top_20%_loss_skew top_20%_loss_stddev_best_ratio top_20%_loss_stddev_median_ratio top_30%_correlation_best_percentile25_ratio top_30%_correlation_best_percentile50_ratio top_30%_correlation_best_percentile75_ratio top_30%_correlation_kurtosis top_30%_correlation_percentile5_percentile25_ratio top_30%_correlation_skew top_30%_correlation_stddev_best_ratio top_30%_correlation_stddev_median_ratio top_30%_loss_best_percentile25_ratio top_30%_loss_best_percentile50_ratio top_30%_loss_best_percentile75_ratio top_30%_loss_kurtosis top_30%_loss_percentile5_percentile25_ratio top_30%_loss_skew top_30%_loss_stddev_best_ratio top_30%_loss_stddev_median_ratio resultFilteringMode_age resultFilteringMode_loss_rank resultFilteringMode_none resultFilteringMode_random secondaryProbabilityMode_correlation secondaryProbabilityMode_fixed secondaryLockingMode_random secondaryLockingMode_top resultFilteringAgeMultiplier resultFilteringLossRankMultiplier resultFilteringRandomProbability secondaryTopLockingPercentile secondaryCorrelationExponent secondaryCorrelationMultiplier secondaryFixedProbability
feature_infos=[-9.0793999999999997:106.40000000000001] [-6.1543999999999999:907.00999999999999] [-4.2420999999999998:4891.5] [-4.0632000000000001:42.643000000000001] [-11.725:138.13999999999999] [-12.686:13.845000000000001] [-15.976000000000001:11.5] [-5.9271000000000003:1428.2] [-92019:46103] [-76234:115450] [-15884:122060] [-2.3426:70.739999999999995] [-81702:47027] [-8.2988:19.844000000000001] [-537830:1444500] [-78181:1104700] [-4.9066000000000001:5.7077999999999998] [-4.2309000000000001:1690.3] [-2.4914999999999998:363.81999999999999] [-2.2536:422.11000000000001] [-2.5891000000000002:34.893999999999998] [-5.0574000000000003:1705.5] [-9.4838000000000005:11.569000000000001] [-15.170999999999999:8.0465] [-2.4289999999999998:353.56] [-15750:17733] [-24245:129280] [-29342:94593] [-1.7628999999999999:2.0127000000000002] [-12687:18631] [-6.274:1.8354999999999999] [-378090:1398600] [-339220:1724900] [-4.3403:8764.7999999999993] [-2.6692:4616.3000000000002] [-2.3054999999999999:8748.2999999999993] [-2.5735000000000001:33.960000000000001] [-5.2473000000000001:9928.8999999999996] [-11.114000000000001:11.558] [-14.411:7.4763999999999999] [-2.6036000000000001:4298.5] [-25805:15193] [-71151:398300] [-232340:102990] [-1.6065:49.856000000000002] [-23318:13028] [-7.5063000000000004:12.785] [-779600:1158500] [-3854900:1321600] [-4.9035000000000002:9369.6000000000004] [-3.0550999999999999:3670.5] [-2.6476999999999999:4790.8000000000002] [-2.8029999999999999:42.148000000000003] [-6.0103999999999997:9025.7999999999993] [-10.73:12.619999999999999] [-13.798999999999999:7.9203999999999999] [-2.8595999999999999:3237.1999999999998] [-110400:32742] [-54569:50533] [-25601:21684] [-1.9413:3.7551999999999999] [-121220:7508.6000000000004] [-9.4586000000000006:3.0712000000000002] [-777050:1005600] [-4907700:2416500] [-3.5528:6421.6000000000004] [-2.3841000000000001:3859.3000000000002] [-1.8844000000000001:2265.0999999999999] [-2.2686999999999999:28.308] [-4.1837:6406.6000000000004] [-13.297000000000001:10.804] [-13.407999999999999:6.319] [-2.3730000000000002:3342.0999999999999] [-22397:39663] [-37882:31527] [-54135:285190] [-3.0364:128.66999999999999] [-21922:40673] [-24.335000000000001:19.193000000000001] [-555170:366600] [-27388:44588] [-3.9630000000000001:22230] [-2.3159000000000001:13472] [-1.9112:3249.8000000000002] [-2.4296000000000002:30.291] [-4.7637999999999998:13939] [-14.045:11.15] [-14.471:7.2553999999999998] [-2.3260000000000001:9986.7999999999993] [-80788:9101.8999999999996] [-96031:28600] [-78856:27997] [-3.8111000000000002:275.38999999999999] [-38099:9126.2999999999993] [-36.381999999999998:30.282] [-440240:271940] [-31583:88057] [-4.4935999999999998:76437] [-2.3953000000000002:17238] [-2.0042:18072] [-2.6255999999999999:30.370000000000001] [-5.4583000000000004:76103] [-11.244999999999999:10.606999999999999] [-14.869999999999999:7.6917] [-2.3576999999999999:17510] [-63240:23966] [-27011:25286] [-308980:655530] [-4.2102000000000004:378.39999999999998] [-85724:27764] [-41.186:32.061] [-557080:1121200] [-23140:353280] [0:1] [0:1] [0:1] [0:1] [0:1] [0:1] [0:1] [0:1] [-3:4] [-3:4] [-3:0.90000000000000002] [-3:10] [1:3] [-3:1.8] [-3:0.75]
tree_sizes=2617 2675 2691 2667 2686 2687 2654 2686 2698 2689 2692 2705 2686 2647 2696 2689 2687 2695 2690 2685 2679 2683 2673 2699 2712 2690 2723 2714 2680 2668 2715 2683 2701 2691 2683 2697 2683 2693 2697 2679 2676 2677 2677 2679 2700 2688 2710 2659 2658 2657 2660 2669 2684 2654 2714 2689 2643 2680 2709 2702 2646 2669 2664 2661 2703 2650 2676 2675 2657 2675 2643 2651 2621 2648 2668 2658 2649 2660 2624 2660 2660 2648 2625 2676 2622 2655 2676 2652 2640 2605 2655 2695 2628 2677 2644 2617 2678 2696 2691 2633

Tree=0
num_leaves=31
num_cat=0
split_feature=117 125 125 83 91 127 83 83 52 108 91 35 110 10 35 52 127 52 15 44 92 3 83 127 125 127 10 102 90 43
split_gain=1454.39 138.428 124.579 104.11 80.7935 54.4082 37.8049 35.1148 29.524 29.3409 26.1446 23.8011 19.8323 19.7303 19.662 19.1935 18.9989 18.7193 17.364 17.341 16.9093 16.6134 16.1789 15.9246 15.7993 12.7752 11.6697 11.4043 11.1112 13.2964
threshold=1.0000000180025095e-35 1.2500000000000002 1.7500000000000002 -1.5791499999999996 -0.51425999999999983 0.37500000000000006 -1.5974499999999996 -1.6615999999999997 2.6704500000000002 -2.2491499999999998 0.7807400000000001 -1.8651499999999996 0.061888000000000006 0.24471000000000001 -1.8010499999999998 4.4663500000000012 0.67500000000000016 6.5497500000000004 0.50879500000000011 0.14929000000000001 -1.9962499999999996 11.405500000000002 -1.4779999999999998 0.67500000000000016 2.2500000000000004 0.22500000000000001 -1.0513499999999996 0.47289500000000001 -5.7003999999999992 -1.1392499999999999
decision_type=2 2 2 2 2 2 2 2 2 2 2 2 2 2 2 2 2 2 2 2 2 2 2 2 2 2 2 2 2 2
left_child=2 3 7 9 5 -4 19 10 -9 -2 28 16 22 15 17 -8 25 -11 -5 -3 -18 -10 23 -7 26 -6 -24 -14 -1 -30
right_child=1 6 4 18 11 12 13 8 21 14 -12 -13 27 -15 -16 -17 20 -19 -20 -21 -22 -23 24 -25 -26 -27 -28 -29 29 -31
leaf_value=0.0485834004002378 0.042094602480225264 0.040228299829526797 0.044750495579594256 0.030418483271664055 0.041938820362886438 0.050541344858219837 0.03547810761626792 0.042559266497471007 0.036976739517989757 0.037268640268671008 0.042896572659619547 0.044454053249813975 0.046587424971430064 0.03811699981951365 0.032002491979080339 0.025147130303119873 0.042081258371141267 0.030194322575357545 0.024511383017131239 0.038390184546964204 0.049646602927453889 0.01939827991401824 0.039741443841280991 0.054284234869379111 0.05093111110362257 0.046287612300717845 0.047692051939098354 0.050110545385783078 0.043404899283729974 0.046202660718344106
leaf_count=2956 1991 30623 6316 4646 1850 7914 6685 12300 1464 9777 12847 20687 5514 11658 2976 482 829 1034 1699 22085 6773 148 647 4434 3050 19377 1610 3937 6296 13047
internal_value=0 -0.0953088 0.0676251 -0.16444 0.0912528 0.129243 -0.0739286 0.02768 -0.014844 -0.120938 0.0445124 0.0656106 0.148719 -0.112396 -0.137325 -0.153686 0.0841827 -0.117512 -0.272617 -0.0601898 0.12708 -0.142095 0.168509 0.188355 0.122334 0.0688199 0.0589059 0.111749 0.0652144 0.0564881
internal_count=225652 93656 131996 22123 82938 33422 71533 49058 13912 15778 35146 49516 27106 18825 13787 7167 28829 10811 6345 52708 7602 1612 17655 12348 5307 21227 2257 9451 22299 19343
shrinkage=1


Tree=1
num_leaves=31
num_cat=0
split_feature=117 125 125 83 91 127 83 83 16 52 16 69 7 96 2 10 10 40 127 93 38 10 57 3 46 0 11 127 113 57
split_gain=1312.59 124.931 112.433 93.9597 72.9161 49.1034 34.1189 31.6911 30.6744 26.6454 26.2483 24.3546 24.154 21.1043 19.1134 18.5588 18.1855 17.0982 16.9484 19.0679 16.361 14.7898 17.4201 14.4388 14.1277 13.5764 13.3324 12.8355 12.7372 12.609
threshold=1.0000000180025095e-35 1.2500000000000002 1.7500000000000002 -1.5791499999999996 -0.51425999999999983 0.37500000000000006 -1.5974499999999996 -1.6615999999999997 0.22966000000000003 2.6704500000000002 0.036908000000000003 -1.8729499999999997 -0.83244999999999991 -0.38256499999999993 -0.94303499999999996 -0.20988499999999996 -2.0797999999999992 -2.1282999999999999 0.52500000000000013 0.58884500000000017 1.5546000000000002 1.0285500000000003 -0.32301999999999992 4.1096000000000013 0.10202000000000001 3.7589500000000005 -1.1736499999999996 0.67500000000000016 1.0000000180025095e-35 -1.6496499999999996
decision_type=2 2 2 2 2 2 2 2 2 2 2 2 2 2 2 2 2 2 2 2 2 2 2 2 2 2 2 2 2 2
left_child=2 3 7 11 5 -4 24 12 14 -9 28 -2 -1 -14 -6 17 23 -13 -10 -20 -11 22 -5 -8 -3 -22 -19 -12 -7 -25
right_child=1 6 4 21 8 10 16 9 18 20 27 15 13 -15 -16 -17 -18 26 19 -21 25 -23 -24 29 -26 -27 -28 -29 -30 -31
leaf_value=0.00022954389913352444 -0.0025595137737211607 -0.0021207980764562013 0.0021687449540581938 -0.011707607929142109 0.0003113291384371618 0.0065494645640011067 -0.0073723402512423921 8.7077384102877563e-05 0.0029930932878578682 -0.0032042285887064871 0.0074481777012346349 -0.0056386571724514369 0.0013107243099031737 0.0043244437736227942 0.0030696832352727715 -0.0051154415101339126 -0.0047187896030140685 -0.0052543804359932748 0.0079130060519045382 0.0039790773398716058 -0.0080057097053614218 -0.010028416410450219 -0.018513296032298465 -0.0091141653674033773 -0.0037667325758981929 -0.024677864326134561 -0.013202402455139154 0.01067060092849645 0.0032625470197562012 -0.024782411294803023
leaf_count=11457 4348 29068 6316 1977 10719 9752 2071 12300 11074 1078 8154 2072 10207 13482 15166 6230 16240 672 5418 7139 345 2575 1793 264 23640 189 2456 4976 4224 250
internal_value=0 -0.0905434 0.0642439 -0.156218 0.0866901 0.122781 -0.0702322 0.026296 0.0623301 -0.0141018 0.141283 -0.114891 0.0422868 0.0605181 0.0385489 -0.139123 -0.106776 -0.183228 0.0883795 0.113529 -0.134991 -0.258986 -0.298887 -0.18468 -0.0571803 -0.278131 -0.229898 0.173388 0.111121 -0.334698
internal_count=225652 93656 131996 22123 82938 33422 71533 49058 49516 13912 27106 15778 35146 23689 25885 11430 18825 5200 23631 12557 1612 6345 3770 2585 52708 534 3128 13130 13976 514
shrinkage=0.05


Tree=2
num_leaves=31
num_cat=0
split_feature=117 119 125 124 83 89 83 125 125 119 125 119 125 2 92 127 110 127 35 119 3 35 83 92 83 15 105 36 95 125
split_gain=1184.61 604.275 167.014 108.164 93.2634 83.8596 54.4403 49.5179 43.2609 64.2934 42.1822 31.0616 53.5584 27.6444 25.1844 23.9974 21.0458 20.5446 22.1202 22.1381 19.3838 18.5744 18.3607 18.0763 17.0554 16.8957 16.7241 15.5859 15.3961 15.1993
threshold=1.0000000180025095e-35 1.0000000180025095e-35 1.2500000000000002 7.5000000000000009 -1.5791499999999996 -1.3140499999999997 -1.5974499999999996 1.7500000000000002 1.2500000000000002 1.0000000180025095e-35 1.7500000000000002 1.0000000180025095e-35 1.7500000000000002 -1.3508499999999997 -2.4371999999999994 0.37500000000000006 -3.1417999999999995 0.37500000000000006 -1.6903499999999998 1.0000000180025095e-35 4.7557000000000009 -1.1607499999999999 -1.5564499999999997 -3.2936499999999995 -1.6615999999999997 4.9826000000000006 0.64663500000000018 1.0853500000000003 1.2014500000000001 2.2500000000000004
decision_type=2 2 2 2 2 2 2 2 2 2 2 2 2 2 2 2 2 2 2 2 2 2 2 2 2 2 2 2 2 2
left_child=3 2 4 5 14 11 23 -3 9 22 -5 12 24 -10 -2 -14 -17 -15 19 26 -8 -16 -7 -4 -1 -22 -19 -20 -12 -18
right_child=1 7 6 10 -6 8 20 -9 13 -11 28 -13 15 17 21 16 29 18 27 -21 25 -23 -24 -25 -26 -27 -28 -29 -30 -31
leaf_value=0.0050987571227343606 -0.001581309573908507 0.0040969438848076 -0.00094356149029945359 -0.002805738897616759 -0.016989138005237568 -0.00066420180165431683 -0.0077649721115620341 -7.4733922395895861e-05 0.0014926785047942336 0.0054748383070029345 0.00055436977145697792 0.0030051349644542309 0.0036518228374060554 0.0019994214853193736 -0.008642352969462733 0.012750963472076538 0.0058685262442217693 0.0080463921814168411 0.0035838420213749494 0.003001722177955188 -0.0117997243536331 -0.013919169770920801 -0.0055690982970605374 -0.0048750084415295153 0.00051004070906496854 -0.02787100078724325 0.0048452883904628839 -0.0013415718325984834 0.0041660261810458855 0.0097246771514066608
leaf_count=6453 1065 11128 3237 8716 5110 6617 11182 19718 15234 4042 10110 7576 2270 10588 8848 3202 4374 8140 12142 6555 897 2055 2681 30216 2951 200 8181 1851 4167 6146
internal_value=0 -0.0860162 -0.142307 0.0610317 -0.226689 0.0741791 -0.110795 0.0286048 0.0559135 0.00420318 -0.00129632 0.116298 0.133062 0.0669169 -0.178402 0.168278 0.184034 0.0788144 0.0899645 0.109122 -0.167744 -0.192739 -0.0415697 -0.0898918 0.0731761 -0.294595 0.128836 0.0586461 0.0321699 0.162427
internal_count=225652 93656 62810 131996 17078 109003 45732 30846 76031 13340 22993 32972 25396 62691 11968 15992 13722 47457 36869 22876 12279 10903 9298 33453 9404 1097 16321 13993 14277 10520
shrinkage=0.05


Tree=3
num_leaves=31
num_cat=0
split_feature=126 119 126 83 124 89 126 83 44 83 119 127 83 119 110 7 36 7 14 71 126 110 57 5 49 0 4 107 127 5
split_gain=1069.11 545.358 204.526 118.19 97.6184 75.6833 33.7685 34.9383 29.8754 28.694 36.4583 28.1365 26.0164 29.3305 25.2471 25.06 21.2104 20.0105 19.4033 19.2934 19.1065 18.7165 17.8831 17.2837 16.9507 15.5771 15.2923 15.0343 14.7282 14.4802
threshold=1.0000000180025095e-35 1.0000000180025095e-35 1.3 -1.5791499999999996 7.5000000000000009 -1.3140499999999997 0.90000000000000013 -1.6615999999999997 0.53538500000000011 -1.5369999999999997 1.0000000180025095e-35 0.37500000000000006 -1.7867499999999998 1.0000000180025095e-35 1.3988500000000001 -1.0183499999999996 2.0698500000000002 -1.5208499999999996 0.64578000000000013 -4.1245499999999993 0.70000000000000007 -2.0761499999999997 -1.1572499999999997 2.7842500000000006 2.8047000000000009 4.600950000000001 0.33407000000000003 2.1799500000000003 0.37500000000000006 3.4284500000000002
decision_type=2 2 2 2 2 2 2 2 2 2 2 2 2 2 2 2 2 2 2 2 2 2 2 2 2 2 2 2 2 2
left_child=4 2 6 8 5 11 -2 -8 22 15 16 -1 13 21 -10 -7 27 -6 -14 -17 -3 -13 -4 -9 -20 -18 -24 -11 -21 -5
right_child=1 20 3 29 17 9 7 23 14 10 -12 12 18 -15 -16 19 25 -19 24 28 -22 -23 26 -25 -26 -27 -28 -29 -30 -31
leaf_value=0.0024567042133455449 -0.0029787736435288024 -0.00042016666286983804 -0.003786994186731671 -0.014636022010757003 -0.0029309644209181474 0.0016004908153022649 -0.0045839349977108831 -0.0086630607544617953 -0.0086134293141793047 0.00077033267890529861 0.0044431522897898012 0.010607682660684582 0.0057706276348658443 0.0032870740674033894 -0.015065230805683448 0.0010841011879545181 -0.0040913999992817519 0.00069667423353321793 0.0020148797394611679 0.0023806864991713895 0.0022292368421187488 0.0069186807152122557 -0.0096574815917580947 -0.018103002005505037 -0.010038452853728659 -0.019665508732401037 -0.0049402341601530713 -0.0062042759641101871 0.0048960517997716927 -0.022229286833198917
leaf_count=6094 20613 10135 4242 6971 4806 16502 11121 3791 5422 12177 5631 5348 5062 3742 2105 5205 1215 18187 2771 7429 20711 9629 4532 556 326 185 2767 825 26862 690
internal_value=0 -0.0817154 -0.135191 -0.201491 0.0579801 0.0704701 -0.0860765 -0.121392 -0.159341 0.0531178 0.020638 0.110483 0.124393 0.144933 -0.208355 0.0647373 -0.00603716 -0.00123151 0.0772683 0.0784113 0.0271746 0.164719 -0.127375 -0.197409 0.0149222 -0.122988 -0.157384 0.00655563 0.0870222 -0.306398
internal_count=225652 93656 62810 26729 131996 109003 36081 15468 19068 76031 20033 32972 26878 18719 7527 55998 14402 22993 8159 39496 30846 14977 11541 4347 3097 1400 7299 13002 34291 7661
shrinkage=0.05


Tree=4
num_leaves=31
num_cat=0
split_feature=118 120 125 125 120 35 80 120 16 125 81 69 35 125 7 7 80 74 3 107 52 16 5 125 35 75 35 6 102 2
split_gain=964.871 492.186 147.251 92.3973 74.8087 58.9376 56.8621 45.8959 47.8772 44.6844 36.3385 34.4091 34.5447 33.4917 24.1224 19.026 18.3822 17.6467 17.557 17.0765 16.9117 15.881 14.9893 14.102 14.0881 14.0486 13.6026 21.2462 13.4307 13.3108
threshold=1.0000000180025095e-35 1.0000000180025095e-35 1.2500000000000002 1.7500000000000002 1.0000000180025095e-35 -1.8187999999999998 0.021778000000000002 1.0000000180025095e-35 0.90250000000000019 1.7500000000000002 -2.0255499999999995 -1.9155999999999997 -2.1373499999999996 1.2500000000000002 -2.2475499999999995 -1.9925499999999998 3.9654000000000003 -3.4560999999999997 4.7557000000000009 -0.72553499999999993 6.5497500000000004 0.32853000000000004 3.7723500000000008 2.2500000000000004 -1.8187999999999998 -10.692499999999999 -1.1316499999999998 -1.6569499999999999 -3.0016999999999991 -1.8496499999999998
decision_type=2 2 2 2 2 2 2 2 2 2 2 2 2 2 2 2 2 2 2 2 2 2 2 2 2 2 2 2 2 2
left_child=1 9 5 4 -2 20 15 -8 17 -1 -7 -4 -13 16 -15 -5 21 -9 23 -16 25 -6 -12 -14 -17 -3 -23 -28 -27 -19
right_child=3 2 11 6 13 10 7 8 -10 -11 22 12 18 14 19 24 -18 29 -20 -21 -22 26 -24 -25 -26 28 27 -29 -30 -31
leaf_value=0.0038240021007305575 0.0045215462342528649 0.0010065747672812111 -0.0025838396501109005 -4.5021848245778774e-05 -0.0036783029565062501 -0.0019785809335452573 0.0017354983671433186 0.0067365583952976142 0.008860605707167896 -0.0001388441081255076 -0.01413046278973098 -0.0043479463610666394 -0.0083376985530906958 -0.0043360169295791782 0.0039135122193211481 0.0037703202072446717 0.0024671709590799312 -0.00014962667025703047 -0.013211099712588624 0.00070976378346599518 -0.01449803199412027 0.00096119684301757848 -0.023092961638873918 -0.0050426345590696671 0.00184819491699131 -0.018975920245550046 -0.012438329788986768 -0.00093735923753438151 -0.0072992667658502075 0.0042624951274893262
leaf_count=11128 11707 496 11558 5992 8573 602 7587 6692 10252 19718 6272 19345 8195 1679 6740 23164 2402 2023 1256 10863 864 4949 504 5378 16200 254 535 1610 8086 11028
internal_value=0 -0.0776297 -0.128432 0.0550811 0.0206801 -0.207665 0.0754294 0.104194 0.12177 0.0258158 -0.275024 -0.0988432 -0.114795 -0.00118207 0.0278053 0.0515948 -0.0321154 0.0929799 -0.151109 0.0387289 -0.156431 -0.0446043 -0.295942 -0.140642 0.0595856 -0.143374 -0.00960443 -0.076118 -0.153098 0.0715717
internal_count=225652 93656 62810 131996 49058 17078 82938 37582 29995 30846 7378 45732 34174 37351 19282 45356 18069 19743 14829 17603 9700 15667 6776 13573 39364 8836 7094 2145 8340 13051
shrinkage=0.05


Tree=5
num_leaves=31
num_cat=0
split_feature=117 120 83 124 89 69 35 10 120 99 10 14 54 1 36 34 124 44 7 7 3 25 57 54 67 14 10 120 79 8
split_gain=870.796 444.197 105.377 87.2045 63.8738 29.8131 26.0819 24.7698 24.3286 28.8365 27.6877 23.6061 21.0064 20.969 20.3302 18.5267 18.0481 17.6595 17.0324 16.5457 15.9795 15.4546 15.111 14.0663 12.7315 15.2731 12.1297 11.2433 13.818 10.9426
threshold=1.0000000180025095e-35 1.0000000180025095e-35 -1.5974499999999996 7.5000000000000009 -1.3140499999999997 -1.9155999999999997 -1.8651499999999996 -0.23310499999999998 1.0000000180025095e-35 -1.5705999999999998 -0.60707999999999995 0.96969000000000005 1.5664500000000003 -1.9141499999999996 1.0853500000000003 -1.2532499999999998 1.0000000180025095e-35 -0.73889499999999997 -1.5208499999999996 -1.9925499999999998 0.96058500000000013 -0.67481999999999986 -0.32301999999999992 3.8270500000000003 -1.5704499999999999 6.6397500000000012 1.0114500000000002 1.0000000180025095e-35 -0.75253999999999988 2.3187500000000005
decision_type=2 2 2 2 2 2 2 2 2 2 2 2 2 2 2 2 2 2 2 2 2 2 2 2 2 2 2 2 2 2
left_child=3 -2 5 4 8 17 19 12 -1 16 23 13 21 -7 -8 -13 -10 -3 -5 27 -16 -4 -9 -11 -20 -26 -24 -6 -29 -28
right_child=1 2 7 18 6 11 14 22 9 10 -12 15 -14 -15 20 -17 -18 -19 24 -21 -22 -23 26 -25 25 -27 29 28 -30 -31
leaf_value=0.0025578838053066971 0.0012262522397938429 -0.0015346607778025307 -0.0080728770676880886 -0.0028291290483886669 0.0038239615180427206 -0.0088866958813046248 0.0017870601595876626 -0.0050861782896007412 0.0089182974719838222 0.0011324152393565607 0.0061801493968419953 -0.0052432156442907517 -0.019101821058140348 -0.0041033597128195915 0.00028399591114495467 -0.0094055407011955691 0.0055578059860728101 -0.0053942794109350439 0.0011149094433878539 0.0035190932923605703 -0.0063854223535468272 -0.013766319650265405 -0.012131334467247783 -0.017653466216927649 -0.0014215795582116612 -0.014924670211904873 -0.0074269548477602981 -0.0040903977525729596 0.0025686736156820896 -0.015928667974830776
leaf_count=7576 30846 8783 2494 4806 1609 2611 27392 3078 7224 4316 4814 4811 905 18704 2565 6017 8940 4473 15108 39883 1382 2283 2465 102 2853 226 5781 1859 1341 405
internal_value=0 -0.0737482 -0.12201 0.052327 0.0641321 -0.0966445 0.0481909 -0.188151 0.100891 0.115727 0.0711397 -0.113101 -0.242342 -0.093786 0.0260729 -0.151123 0.141193 -0.0567404 -0.00363718 0.0637006 -0.0410246 -0.215877 -0.161898 0.013974 0.0103539 -0.0482543 -0.183308 0.00828986 -0.0259966 -0.159671
internal_count=225652 93656 62810 131996 109003 45399 76031 17411 32972 25396 9232 32143 5682 21315 31339 10828 16164 13256 22993 44692 3947 4777 11729 4418 18187 3079 8651 4809 3200 6186
shrinkage=0.05


Tree=6
num_leaves=31
num_cat=0
split_feature=126 120 126 99 125 120 127 91 125 125 120 125 83 1 126 83 125 83 3 91 38 125 70 1 125 10 127 67 57 14
split_gain=785.894 400.888 180.417 110.743 83.2623 67.2932 50.0235 51.9798 49.964 49.1168 44.3105 41.3625 32.9212 30.2605 29.6584 26.7515 25.8228 30.4429 23.2151 22.4148 19.6989 16.7951 16.3821 16.1819 15.7707 15.4354 14.5553 14.4503 14.9218 13.8468
threshold=1.0000000180025095e-35 1.0000000180025095e-35 1.3 -1.4262499999999998 1.7500000000000002 1.0000000180025095e-35 0.37500000000000006 0.19614500000000004 1.2500000000000002 1.2500000000000002 1.0000000180025095e-35 1.2500000000000002 -1.5791499999999996 -1.2400499999999999 0.90000000000000013 -1.6615999999999997 2.7500000000000004 -1.4955499999999999 3.1904500000000007 0.7807400000000001 0.74379500000000009 1.2500000000000002 -1.60625 -1.4248499999999999 1.2500000000000002 -1.8608499999999999 0.67500000000000016 -1.4646999999999999 -3.8282499999999993 1.4241500000000002
decision_type=2 2 2 2 2 2 2 2 2 2 2 2 2 2 2 2 2 2 2 2 2 2 2 2 2 2 2 2 2 2
left_child=4 11 14 8 5 -1 -6 10 27 -5 -8 -2 13 -7 -3 -16 17 23 -14 24 -20 -17 -9 -12 -15 -19 -18 28 -4 -10
right_child=1 2 3 9 6 12 7 22 29 -11 16 -13 18 19 15 21 26 25 20 -21 -22 -23 -24 -25 -26 -27 -28 -29 -30 -31
leaf_value=0.0041604452645060868 0.0053055259771275865 -0.0022472211221512351 -0.0033269330248168259 -0.018300704936822055 0.001063673958935639 -0.0023065651232488126 0.0014692742946100196 0.00070072467004668579 -0.0036236888634493709 -0.010626101329882853 0.0028947389357679223 0.0003553099896870188 -0.0015206115615736399 0.0010799424739070106 -0.0038438491409292196 -0.013422811787851544 0.0068401825136467798 -0.0022969021340832115 -0.0048414348726368789 -0.00071850255477284007 -0.017571136572371669 -0.0065196276843302627 0.0032891874113108164 0.0072564314024652883 0.0044688568597103968 0.00366237352355251 0.011104936925370047 -0.029012847973883732 -0.011089560000067682 -0.007273888094268089
leaf_count=11707 5045 20613 708 3284 17348 6118 5995 8498 8191 5709 2578 25801 9357 6579 11121 1228 5023 1400 1236 6479 403 3119 21776 12141 7179 4854 3325 103 4929 3805
internal_value=0 -0.0700608 -0.11591 -0.178179 0.0497107 0.0170545 0.0690269 0.0816573 -0.132344 -0.268573 0.107722 0.0232988 -0.00368045 0.0154962 -0.0697804 -0.102877 0.123738 0.105015 -0.0496427 0.0341273 -0.159429 -0.169395 0.051252 0.12985 0.0569659 0.046567 0.170777 -0.209074 -0.202292 -0.0956298
internal_count=225652 93656 62810 26729 131996 49058 82938 65590 17736 8993 35316 30846 37351 26355 36081 15468 29321 20973 10996 20237 1639 4347 30274 14719 13758 6254 8348 5740 5637 11996
shrinkage=0.05


Tree=7
num_leaves=31
num_cat=0
split_feature=117 119 126 99 124 89 126 92 83 7 119 124 83 119 110 119 36 126 92 71 3 2 46 7 5 10 57 80 43 86
split_gain=709.269 361.802 162.826 99.9453 77.9599 55.0729 26.7668 24.6858 24.1433 21.995 21.1086 26.0733 20.5158 22.0363 20.1238 20.0807 18.351 17.4753 16.6251 16.1603 16.0855 15.5468 15.0726 14.7627 14.5872 13.9895 21.5423 13.415 12.8433 12.5739
threshold=1.0000000180025095e-35 1.0000000180025095e-35 1.3 -1.4262499999999998 7.5000000000000009 -1.3140499999999997 0.90000000000000013 -2.7811999999999997 -1.6615999999999997 -1.9925499999999998 1.0000000180025095e-35 1.0000000180025095e-35 -1.7867499999999998 1.0000000180025095e-35 0.99787500000000018 1.0000000180025095e-35 2.1222500000000006 0.90000000000000013 5.0190500000000009 -3.8535499999999998 3.3437500000000004 -0.99875499999999995 0.73276500000000011 -1.5208499999999996 2.7842500000000006 0.85621000000000003 0.062219000000000003 -0.73313499999999987 0.72218500000000019 -0.18746999999999997
decision_type=2 2 2 2 2 2 2 2 2 2 2 2 2 2 2 2 2 2 2 2 2 2 2 2 2 2 2 2 2 2
left_child=4 2 6 7 5 10 -2 -4 -8 15 11 18 19 16 29 27 -14 -3 -1 -11 -18 28 -16 -6 -10 26 -5 -7 -13 -9
right_child=1 17 3 25 23 9 8 14 24 12 -12 21 13 -15 22 -17 20 -19 -20 -21 -22 -23 -24 -25 -26 -27 -28 -29 -30 -31
leaf_value=0.0060135794574256406 -0.0021348600787542238 -0.0001767169757705736 -0.00019795328752839428 -0.011773220633922906 -0.0027490670830546213 -0.003409346979417699 -0.0036516566624959969 -0.0081945159878941323 -0.0069370184734450979 0.00047232119439930497 0.0023097133447972755 0.00021579142408287915 0.00054425909708840704 0.003786851926271294 -0.0070970861078616613 0.0034401274360170379 -0.0028956307888923522 0.0022102625970426867 0.010472361805367748 0.0033639069563104976 -0.016831721830054779 0.0049432576987588541 -0.01229475012881707 0.00036679952910663915 -0.015609349110398255 -0.010488273684717222 -0.018367639368029848 0.0010401669193625962 0.0086398054410983961 -0.0044121024498780413
leaf_count=8610 20613 14261 1522 3027 4806 3941 11121 3142 3791 5443 7576 3576 11284 5198 3400 2934 960 16585 2761 43036 264 9931 2365 18187 556 3870 2096 2971 518 7307
internal_value=0 -0.0665577 -0.110114 -0.16927 0.0472251 0.0583869 -0.0662914 -0.125727 -0.0977335 0.0435847 0.0925198 0.106339 0.0501449 0.0210122 -0.137157 -0.000513034 -0.00173003 0.0221339 0.141924 0.0607851 -0.118029 0.0774882 -0.184587 -0.00568959 -0.160925 -0.255145 -0.289425 -0.0299361 0.0256331 -0.110989
internal_count=225652 93656 62810 26729 131996 109003 36081 17736 15468 76031 32972 25396 66185 17706 16214 9846 12508 30846 11371 48479 1224 14025 5765 22993 4347 8993 5123 6912 4094 10449
shrinkage=0.05


Tree=8
num_leaves=31
num_cat=0
split_feature=117 119 125 125 124 99 91 120 125 99 16 16 124 111 65 119 79 99 92 80 119 10 124 45 3 44 110 10 125 10
split_gain=640.115 326.526 117.113 74.99 77.6173 55.7068 42.2331 39.9695 37.9428 28.8278 26.2064 24.1847 22.4496 18.3246 17.6906 17.1906 18.6938 17.0397 16.083 15.1585 16.0846 14.9319 14.8888 15.3867 14.6767 14.6326 14.3908 14.0005 13.8529 13.0853
threshold=1.0000000180025095e-35 1.0000000180025095e-35 1.2500000000000002 1.7500000000000002 1.0000000180025095e-35 -1.5534999999999999 -0.51425999999999983 1.0000000180025095e-35 1.7500000000000002 -1.4262499999999998 0.036908000000000003 0.22966000000000003 1.0000000180025095e-35 -0.36227499999999996 -1.83205 1.0000000180025095e-35 -0.62730499999999989 -1.6701999999999997 -3.1279999999999997 3.9654000000000003 1.0000000180025095e-35 -2.1740499999999998 7.5000000000000009 0.7679450000000001 1.6312500000000003 -0.36117999999999995 0.20676500000000003 1.0462500000000003 1.2500000000000002 0.10618500000000002
decision_type=2 2 2 2 2 2 2 2 2 2 2 2 2 2 2 2 2 2 2 2 2 2 2 2 2 2 2 2 2 2
left_child=3 2 5 4 19 18 7 -5 -3 25 -9 12 -8 -6 -7 16 -13 29 -2 20 28 -11 23 -18 -19 -4 -12 -16 -1 -15
right_child=1 8 9 6 13 14 11 10 -10 21 26 15 -14 17 27 -17 22 24 -20 -21 -22 -23 -24 -25 -26 -27 -28 -29 -30 -31
leaf_value=-0.0010579011024829399 0.002187825633635915 0.0033856648530966407 -0.0019951983909892207 0.0010899199988851254 -0.0027013748404173532 -0.0056575412926554106 0.0026420502369632879 0.0038571357372150341 -0.00026602534060436825 -0.0097876468094697106 0.0079954999435147833 0.0028116976609386161 -0.00030295029568884496 0.0001432223651758659 -0.015424295289687568 0.0010760411327722813 0.0056025172162166717 -0.00066512806320847748 -0.0069801358190304356 0.0060873259001351238 0.0036519823920441691 -0.0051173042621297368 0.0019273455171306129 0.011271039821710148 -0.0066263072012754335 -0.0041579822784745942 0.0042681458457461234 -0.010266143122837896 0.0026573296251148565 0.0044445965995515034
leaf_count=4882 502 11128 15911 6731 11442 835 13008 13538 19718 1984 9608 10363 12877 6373 3456 5994 3907 3872 10161 2998 10474 12457 1641 1726 1408 15380 3545 2124 5162 2447
internal_value=0 -0.0632298 -0.104608 0.0448639 0.0138723 -0.175269 0.0631955 0.0906621 0.0210272 -0.0782211 0.108028 0.0446562 0.02354 -0.0242938 -0.248903 0.0677864 0.0835099 -0.000165294 -0.13097 0.0553267 0.0456217 -0.115179 0.122369 0.146788 -0.0450955 -0.0611648 0.139818 -0.269217 0.01703 0.0267317
internal_count=225652 93656 62810 131996 49058 17078 82938 33422 30846 45732 26691 49516 25885 25542 6415 23631 17637 14100 10663 23516 20518 14441 7274 5633 5280 31291 13153 5580 10044 8820
shrinkage=0.05


Tree=9
num_leaves=31
num_cat=0
split_feature=117 119 126 125 125 124 99 99 80 125 119 16 126 72 125 124 113 125 2 2 1 80 119 110 16 125 11 44 3 14
split_gain=577.704 294.69 144.708 86.8168 67.6785 70.0496 42.6656 40.0703 38.2036 35.1645 32.8576 38.598 23.7353 17.4224 17.1563 16.9234 16.6313 16.1657 15.7073 15.6512 14.2216 13.6805 14.5163 13.2143 12.5592 12.5022 12.3198 12.2385 17.2903 12.0547
threshold=1.0000000180025095e-35 1.0000000180025095e-35 1.3 1.2500000000000002 1.7500000000000002 1.0000000180025095e-35 -1.8596999999999999 -1.4262499999999998 0.021778000000000002 1.2500000000000002 1.0000000180025095e-35 0.90250000000000019 0.90000000000000013 -1.9434499999999997 1.2500000000000002 7.5000000000000009 1.0000000180025095e-35 1.2500000000000002 -1.6974499999999997 -0.67109499999999989 -1.7803499999999997 3.9654000000000003 1.0000000180025095e-35 1.0216500000000004 -0.6900099999999999 1.2500000000000002 -1.2244499999999998 -0.73889499999999997 4.3416000000000006 1.4241500000000002
decision_type=2 2 2 2 2 2 2 2 2 2 2 2 2 2 2 2 2 2 2 2 2 2 2 2 2 2 2 2 2 2
left_child=4 2 12 6 5 21 23 29 19 -3 11 16 -2 -14 27 -13 -10 -15 -16 24 -18 22 25 -4 -6 -1 -25 -7 -29 -5
right_child=1 9 3 7 8 14 -8 -9 10 -11 -12 15 13 17 18 -17 20 -19 -20 -21 -22 -23 -24 26 -26 -27 -28 28 -30 -31
leaf_value=-0.001005006152415394 -0.0017923642472155291 0.0048165673331696289 -0.0071937094725497558 -0.0030016580266308255 -0.00048473249775586488 -0.00049199076486289837 -0.01604080418443592 -0.0091709283985470635 0.0046108609822066013 0.00025228085335016903 0.0012410778175321112 0.0084446249919679795 -0.0028950452718059204 -0.010197349654552124 -0.0038164011912848101 0.0034119471934877126 -0.0037545229720973429 -0.0047625933175043994 0.00085665725904996218 0.0027846371626791683 0.0025804556564013531 0.0057829595046162072 0.003469383302903173 -0.0046055116720228164 0.0021462378912522465 0.0025244629922914165 -0.014400284239780282 -0.002958390804830232 -0.011046023960269876 -0.0064074646599341272
leaf_count=4882 20613 5045 3570 8191 8685 4709 3527 5709 13567 25801 7587 8151 8656 1896 2147 2101 1072 4916 11069 27176 5104 2998 10474 407 9495 5162 1520 6886 731 3805
internal_value=0 -0.0600683 -0.099378 -0.155145 0.0426207 0.0131787 -0.234974 -0.114458 0.0600357 0.0199758 0.0836135 0.0984844 -0.0580652 -0.0876734 -0.0230791 0.148265 0.0726347 -0.125505 0.00194995 0.0404991 0.0296172 0.0525604 0.0433406 -0.179896 0.0177873 0.0161785 -0.246631 -0.0499155 -0.0746911 -0.0816389
internal_count=225652 93656 62810 26729 131996 49058 9024 17705 82938 30846 37582 29995 36081 15468 25542 10252 19743 6812 13216 45356 6176 23516 20518 5497 18180 10044 1927 12326 7617 11996
shrinkage=0.05


Tree=10
num_leaves=31
num_cat=0
split_feature=117 119 126 125 124 89 99 35 125 125 119 125 65 126 83 19 125 119 83 10 80 124 7 119 125 5 83 16 126 10
split_gain=521.378 265.957 130.599 78.3522 65.1083 43.8649 38.5057 36.6907 32.2312 27.1078 39.366 25.7641 22.673 21.4211 19.0153 18.2462 17.8407 38.9806 18.8183 17.9948 15.5372 13.751 13.4277 16.7992 15.5752 12.9645 12.5104 13.4311 11.8909 11.137
threshold=1.0000000180025095e-35 1.0000000180025095e-35 1.3 1.2500000000000002 7.5000000000000009 -1.3140499999999997 -1.8596999999999999 -1.7375499999999999 1.7500000000000002 1.2500000000000002 1.0000000180025095e-35 2.2500000000000004 -1.8896999999999997 0.90000000000000013 -1.6615999999999997 -2.0850499999999994 2.2500000000000004 1.0000000180025095e-35 -1.6615999999999997 -0.35329499999999997 4.9006500000000006 1.0000000180025095e-35 -2.1876499999999997 1.0000000180025095e-35 2.7500000000000004 2.7842500000000006 -1.5564499999999997 -2.4978999999999996 0.70000000000000007 0.12699500000000002
decision_type=2 2 2 2 2 2 2 2 2 2 2 2 2 2 2 2 2 2 2 2 2 2 2 2 2 2 2 2 2 2
left_child=4 2 13 6 5 16 -4 -5 28 10 26 -6 -9 -2 -15 22 18 21 20 -20 -1 -18 -11 24 -24 -16 27 -7 -3 -29
right_child=1 8 3 7 11 9 -8 12 -10 15 -12 -13 -14 14 25 -17 17 -19 19 -21 -22 -23 23 -25 -26 -27 -28 29 -30 -31
leaf_value=0.0030089426944569474 -0.0017027460110134573 0.00075750468294191189 -0.0085450603784364941 -0.0035609590347064485 -0.0016777695672494271 -0.0070450002533162153 -0.015238764036163874 -0.0023186362468926558 -0.00026533817398667077 -0.00013326810000387199 0.0039468612513131199 0.0017876471986010068 -0.0095448442422682179 -0.0030684423557314211 -0.0059227957209683733 0.0012177878455563232 0.0092355953691898324 0.00042691542637043943 -0.0017108694848654968 0.0036889137950677216 0.0064945094368767083 0.0053930783753240443 0.0033058575875494047 0.0016169330145557063 0.0063266661106421793 -0.01409856152972843 -0.0048448433323858148 -0.0024216182460873189 0.0042405604328723768 0.0019664754458928418
leaf_count=9797 20613 3643 5497 10544 14471 761 3527 1334 19718 3188 4042 8522 5827 11121 3791 23765 4226 2831 3248 2939 4746 5185 19365 10900 5473 556 2681 2603 7485 3253
internal_value=0 -0.0570649 -0.0944091 -0.147388 0.0404897 0.05069 -0.223225 -0.108735 0.018977 0.0374796 -0.00345365 -0.00786733 -0.163974 -0.055162 -0.0832897 0.0461898 0.0811523 0.111422 0.0632768 0.0170836 0.0829286 0.142371 0.0595199 0.0650671 0.0794297 -0.13937 -0.0392704 -0.0159219 0.0620061 0.000319236
internal_count=225652 93656 62810 26729 131996 109003 9024 17705 30846 76031 13340 22993 7161 36081 15468 62691 32972 12242 20730 6187 14543 9411 38926 35738 24838 4347 9298 6617 11128 5856
shrinkage=0.05


Tree=11
num_leaves=31
num_cat=0
split_feature=118 120 125 124 83 89 125 125 120 125 83 2 75 54 125 120 83 15 14 16 71 79 124 2 34 15 52 83 16 49
split_gain=470.544 240.027 88.3691 58.7603 45.3255 39.5881 29.9167 24.4648 35.5278 23.4683 22.3898 18.0875 16.8479 16.6047 16.1012 35.18 16.9835 16.853 13.4426 12.7153 12.5085 12.1688 12.1983 12.6018 11.5441 14.6327 11.3874 11.2906 12.1216 11.7564
threshold=1.0000000180025095e-35 1.0000000180025095e-35 1.2500000000000002 7.5000000000000009 -1.5791499999999996 -1.3140499999999997 1.2500000000000002 1.2500000000000002 1.0000000180025095e-35 1.7500000000000002 -1.5974499999999996 -0.67109499999999989 -10.692499999999999 0.82197000000000009 2.2500000000000004 1.0000000180025095e-35 -1.6615999999999997 0.34951500000000008 0.96969000000000005 -0.044072999999999994 -13.094499999999998 -0.59654499999999988 1.0000000180025095e-35 -2.0256499999999993 -1.7554999999999998 0.88560500000000009 6.5497500000000004 -1.5564499999999997 -2.4978999999999996 0.79799000000000009
decision_type=2 2 2 2 2 2 2 2 2 2 2 2 2 2 2 2 2 2 2 2 2 2 2 2 2 2 2 2 2 2
left_child=1 6 4 5 12 14 -1 8 -7 -5 18 21 -3 -12 16 -16 -2 -18 -4 -17 -13 22 -9 -24 26 -26 -14 28 -10 -29
right_child=3 2 10 9 -6 7 -8 11 27 -11 13 20 24 -15 15 19 17 -19 -20 -21 -22 -23 23 -25 25 -27 -28 29 -30 -31
leaf_value=0.0044228090646762563 0.003939109907991541 0.00029564896814641777 -0.0019566415254645021 -0.0024181309094599753 -0.011495498462038848 0.003749518121584867 0.00021285086839313035 0.0014019506541434364 -0.00669275011595598 0.00087441252442189011 -0.0041776171104934961 -0.00016225923489008383 -0.0035583963177583579 -0.0085902889331421015 0.00040556945458399311 0.0048414367623446954 0.002782175699101175 -0.0026440584710512652 -0.0040801267935007155 0.0085207894788002191 0.0031494860270864008 0.0025238580261909365 -0.0051399281643416221 -4.9789799172502189e-05 -0.0059942898214154789 -0.010977474907143946 -0.010821345366555482 -0.0027447175796364324 1.5163766280646167e-05 -0.01050326263907763
leaf_count=5045 14543 1014 22245 8716 5110 4042 25801 9087 761 14277 9533 3105 3994 2746 2831 4497 3940 2247 11208 4914 34886 9674 1706 4233 4006 2330 624 2039 5856 642
internal_value=0 -0.0542117 -0.0896887 0.0384652 -0.151069 0.0481555 0.0180282 0.0356056 -0.00328097 -0.00747396 -0.0667671 0.0438803 -0.117406 -0.103289 0.0770947 0.105851 0.0601129 0.0162294 -0.0533618 0.135253 0.0575763 0.0228145 0.00500472 -0.030239 -0.128821 -0.156536 -0.0907958 -0.0373069 -0.0151258 -0.092052
internal_count=225652 93656 62810 131996 17078 109003 30846 76031 13340 22993 45732 62691 11968 12279 32972 12242 20730 6187 33453 9411 37991 24700 15026 5939 10954 6336 4618 9298 6617 2681
shrinkage=0.05


Tree=12
num_leaves=31
num_cat=0
split_feature=117 120 126 99 107 110 44 10 126 113 120 2 83 69 83 126 3 43 83 52 100 14 90 52 120 83 7 54 102 42
split_gain=424.666 216.624 116.121 66.1608 38.8487 22.1957 20.956 27.0497 18.9986 18.7488 18.2327 31.3284 18.446 16.5319 15.5828 15.1997 15.1332 14.0827 14.6574 14.3181 13.4636 13.068 12.7605 12.3449 12.2271 16.1109 11.3277 11.2037 10.779 10.7569
threshold=1.0000000180025095e-35 1.0000000180025095e-35 1.3 -1.4262499999999998 0.44783500000000004 -1.9131499999999997 0.53538500000000011 -0.80598499999999984 0.90000000000000013 1.0000000180025095e-35 1.0000000180025095e-35 -0.94303499999999996 -1.7867499999999998 -1.8453499999999996 -1.6615999999999997 0.70000000000000007 7.3308000000000009 0.51039500000000004 -1.5564499999999997 4.7362000000000011 3.4019500000000007 3.3108500000000007 0.90304000000000018 -0.42367499999999997 1.0000000180025095e-35 -1.4955499999999999 -2.2172499999999995 0.65608500000000014 -2.6326499999999995 0.79568500000000009
decision_type=2 2 2 2 2 2 2 2 2 2 2 2 2 2 2 2 2 2 2 2 2 2 2 2 2 2 2 2 2 2
left_child=4 15 8 6 5 24 13 20 -3 17 -6 21 -13 -4 -10 -2 -14 18 26 -20 -8 22 -12 -5 -1 -26 -7 -16 -15 -27
right_child=1 2 3 23 10 9 7 -9 14 -11 11 12 16 28 27 -17 -18 -19 19 -21 -22 -23 -24 -25 25 29 -28 -29 -30 -31
leaf_value=0.0014345570425274823 -0.00073029774792040289 -0.0014159328119858904 -0.00094917934921721686 -0.008352853081958456 0.0022935448666918578 -0.0013780186866750414 -0.013001971536581098 -0.004559974216443519 -0.0027421050714300831 0.00072781804868973809 0.0012586556468806532 0.0020764086602773233 -0.0003822374828549553 -0.015142164482716837 -0.0047943182689558373 0.0016327633021321496 -0.011020397264391333 0.0043177290286901043 0.00082549286429552452 -0.0083276442450493839 -0.0052934615685523538 -0.0058491409010441942 -0.0021809824910741416 -0.012059007355305932 0.0059381895759901843 0.0015248322462401765 0.0030958837724026625 -0.010631158671360448 -0.0046663320940660046 0.0085601983432357816
leaf_count=3470 10135 20613 3810 4386 15328 1516 2055 4208 11121 17659 3955 19423 6649 255 3246 20711 352 9914 7517 453 782 1629 8473 4607 9538 4295 21203 1101 6626 622
internal_value=0 -0.0515011 -0.0852043 -0.13516 0.0365419 0.0512251 -0.0997335 -0.142078 -0.0481965 0.0417577 0.0164974 0.0053752 0.0256656 -0.07183 -0.0746861 0.0171268 -0.0183422 0.053588 0.0430029 0.00610491 -0.217543 -0.0327662 -0.0217275 -0.205029 0.0819972 0.0947936 0.055947 -0.125453 -0.101091 0.0482961
internal_count=225652 93656 62810 26729 131996 76187 17736 7045 36081 58262 55809 40481 26424 10691 15468 30846 7001 40603 30689 7970 2837 14057 12428 8993 17925 14455 22719 4347 6881 4917
shrinkage=0.05


Tree=13
num_leaves=31
num_cat=0
split_feature=127 119 126 99 124 89 42 44 10 126 83 119 121 57 2 126 52 113 83 6 14 85 100 65 10 109 5 40 80 10
split_gain=399.592 193.08 113.997 59.7101 51.6219 33.9535 24.149 18.9128 24.4124 17.8135 15.7982 22.0004 15.1892 15.1834 15.1101 14.5918 14.416 14.2991 14.0635 12.9168 17.8693 12.6214 12.1509 11.6007 13.4577 11.708 11.2536 11.2215 11.0654 12.4623
threshold=0.22500000000000001 1.0000000180025095e-35 1.3 -1.4262499999999998 7.5000000000000009 -0.76380999999999988 0.9889300000000002 0.53538500000000011 -0.80598499999999984 0.90000000000000013 -1.7867499999999998 1.0000000180025095e-35 1.5000000000000002 -1.6043499999999999 -0.79732999999999987 0.90000000000000013 2.5962500000000004 1.0000000180025095e-35 -1.6615999999999997 -2.5946499999999992 2.9308500000000004 -1.57365 3.4019500000000007 -1.83205 -2.2691499999999993 -13.205499999999999 2.7842500000000006 -1.6736499999999996 4.9006500000000006 -1.61805
decision_type=2 2 2 2 2 2 2 2 2 2 2 2 2 2 2 2 2 2 2 2 2 2 2 2 2 2 2 2 2 2
left_child=1 2 9 7 5 6 10 13 22 -1 11 14 19 -4 -2 -3 -12 -6 -11 20 -7 -21 -9 -5 25 -25 -20 -14 29 -16
right_child=4 15 3 23 17 12 -8 8 -10 18 16 -13 27 -15 28 -17 -18 -19 26 21 -22 -23 -24 24 -26 -27 -28 -29 -30 -31
leaf_value=-0.0013895880877827342 0.0025179149996360623 -0.00027290420446221661 -0.00068209600490787867 -0.0044732745152897138 0.00053106014651262579 0.001051867247314611 0.007910335276320575 -0.012351872950470542 -0.0043319756460002933 -0.0026049997850920194 0.0022781456473968064 0.0011522383395464182 0.0021619591413606521 -0.0047125637061329623 0.001530057099608944 0.0018023936414865418 -0.0032397556446488542 -0.0022553692764438033 -0.0049847566143041361 0.00079674826879207498 -0.0067776696250590063 0.0028386242336699741 -0.0050287885346647614 -0.0018004820081042061 -0.009509389710327127 -0.017164780277847621 -0.012601956377688335 -0.00067239673001627629 0.0079335190615724294 0.0057287987259559171
leaf_count=25049 5609 17311 3450 937 15162 4462 2922 2055 4208 11121 9459 5690 5313 7241 2326 16585 1353 6612 3791 9758 871 33723 782 141 6887 1028 556 10189 3704 7357
internal_value=0 -0.0466902 -0.0777103 -0.128402 0.0379274 0.0473013 0.0708226 -0.0947468 -0.134974 -0.0442688 0.0636296 0.0775911 0.0332505 -0.0682385 0.0939297 0.0148504 0.0317528 -0.00630161 -0.0709518 0.0419108 -0.00453748 0.0476077 -0.206666 -0.194778 -0.207027 -0.306232 -0.119181 0.00598044 0.112186 0.094404
internal_count=225652 101142 67246 26729 124510 102736 38420 17736 7045 40517 35498 24686 64316 10691 18996 33896 10812 21774 15468 48814 5333 43481 2837 8993 8056 1169 4347 15502 13387 9683
shrinkage=0.05


Tree=14
num_leaves=31
num_cat=0
split_feature=127 119 126 99 124 91 65 35 126 94 16 2 119 16 16 126 10 106 127 119 27 35 7 61 83 61 66 11 7 90
split_gain=360.632 174.254 102.882 53.8884 46.5887 31.2417 16.2398 18.8024 16.0767 15.3599 15.1726 15.1186 23.9621 14.6793 13.1822 13.1691 13.1334 12.8348 12.7561 12.9056 13.6106 14.6742 14.7476 12.7172 12.6923 12.562 12.4935 11.752 11.6612 11.6068
threshold=0.22500000000000001 1.0000000180025095e-35 1.3 -1.4262499999999998 7.5000000000000009 -0.48914999999999992 -1.8896999999999997 -2.1373499999999996 0.90000000000000013 -2.2779499999999993 0.45780500000000007 -1.1902499999999996 1.0000000180025095e-35 -0.91220499999999982 0.93919500000000011 0.90000000000000013 -1.8173499999999996 -3.6774499999999999 0.37500000000000006 1.0000000180025095e-35 0.62478500000000003 -0.74782999999999988 -0.18651499999999996 -1.6138499999999996 -1.6615999999999997 -0.087709499999999982 -1.7299999999999998 1.3202500000000004 -2.9552499999999995 1.1102500000000004
decision_type=2 2 2 2 2 2 2 2 2 2 2 2 2 2 2 2 2 2 2 2 2 2 2 2 2 2 2 2 2 2
left_child=1 2 8 6 5 9 25 -8 -1 26 -5 12 13 28 23 -3 17 -11 -18 20 21 27 -23 -6 -10 -4 -2 -20 -7 -15
right_child=4 15 3 10 14 11 7 -9 24 16 -12 -13 -14 29 -16 -17 18 -19 19 -21 -22 22 -24 -25 -26 -27 -28 -29 -30 -31
leaf_value=-0.0013201088520256063 0.0068021332627343223 -0.00025925912646992418 0.00024777011846962373 -0.010678932053629719 0.0012342600449112655 -0.0077632322598230373 -0.0044225323489335616 -0.0090465717279255287 -0.0024747499006651302 0.0027931227935637181 -0.0062961306835769976 0.0020084576825702416 0.0030657285619331998 0.0024831206420752559 0.0014272947304395499 0.0017122738991344876 0.00053346252362717174 -0.00047501180024938277 0.0063464732427616025 0.0012377836364289526 0.0074683364057639623 -0.002626384473163572 0.0043851021160094053 -0.0020893002678788915 -0.0056610777182313056 -0.0047845137303087247 0.0032968884591672177 0.0018392980199612445 -0.0018109100660257443 -0.0018539915962915436
leaf_count=25049 4886 17311 2679 6065 3969 1015 9924 2824 11121 7497 2928 43407 5203 3595 7332 16585 2971 5013 5111 3213 3461 1490 1510 10473 4347 2309 5299 2017 4346 2702
internal_value=0 -0.0443557 -0.0738248 -0.121982 0.036031 0.0449362 -0.0900095 -0.108937 -0.0420553 0.0657102 -0.185039 0.0302979 0.00488515 -0.0202995 -0.00598653 0.0141079 0.055028 0.0296704 0.0710714 0.0817519 0.0952282 0.0767276 0.0180546 -0.0235182 -0.0674042 -0.0416346 0.0995688 0.101422 -0.0587573 0.0124419
internal_count=225652 101142 67246 26729 124510 102736 17736 12748 40517 42468 8993 60268 16861 11658 21774 33896 32283 12510 19773 16802 13589 10128 3000 14442 15468 4988 10185 7128 5361 6297
shrinkage=0.05


Tree=15
num_leaves=31
num_cat=0
split_feature=127 119 126 125 125 124 125 107 119 83 124 83 113 122 94 83 38 1 126 110 5 125 44 72 83 102 2 64 103 10
split_gain=325.47 157.265 92.8511 63.049 58.8079 52.208 29.3848 25.4266 28.367 23.4303 22.5167 18.953 18.8226 18.7288 17.2336 15.7802 16.2996 15.8304 14.5092 13.8054 13.4396 13.4307 13.0444 12.6399 11.7858 11.5457 11.1965 11.1316 10.9386 10.5399
threshold=0.22500000000000001 1.0000000180025095e-35 1.3 1.2500000000000002 1.7500000000000002 1.0000000180025095e-35 1.7500000000000002 0.55576500000000018 1.0000000180025095e-35 -1.5369999999999997 1.0000000180025095e-35 -1.5974499999999996 1.0000000180025095e-35 -1.0000000180025095e-35 -3.1858499999999998 -1.5564499999999997 0.69693000000000016 -1.2400499999999999 0.90000000000000013 1.0216500000000004 3.5891000000000006 1.7500000000000002 -1.3972499999999999 -1.9434499999999997 -1.5369999999999997 0.16981000000000004 -2.2371499999999993 1.5782500000000004 0.25497000000000009 -0.55173499999999986
decision_type=2 2 2 2 2 2 2 2 2 2 2 2 2 2 2 2 2 2 2 2 2 2 2 2 2 2 2 2 2 2
left_child=1 2 18 9 5 -2 -3 8 10 19 14 -5 13 -12 -6 17 -17 -7 -1 -4 -18 23 -21 -20 28 29 -14 -25 -9 -16
right_child=4 6 3 11 7 15 -8 24 -10 -11 12 -13 26 -15 25 16 20 -19 21 22 -22 -23 -24 27 -26 -27 -28 -29 -30 -31
leaf_value=-0.0012541033087221352 0.0020700914699468284 0.0026306990915691462 -0.005729798471586803 -0.0030495018331726576 0.010140566215628241 -0.0032251435190695991 -0.00043530552302978103 0.0030443393022751997 0.0008563293456252943 -0.012998089374383468 0.004882780538590854 -0.0067076451741482305 -0.0065496135108493352 0.0010646567904220115 0.0010561216749856404 -0.0021521356135485044 -0.0061898971452068454 0.00036548756439875772 -0.0028544904463245692 0.004857488616835326 -0.02039277431919112 -0.0018339366104759723 -0.011582691668798724 -0.0056359367414047373 -0.00019632774383630428 0.0066530177737071823 0.0014559142939908354 -0.012976013943175799 0.00085283578071921858 0.0053345248279727461
leaf_count=25049 21955 12221 3997 12812 1813 3998 21675 12164 9609 2796 13091 4893 465 4256 2677 5922 1078 13220 3875 128 197 8308 2103 2643 8146 4908 7192 642 10705 3114
internal_value=0 -0.0421379 -0.0701335 -0.115883 0.0342294 0.00601745 0.0134025 0.0509711 0.0656052 -0.183912 0.0780221 -0.0812095 0.0606919 0.0789205 0.112655 -0.0258017 -0.0651244 -0.00936506 -0.0399526 -0.149771 -0.167688 -0.064034 -0.212789 -0.0957752 0.0287356 0.0973772 0.019395 -0.141409 0.0403699 0.067135
internal_count=225652 101142 67246 26729 124510 46370 33896 78140 47125 9024 37516 17705 25004 17347 12512 24415 7197 17218 40517 6228 1275 15468 2231 7160 31015 10699 7657 3285 22869 5791
shrinkage=0.05


Tree=16
num_leaves=31
num_cat=0
split_feature=117 119 125 125 124 66 83 119 125 2 7 15 125 69 124 3 78 3 125 15 92 124 90 52 10 106 43 125 106 71
split_gain=281.33 143.59 67.1773 48.5436 48.1072 35.7859 29.4206 26.4198 25.486 23.1081 20.2908 19.3701 17.7028 17.3904 17.3399 17.0508 16.4442 15.0736 14.1675 13.7089 13.5764 13.4473 16.1912 13.2223 13.047 12.3623 12.0213 11.6428 11.4649 11.2724
threshold=1.0000000180025095e-35 1.0000000180025095e-35 1.2500000000000002 2.2500000000000004 1.0000000180025095e-35 -1.7692499999999998 -1.5564499999999997 1.0000000180025095e-35 1.2500000000000002 -1.38825 -2.1011499999999996 0.71634500000000012 1.2500000000000002 -1.9155999999999997 1.0000000180025095e-35 4.7557000000000009 -2.2041499999999998 8.8016000000000023 2.2500000000000004 1.2967500000000001 2.4510000000000001 7.5000000000000009 0.37315500000000007 6.5497500000000004 -1.5427499999999996 0.98876000000000019 -8.982549999999998 2.7500000000000004 -3.5720999999999994 -0.21783499999999997
decision_type=2 2 2 2 2 2 2 2 2 2 2 2 2 2 2 2 2 2 2 2 2 2 2 2 2 2 2 2 2 2
left_child=3 2 5 4 16 23 10 9 -3 25 -6 -8 26 -4 20 18 -1 -13 -15 28 -11 22 -14 -2 -17 -5 -12 -16 -7 -18
right_child=1 8 13 7 6 19 11 -9 -10 14 12 17 21 15 27 24 29 -19 -20 -21 -22 -23 -24 -25 -26 -27 -28 -29 -30 -31
leaf_value=0.0043428636497844942 -0.0035128218189415627 0.0039479913964417168 -0.00079206650918831891 0.0024410012094212771 -0.0036490411295397444 -0.00016573954015507438 -0.0013716689983037892 0.00066634092097144783 6.2269439020106289e-05 0.0047290485543907065 -0.013634672849660828 -0.005065179021166215 0.0040311353085863552 -0.0035737240837130039 0.0020442987169967302 -0.012225039751310668 0.00063052159280134847 -0.019425821134212373 -0.0014073908646466179 -0.012512388294912986 0.0091328213229190294 -0.00020567208180154173 0.00049267633551824659 -0.010306706293341471 -0.0046213157541186954 -0.001635713279482684 -0.00087006135117798924 0.0044872423517620802 -0.008176134251250718 0.0024615577343924354
leaf_count=6309 8626 5045 11558 5502 2776 487 9604 11734 25801 7060 189 2699 7703 18822 10253 792 16540 196 12599 1788 2327 6671 5571 781 1961 2809 7660 9302 5396 17091
internal_value=0 -0.0419181 -0.0693578 0.0297424 0.0150103 -0.122874 -0.00817235 0.054706 0.0139559 0.0677397 0.00853983 -0.0490469 0.0166819 -0.0493727 0.0810861 -0.0607134 0.0400092 -0.120749 -0.0541016 -0.173566 0.116415 0.0325139 0.0509214 -0.0815374 -0.136176 0.0212626 -0.0235485 0.0641274 -0.150261 0.0312208
internal_count=225652 93656 62810 131996 83009 17078 43069 48987 30846 37253 30570 12499 27794 45732 28942 34174 39940 2895 31421 7671 9387 19945 13274 9407 2753 8311 7849 19555 5883 33631
shrinkage=0.05


Tree=17
num_leaves=31
num_cat=0
split_feature=127 119 125 125 124 72 16 125 119 16 90 94 72 57 65 3 108 16 79 7 15 106 125 47 7 10 127 39 125 94
split_gain=267.377 128.273 59.9678 49.7729 44.5847 29.322 29.152 25.0195 22.2568 30.9431 20.3593 18.3106 16.6396 14.9612 14.842 14.8327 13.7257 13.2016 13.0643 13.9148 13.016 12.4011 12.318 13.4041 11.9508 11.903 11.7363 11.6069 11.5813 11.0472
threshold=0.22500000000000001 1.0000000180025095e-35 1.2500000000000002 2.2500000000000004 1.0000000180025095e-35 -1.8695499999999996 0.93919500000000011 1.7500000000000002 1.0000000180025095e-35 1.0000000180025095e-35 -0.24272999999999997 -3.3257499999999998 -1.4978499999999999 -2.4956499999999995 -1.8896999999999997 4.7557000000000009 -2.2491499999999998 0.22966000000000003 2.3226500000000008 -3.2581999999999995 1.2967500000000001 -3.4688999999999992 1.2500000000000002 -17.648999999999997 5.9771500000000009 -1.5427499999999996 0.52500000000000013 -1.7620499999999997 2.2500000000000004 0.64800500000000005
decision_type=2 2 2 2 2 2 2 2 2 2 2 2 2 2 2 2 2 2 2 2 2 2 2 2 2 2 2 2 2 2
left_child=1 2 5 4 11 16 12 -3 9 18 26 -2 13 -6 -4 17 -1 28 19 -5 21 -7 23 -8 -21 -17 -11 -14 -16 -18
right_child=3 7 14 8 6 20 22 -9 -10 10 -12 -13 27 -15 15 25 29 -19 -20 24 -22 -23 -24 -25 -26 -27 -28 -29 -30 -31
leaf_value=0.00094181820442773936 0.005567403058728302 0.0024074840201065515 -0.00078519357831244828 -0.0070550792722614735 0.0024379339056109324 0.00028021337533196166 -0.03532965239137411 -0.0004216306543035697 0.00083908348068441471 0.0041165783291657676 0.0033020871597224015 0.0016889768669870024 -0.0060572362892806183 -0.0011431087732636496 -0.0044212377144844939 -0.011171066441745425 -0.0030740198623514475 -0.0014115414491009813 0.0044196739811231713 0.001090081999618234 -0.011502556876047166 -0.0074531576220437023 0.0024231951231993652 -0.00061313760151475829 0.0073779193338927383 -0.0041667611472803404 0.007978355691657682 -0.0019877768405847369 -0.0018662872419340254 -0.006833787275398448
leaf_count=1329 3343 12221 12466 495 3908 569 28 21675 10560 3012 9649 33935 2150 11498 10985 849 5029 15557 4038 11881 1875 5829 10094 3969 807 2124 5673 9470 7439 3195
internal_value=0 -0.0381925 -0.0634763 0.0310246 0.01569 -0.113199 -0.00701723 0.0119678 0.0570932 0.0690658 0.097657 0.0407357 -0.0262439 -0.0046943 -0.0455413 -0.0556066 -0.0754559 -0.0496807 0.0386268 0.0233831 -0.156781 -0.135308 0.0298587 -0.0171267 0.0298002 -0.12334 0.132781 -0.0548146 -0.0677927 -0.0906936
internal_count=225652 101142 67246 124510 78395 17826 41117 33896 46115 35555 18334 37278 27026 15406 49420 36954 9553 33981 17221 13183 8273 6398 14091 3997 12688 2973 8685 11620 18424 8224
shrinkage=0.05


Tree=18
num_leaves=31
num_cat=0
split_feature=127 124 126 125 125 124 125 124 113 125 99 127 99 124 1 80 67 6 127 54 110 16 126 99 54 109 110 11 14 125
split_gain=241.307 115.766 79.8725 48.8492 46.178 40.4337 27.034 24.2964 23.5366 22.5801 21.7203 20.659 20.0958 17.1137 18.2225 16.6471 14.9764 14.8887 14.3394 13.9909 13.4903 12.2187 12.0715 11.5396 15.2104 10.8793 10.4739 10.3571 10.1169 10.1074
threshold=0.22500000000000001 -1.0000000180025095e-35 1.3 1.2500000000000002 1.2500000000000002 -1.0000000180025095e-35 2.7500000000000004 -1.0000000180025095e-35 1.0000000180025095e-35 1.7500000000000002 -1.8596999999999999 0.67500000000000016 -1.4262499999999998 1.0000000180025095e-35 -1.2400499999999999 -0.6368149999999998 -1.5704499999999999 -0.12908999999999995 0.37500000000000006 -0.5950899999999999 -1.9519499999999999 1.0000000180025095e-35 0.90000000000000013 -1.4262499999999998 0.63236500000000018 -1.93075 1.0216500000000004 0.06933300000000002 1.1509500000000001 1.7500000000000002
decision_type=2 2 2 2 2 2 2 2 2 2 2 2 2 2 2 2 2 2 2 2 2 2 2 2 2 2 2 2 2 2
left_child=1 9 22 10 5 -2 8 -8 15 -1 26 -9 -5 -10 -15 -6 18 19 -17 -18 25 -13 -3 -22 -25 -7 -4 -28 -26 -24
right_child=4 2 3 12 6 20 7 11 13 -11 -12 21 -14 14 -16 16 17 -19 -20 -21 23 -23 29 24 28 -27 27 -29 -30 -31
leaf_value=0.0022871098232060765 0.0034409907643099635 -0.00093731653007163903 -0.0045623413222357348 -0.002448624996986276 0.0010449412299040684 0.0042353338864803206 0.00036817046034114408 0.0031284964803229109 0.0016264046615828622 -0.00040054918030511068 -0.011193162455905556 0.0043744740989096163 -0.0060525215309361578 -0.0042324655286637763 5.7239489390697995e-05 0.00054363200308473456 0.001582383213586719 0.0027279173294508094 0.0038116270414899518 -0.0055230307368753333 -0.0013743024444304172 0.0089951697919653864 -0.0040905687340116797 -0.0026465673511888678 -0.0062129789869527175 -0.0015889082194945371 -0.0057121579254279589 -0.013060395726244399 -0.015943658287854164 -0.0015272471299224574
leaf_count=12221 4848 25049 3570 11996 23517 1538 4884 11315 11215 21675 3527 2713 5709 3325 9692 3952 1325 3641 22283 1452 9372 3027 7160 3422 941 1675 1029 898 373 8308
internal_value=0 -0.0362829 -0.0603025 -0.102734 0.0294733 -0.0119044 0.0384365 0.0695505 0.0299466 0.0113694 -0.162615 0.0873589 -0.0722141 0.00389728 -0.02077 0.0411844 0.0557943 0.0124947 0.0663868 -0.042656 -0.0344985 0.136224 -0.0323102 -0.0478167 -0.0880488 0.0239808 -0.123317 -0.18273 -0.179504 -0.0542757
internal_count=225652 101142 67246 26729 124510 22169 102341 21939 80402 33896 9024 17055 17705 24232 13017 56170 32653 6418 26235 2777 17321 5740 40517 14108 4736 3213 5497 1927 1314 15468
shrinkage=0.05


Tree=19
num_leaves=31
num_cat=0
split_feature=117 119 126 125 125 119 106 125 124 83 69 1 119 83 3 83 38 105 54 57 9 126 5 90 51 81 125 17 14 25
split_gain=206.765 106.087 67.4579 44.0864 37.9175 36.5765 25.9601 20.4491 19.4849 17.5541 16.2436 15.5736 19.2518 21.0565 14.6692 13.8787 16.5857 13.8453 13.7486 12.8974 11.8981 11.7162 12.3768 11.1482 10.6046 10.5162 10.206 10.1053 10.0959 10.0531
threshold=1.0000000180025095e-35 1.0000000180025095e-35 1.3 1.2500000000000002 1.2500000000000002 1.0000000180025095e-35 -3.3780499999999996 1.2500000000000002 7.5000000000000009 -1.5217499999999997 -1.9155999999999997 -1.2765499999999996 1.0000000180025095e-35 -1.7867499999999998 5.0747500000000008 -1.5564499999999997 1.7026500000000002 0.98497500000000004 2.2763500000000003 -3.8282499999999993 -0.75539499999999993 0.70000000000000007 6.3481500000000013 -0.021297999999999997 -2.0194999999999994 40.610000000000007 1.7500000000000002 -1.4007999999999998 3.7480500000000005 0.12510500000000005
decision_type=2 2 2 2 2 2 2 2 2 2 2 2 2 2 2 2 2 2 2 2 2 2 2 2 2 2 2 2 2 2
left_child=4 2 21 9 5 15 28 -3 11 19 -5 -8 13 17 24 -1 -17 -13 23 -4 25 -2 26 29 -12 -21 -23 -19 -6 -15
right_child=1 7 3 10 6 -7 8 -9 -10 -11 14 12 -14 18 -16 16 -18 27 -20 20 -22 22 -24 -25 -26 -27 -28 -29 -30 -31
leaf_value=-0.00072131815653527019 -0.00042704961956840503 0.0035158621749727145 -0.00022757097304820212 -0.00074254459652124064 0.0045099079238181596 0.0030797667592879644 0.000454671920269377 3.5231504734065695e-05 -0.00022503038773063509 -0.011024043498216597 -0.0021347287472278506 0.0041451989287296853 0.00069999834365233463 0.0013297401206966647 -0.010097173088929613 -0.0029490600632580692 -0.013353054411709309 -0.0013302116129477618 -0.0049070874956669286 -0.011087996638050882 -0.0054981954177681135 -0.0033684995377997033 -0.01522809865889572 -0.00023753428723118802 -0.0050837410381075511 0.014534649089342211 -0.0012027672121989301 0.0026791531307764583 0.0019416825002324376 0.0061361093350062769
leaf_count=12676 13892 5045 778 4267 9912 5355 19321 25801 16274 2786 5353 19839 17183 2873 1004 4978 415 2019 958 1720 3699 9838 183 5117 7081 41 12168 7092 6233 1751
internal_value=0 -0.0359362 -0.0595218 -0.0975977 0.025498 -0.0109915 0.0333705 0.0120901 0.0269078 -0.154484 -0.0686034 0.0336198 0.041958 0.0540743 -0.0856716 -0.0325036 -0.0749933 0.0680839 0.0161664 -0.125009 -0.142173 -0.031315 -0.0455733 0.0274083 -0.0762831 -0.209829 -0.0434196 0.0358135 0.0703682 0.062996
internal_count=225652 93656 62810 26729 131996 23424 108572 30846 92427 9024 17705 76153 56832 39649 13438 18069 5393 28950 10699 6238 5460 36081 22189 9741 12434 1761 22006 9111 16145 4624
shrinkage=0.05


Tree=20
num_leaves=31
num_cat=0
split_feature=117 119 66 124 80 15 3 16 124 7 44 16 27 10 57 80 119 45 88 14 83 75 7 77 43 43 7 15 98 52
split_gain=186.605 95.7436 36.9349 34.1297 25.6131 23.0728 24.5022 21.0447 20.3134 18.3836 16.2977 16.2379 15.0906 13.902 13.7055 13.5451 23.1913 15.4489 10.9506 10.6227 10.5533 10.2587 11.2103 10.1796 10.0343 10.0075 10.0051 10.2414 11.3152 9.23158
threshold=1.0000000180025095e-35 1.0000000180025095e-35 -1.8170499999999998 7.5000000000000009 4.9006500000000006 1.6084500000000002 5.2497000000000007 0.21428500000000003 1.0000000180025095e-35 -2.1011499999999996 -0.36117999999999995 0.71751500000000001 1.0505500000000001 -0.35329499999999997 -1.85015 -0.87448499999999985 1.0000000180025095e-35 0.83114500000000013 1.1373500000000003 3.7480500000000005 -1.7867499999999998 -5.5479499999999993 -2.0721499999999993 13.013500000000002 0.86786500000000011 -2.2792999999999997 -1.5208499999999996 1.0386500000000003 -1.70095 7.0983000000000009
decision_type=2 2 2 2 2 2 2 2 2 2 2 2 2 2 2 2 2 2 2 2 2 2 2 2 2 2 2 2 2 2
left_child=3 2 10 4 7 11 -7 8 -1 -10 21 14 20 -12 -4 23 17 -17 -16 -19 -6 -2 -23 -9 -3 -22 -5 -28 -29 -30
right_child=1 24 5 26 12 6 -8 15 9 -11 13 -13 -14 -15 18 16 -18 19 -20 -21 25 22 -24 -25 -26 -27 27 28 29 -31
leaf_value=0.0014355465893843714 0.001130833114098009 -9.9339160031558472e-05 -0.00094908357291906189 -0.0025683553108279034 0.0044974599966588671 -0.0058206393635401848 -0.015529953748864143 0.00077029199423957694 -0.004086107297569988 4.4854841082523034e-05 -0.0044317036269467249 -0.0017269375739279585 0.013892471402442701 -0.0015496659403034727 -0.0061199082265944449 0.0028402701150740317 0.00019860982490460305 0.0068565094294851352 -0.0022782250172695868 -0.00065094539179886548 -0.0014172036884013547 -0.0049861587487954077 -0.00094824707759003167 0.0074455863214270279 0.0017815717031159648 0.0042280344078410781 0.00078082161596941459 0.00063699088003431835 -0.0033124861134654834 -0.017143137959970366
leaf_count=30666 4995 19799 2158 4806 7754 4379 763 16979 3188 17352 8125 7866 361 8627 8736 17299 6790 4311 2355 529 1776 1985 12821 591 11047 1407 12659 2560 2842 126
internal_value=0 -0.0341393 -0.0565458 0.0242231 0.0316083 -0.0851574 -0.145227 0.0263958 0.0124104 -0.0119262 -0.0359932 -0.070529 0.0766868 -0.05895 -0.0918965 0.0417968 0.055098 0.0707782 -0.106084 0.120719 0.070047 -0.0165714 -0.029792 0.0198966 0.0114856 0.0215639 -0.0107881 -6.48853e-05 -0.0359748 -0.0779927
internal_count=225652 93656 62810 131996 109003 26257 5142 97705 51206 20540 36553 21115 11298 16752 13249 46499 28929 22139 11091 4840 10937 19801 14806 17570 30846 3183 22993 18187 5528 2968
shrinkage=0.05


Tree=21
num_leaves=31
num_cat=0
split_feature=117 119 126 125 125 124 16 119 76 125 99 109 67 106 124 10 3 44 125 15 67 7 81 126 0 73 125 16 16 73
split_gain=168.411 86.4086 60.4124 39.4217 35.3323 34.4306 22.9294 32.4816 20.385 18.4319 17.5543 17.48 16.5075 14.7249 14.0309 13.831 12.8282 13.7813 12.0534 12.2748 11.6753 10.8566 10.6821 10.5349 11.8546 11.2583 10.3682 11.703 10.3425 9.95246
threshold=1.0000000180025095e-35 1.0000000180025095e-35 1.3 1.2500000000000002 1.7500000000000002 1.0000000180025095e-35 0.22966000000000003 1.0000000180025095e-35 -1.1852499999999997 1.2500000000000002 -1.5534999999999999 1.2274500000000004 -1.2431999999999999 -3.2802999999999995 1.0000000180025095e-35 -0.77665499999999987 2.3916500000000007 -1.29145 2.7500000000000004 3.5123000000000002 -0.94263499999999989 -2.1876499999999997 0.021971000000000001 0.50000000000000011 6.5084500000000007 -6.9316499999999994 1.7500000000000002 -1.1124999999999998 1.9364500000000002 9.0131500000000013
decision_type=2 2 2 2 2 2 2 2 2 2 2 2 2 2 2 2 2 2 2 2 2 2 2 2 2 2 2 2 2 2
left_child=4 2 23 10 5 -1 13 11 -7 -3 -4 18 28 -6 -15 16 -10 -18 19 -8 -21 -16 -23 -2 25 -25 27 -27 -5 -13
right_child=1 9 3 12 6 8 7 -9 15 -11 -12 29 -14 14 21 -17 17 -19 -20 20 -22 22 -24 24 -26 26 -28 -29 -30 -31
leaf_value=0.0014674416200530459 0.00022613442363346209 0.0033095988230498249 -0.0054320537765557755 -0.0031167085945825916 0.0029743002657253584 0.0012279103432130975 0.0038955508151766963 -2.0057651047798224e-05 -0.0027630775426046601 5.0994751845065543e-06 -0.0099639089491533241 0.0006008081695807934 -0.0068360781074634468 0.001570165936878809 -0.0033773412535379362 -0.0010515930447406133 0.0064209214869446396 -0.010066978370081997 0.0058762197799389418 0.0007821457773448154 -0.01500991535553288 -0.00094327269437513887 0.0017159980936117326 0.0011781759330287006 -0.0077592712153892384 -0.0056608363487529898 -0.0010795904211098428 -0.0020614372332706759 0.00023285454258916498 0.0085478741238092324
leaf_count=23516 8184 5045 5549 12317 7826 6523 14563 8676 5074 25801 3475 5930 2553 18182 2607 12624 142 1179 6710 2085 124 9579 6234 3143 814 3270 13371 7299 2835 422
internal_value=0 -0.0324324 -0.0537185 -0.0897511 0.023012 0.00173902 0.0355949 0.0534541 -0.0236808 0.0109113 -0.143544 0.0691157 -0.0623337 0.0201147 0.0116966 -0.0402254 -0.0781143 -0.165892 0.081705 0.0673747 -0.00208651 -0.00775549 0.00210197 -0.0270253 -0.0362803 -0.0327065 -0.040094 -0.0635015 -0.0497998 0.0225756
internal_count=225652 93656 62810 26729 131996 49058 82938 38510 25542 30846 9024 29834 17705 44428 36602 19019 6395 1321 23482 16772 2209 18420 15813 36081 27897 27083 23940 10569 15152 6352
shrinkage=0.05


Tree=22
num_leaves=31
num_cat=0
split_feature=127 120 126 125 125 124 16 125 120 16 90 99 94 99 99 127 1 39 15 2 52 127 85 110 44 124 124 63 21 126
split_gain=164.613 77.0364 56.5459 37.2585 35.5781 32.1745 23.0253 18.0782 17.1551 22.3713 16.0632 15.8483 15.748 15.2909 15.0816 16.1139 12.1123 10.9953 10.2632 10.2621 10.1347 9.95338 9.89332 10.2351 10.4891 9.92524 9.80188 9.76088 9.16325 9.07861
threshold=0.22500000000000001 1.0000000180025095e-35 1.3 2.2500000000000004 1.2500000000000002 1.0000000180025095e-35 0.93919500000000011 1.7500000000000002 1.0000000180025095e-35 1.0000000180025095e-35 -0.24272999999999997 -1.8596999999999999 -3.3257499999999998 -1.4262499999999998 -1.6701999999999997 0.67500000000000016 0.42115000000000008 0.21011000000000005 0.42878500000000003 -2.6691499999999997 7.4019000000000004 0.52500000000000013 40.553000000000004 1.0216500000000004 1.34765 1.0000000180025095e-35 1.0000000180025095e-35 -14.983499999999998 0.53242000000000012 0.70000000000000007
decision_type=2 2 2 2 2 2 2 2 2 2 2 2 2 2 2 2 2 2 2 2 2 2 2 2 2 2 2 2 2 2
left_child=1 7 20 5 11 12 14 29 -5 19 21 22 -2 -6 16 -16 -7 18 -17 -10 -3 -11 23 25 -25 -4 -21 -8 -12 -1
right_child=3 2 4 8 13 6 27 -9 9 10 28 -13 -14 -15 15 17 -18 -19 -20 26 -22 -23 -24 24 -26 -27 -28 -29 -30 -31
leaf_value=0.00026981492834805739 0.0048918532950578617 -0.0011243051321212698 0.00025628835811287846 0.0005753267375167994 -0.0019471698830216572 -0.0013714510035569458 -0.011501619698254755 -0.00042180697418396998 -0.004697606303161129 0.003322943142492988 0.0014479896473580853 -0.0094342434522478001 0.0012950454434510054 -0.0050908340238434643 -0.0012935081902909753 -0.005204219713996705 0.0014624678135000519 -0.002071388071145412 -0.012390147799771037 0.0035564677326344971 -0.0048508416948110419 0.0068793074010996061 0.0087657292321324364 -0.0058054914136875455 -0.013736541378938667 -0.005587473082948307 0.0009663635374358902 0.001363971986372461 0.0046060004700448865 0.0030670648555671978
leaf_count=4736 3343 38602 1031 10560 11996 9770 149 21675 628 3012 5879 3527 33935 5709 7270 1547 6140 1567 732 5429 1915 5673 125 1256 624 2461 11164 13942 3770 7485
internal_value=0 -0.0299674 -0.0495614 0.0243431 -0.0852636 0.0110757 -0.0082141 0.00890498 0.0468977 0.057409 0.0817196 -0.136367 0.032352 -0.059217 -0.0253013 -0.0535628 -0.00555566 -0.105909 -0.150246 0.0315271 -0.0260087 0.112919 -0.102798 -0.10927 -0.168759 -0.0772425 0.0362762 0.0245586 0.0536374 0.039661
internal_count=225652 101142 67246 124510 26729 78395 41117 33896 46115 35555 18334 9024 37278 17705 27026 11116 15910 3846 2279 17221 40517 8685 5497 5372 1880 3492 16593 14091 9649 12221
shrinkage=0.05


Tree=23
num_leaves=31
num_cat=0
split_feature=127 120 126 125 35 120 113 80 125 125 126 83 127 16 120 92 125 5 15 16 10 112 10 80 125 35 110 102 83 5
split_gain=148.563 69.5253 52.0218 34.1308 31.269 30.8062 23.6604 19.6466 18.1876 16.3156 14.7724 16.153 13.7794 14.1873 18.1832 13.4713 12.9734 12.5677 24.592 13.751 11.8734 16.2406 11.85 11.2284 11.1158 10.9105 10.6043 10.3949 10.2277 10.1259
threshold=0.22500000000000001 1.0000000180025095e-35 1.5000000000000002 1.2500000000000002 -1.8187999999999998 1.0000000180025095e-35 1.0000000180025095e-35 -0.6368149999999998 1.7500000000000002 1.7500000000000002 0.90000000000000013 -1.5974499999999996 0.37500000000000006 0.90250000000000019 1.0000000180025095e-35 -2.0918999999999994 1.2500000000000002 2.7842500000000006 0.56591500000000006 -2.0958499999999995 -4.325499999999999 6.3783500000000002 -2.6363499999999997 3.9654000000000003 1.2500000000000002 -1.8651499999999996 0.5261450000000002 -0.48357499999999992 -1.4955499999999999 4.3766500000000006
decision_type=2 2 2 2 2 2 2 2 2 2 2 2 2 2 2 2 2 2 2 2 2 2 2 2 2 2 2 2 2 2
left_child=1 9 10 5 16 -2 7 -5 -6 -1 -3 15 -9 28 -15 -12 -4 19 -19 -7 21 -16 -13 -21 -24 -8 -17 -20 -14 -23
right_child=3 2 4 6 8 17 25 12 -10 -11 11 22 13 14 20 26 -18 18 27 23 -22 29 24 -25 -26 -27 -28 -29 -30 -31
leaf_value=0.0018838951403386392 0.0029007052347246615 -0.00066428225770724951 -0.005321363678421444 0.0010623287050783078 -0.0092112229961381388 -0.0044956716651022395 0.0011621703827884155 0.00057282272814313982 -0.004236300559211534 -0.00040071653769563163 0.00172785265958967 -0.009791117453209635 0.0031538024408870147 5.6171504496992055e-05 -0.024938416362370125 -0.00099368823483997706 -0.0016009242109287622 -0.00043134400601530865 -0.018557773559189816 -0.0010310957135598257 0.0056051762626717939 0.0058317176184971772 -0.0069824127288902046 0.0033852381590828949 -0.0022500359806217189 -0.00075524965930702775 -0.0036939929842025551 -0.007301329361552103 0.0009379931620413077 -0.025687676324541199
leaf_count=12221 4848 25049 3574 29931 4358 2530 18212 6230 3176 21675 2610 901 15062 1954 73 8358 6804 1103 337 11175 10161 210 1757 1652 4224 12519 6435 524 7960 29
internal_value=0 -0.028469 -0.0470833 0.023126 -0.0932428 -0.0124472 0.0308318 0.0407925 -0.14228 0.00845973 -0.0303239 -0.0478982 0.054829 0.0624515 0.0896808 -0.0316801 -0.0576436 -0.0321688 -0.107491 -0.0225358 0.106203 -0.0859478 -0.0889103 -0.00924625 -0.0728047 0.00762128 -0.0433666 -0.234143 0.0477535 0.0401438
internal_count=225652 101142 67246 124510 17912 22169 102341 71610 7534 33896 49334 24285 41679 35449 12427 17403 10378 17321 1964 15357 10473 312 6882 12827 5981 30731 14793 861 23022 239
shrinkage=0.05


Tree=24
num_leaves=31
num_cat=0
split_feature=127 120 124 66 15 110 3 35 36 54 44 87 3 127 9 113 113 120 92 97 95 105 120 104 109 54 61 1 80 88
split_gain=134.078 62.7466 27.9508 26.1249 23.2798 22.6383 19.7776 19.2977 20.3459 14.0503 13.9763 13.9293 13.2277 12.7212 11.2656 10.3827 10.2667 9.78508 9.76415 9.7283 9.65816 9.24821 10.3677 9.24001 9.07541 8.97879 8.94033 10.0299 8.91458 8.73764
threshold=0.22500000000000001 1.0000000180025095e-35 7.5000000000000009 -1.8170499999999998 1.6084500000000002 -3.5781499999999995 6.9852500000000006 -1.8651499999999996 1.0853500000000003 3.6478500000000005 -0.36117999999999995 0.19678500000000002 0.93110500000000018 0.67500000000000016 -1.1369999999999998 1.0000000180025095e-35 1.0000000180025095e-35 1.0000000180025095e-35 0.65350500000000011 8.2662500000000012 -1.6629499999999997 1.0354500000000002 1.0000000180025095e-35 -0.98966499999999991 -6.0790999999999995 1.3402500000000004 -2.6145499999999995 -0.99316499999999996 -0.74834499999999993 -1.6923499999999996
decision_type=2 2 2 2 2 2 2 2 2 2 2 2 2 2 2 2 2 2 2 2 2 2 2 2 2 2 2 2 2 2
left_child=1 -1 5 10 23 17 25 9 16 11 26 13 -10 -7 -12 18 -9 -2 24 -18 -16 22 -15 -5 -4 -6 -3 -28 -13 -19
right_child=2 3 15 4 6 7 -8 8 12 -11 14 28 -14 21 20 -17 19 29 -20 -21 -22 -23 -24 -25 -26 -27 27 -29 -30 -31
leaf_value=0.00040183716889090451 0.00091943181511002945 0.00095563550678450361 0.0065873134171610297 -0.0041594465936295255 -0.0041340323584265299 0.0021562479938492789 -0.014940393391738358 0.0013916786171420928 -0.00060511593080241695 -0.0005211188566951316 -0.0042794676098422708 4.8450810950772326e-05 -0.0058238776210919243 2.6906235264973467e-05 -0.0041266761561652753 -0.0021821395312850806 -0.00078497757694544516 0.0078547610691509229 -0.0015236311410327873 0.0084161881268546741 -0.00080733044671973248 0.0018458136431557951 0.006384464061879886 -0.0019975942501911726 0.00070633595703564105 -0.0093193141890037298 -0.0031836907204522134 -0.00034723533156334616 0.0020438527865930946 0.0037177703517492239
leaf_count=33896 1879 6824 707 7295 3774 19210 595 23921 3303 5710 5647 9829 1920 734 2857 6612 9741 1897 5360 296 9407 2318 5076 15328 9095 1072 4549 9898 13001 3901
internal_value=0 -0.0270456 0.0219697 -0.0447292 -0.0680188 0.0288674 -0.126748 0.0246488 0.00763356 0.0365798 -0.028048 0.0419294 -0.0504712 0.0571566 -0.04863 -0.0105756 0.0165705 0.0811023 0.00384473 -0.0102725 -0.031612 0.0903196 0.111626 -0.0538941 0.0226104 -0.105622 -0.0107172 -0.0248073 0.0236954 0.101426
internal_count=225652 101142 124510 67246 28064 102736 5441 95059 39181 55878 39182 50168 5223 27338 17911 21774 33958 7677 15162 10037 12264 8128 5810 22623 9802 4846 21271 14447 22830 5798
shrinkage=0.05


Tree=25
num_leaves=31
num_cat=0
split_feature=117 120 125 125 66 124 121 120 125 94 114 107 125 5 1 90 2 78 10 5 108 85 120 97 34 10 54 10 93 14
split_gain=111.297 57.6364 38.2627 29.8569 26.0683 25.8456 22.1299 20.9216 18.3137 16.6376 15.482 15.0801 14.7457 13.9575 13.5571 13.3884 11.5309 10.8906 10.9079 12.2724 10.8731 10.4484 9.44194 9.20101 8.99702 14.9347 9.87898 8.94979 10.3985 8.74255
threshold=1.0000000180025095e-35 1.0000000180025095e-35 1.7500000000000002 2.7500000000000004 -1.8170499999999998 1.0000000180025095e-35 1.0000000180025095e-35 1.0000000180025095e-35 1.2500000000000002 -3.2485499999999994 1.0000000180025095e-35 1.4066500000000002 1.2500000000000002 1.98675 -1.2400499999999999 1.2355500000000001 -1.08205 1.4481500000000003 -1.1816499999999996 3.8677500000000005 -2.2491499999999998 -1.4868499999999998 1.0000000180025095e-35 -1.6966499999999998 -1.7554999999999998 -0.52414499999999986 2.8330500000000005 -0.63414499999999985 -9.6995499999999986 -0.99896499999999988
decision_type=2 2 2 2 2 2 2 2 2 2 2 2 2 2 2 2 2 2 2 2 2 2 2 2 2 2 2 2 2 2
left_child=3 12 4 5 20 9 8 -5 17 22 11 -10 -2 15 -8 23 -9 18 19 -7 -3 -18 -1 -6 -22 26 -26 28 -15 -14
right_child=1 2 -4 7 13 6 14 16 10 -11 -12 -13 29 27 -16 -17 21 -19 -20 -21 24 -23 -24 -25 25 -27 -28 -29 -30 -31
leaf_value=0.0014690752944317295 0.0029239408185092203 0.00079453399069505989 -0.0010125624197948162 -0.00015645908527970112 -0.007789714028325706 -0.005037949543798304 -0.0040162116081937293 0.0014262439183494265 0.0023709782279300222 0.0011016890314805505 -0.0009349649816521356 -0.0007818344298722009 0.0013986203427753807 0.0025863928158427231 -0.00081960859238845967 -0.0077806843212784669 0.0010963313690034889 0.0010907234061157116 -0.0014042566734355673 -0.02218752715478851 -0.0015616153996038339 0.0048770092688452497 0.0059702251434000974 -0.0027940384385907427 -0.0060098562128865166 -0.0020620187207571663 -0.016948109990192785 -0.0061920954486831261 -0.014169650092738642 -0.00062396187976551502
leaf_count=1939 5045 2598 32946 5435 1056 1521 4456 5283 18289 47535 7226 4785 7555 104 12975 2246 2219 2708 4237 112 7658 10357 2919 7247 2500 3798 225 1588 844 18246
internal_value=0 -0.0263654 -0.0437501 0.0187072 -0.069674 0.0117451 -0.00312876 0.0511964 0.0101455 0.0277306 0.0216935 0.0343432 0.00903394 -0.10313 -0.0327355 -0.0871168 0.0677292 -0.0306456 -0.0548469 -0.124283 -0.0435832 0.0841984 0.0834731 -0.0685881 -0.054479 -0.0817707 -0.13826 -0.169742 -0.246629 -0.000634264
internal_count=225652 93656 62810 131996 29864 108702 56309 23294 38878 52393 30300 23074 30846 13085 17431 10549 17859 8578 5870 1633 16779 12576 4858 8303 14181 6523 2725 2536 948 25801
shrinkage=0.05


Tree=26
num_leaves=31
num_cat=0
split_feature=127 119 124 69 10 110 5 83 119 52 16 54 7 119 87 127 9 61 78 127 57 14 102 76 82 33 14 34 71 67
split_gain=110.358 51.167 24.4217 24.1281 20.9259 19.982 19.0279 15.5587 18.1777 19.509 14.361 13.7725 15.6908 15.8959 14.6368 15.4753 12.7578 12.4351 12.0059 11.7809 11.4587 11.367 11.1227 10.1055 9.99446 9.41592 9.07369 8.51522 8.4292 8.25233
threshold=0.22500000000000001 1.0000000180025095e-35 7.5000000000000009 -1.9155999999999997 -0.52414499999999986 -1.9920499999999997 3.4284500000000002 -1.7867499999999998 1.0000000180025095e-35 2.6704500000000002 -0.13059999999999997 3.3401000000000001 -1.0183499999999996 1.0000000180025095e-35 0.3729900000000001 0.37500000000000006 1.3390500000000001 0.23809500000000003 -1.6420499999999996 0.52500000000000013 -4.2064999999999992 -0.96120499999999987 -2.3536499999999996 -0.71300499999999989 -0.83871499999999988 -0.10274999999999999 14.199500000000002 -1.1571499999999999 0.37115000000000004 -1.4646999999999999
decision_type=2 2 2 2 2 2 2 2 2 2 2 2 2 2 2 2 2 2 2 2 2 2 2 2 2 2 2 2 2 2
left_child=1 3 5 17 6 19 20 11 9 16 -6 12 -7 14 15 -14 18 -1 -9 -2 -5 -12 -22 -4 -13 -17 -8 -24 -15 -21
right_child=2 -3 23 4 10 7 26 8 -10 -11 21 24 13 28 -16 25 -18 -19 -20 29 22 -23 27 -25 -26 -27 -28 -29 -30 -31
leaf_value=0.00070314935329994553 0.0012864508332734025 0.00035716875840212766 0.0009335529599903661 -0.00080158980267154394 -0.0030708032465865346 0.00036922153225997907 -0.0066719991351263585 0.0038470375403812465 0.0022549103905468077 -0.0055690493443498017 -0.0024842347980140234 0.00015976194205519242 -0.00033877972824338128 -0.00034950306101970841 0.0015229125228656808 0.0028347190653233659 -0.0028657853311291649 -0.0021974709998930459 -0.00028106171949346972 0.0045915688639259541 -0.0082299150924722807 -2.4703039256964914e-05 -0.0021642209234626064 -0.0013202564434129035 -0.0049307590060293375 0.0055574556965537654 -0.015000754665088607 -0.0049020369008337646 0.0024305661543476322 0.0013625661844823419
leaf_count=10319 7640 33896 7688 3259 13678 16122 1026 2172 6020 2008 7610 5549 1877 7275 11021 5165 3731 5756 9315 8490 1460 12275 5437 14086 1167 8243 480 5946 4361 2580
internal_value=0 -0.0245368 0.0199318 -0.0405056 -0.0511223 0.0263793 -0.0790417 0.0197984 -0.00220482 -0.0187359 -0.0364751 0.0282137 0.0335192 0.0446242 0.0582373 0.078267 -0.00651146 -0.0067096 0.00998986 0.0559341 -0.0689882 -0.0193193 -0.0824263 -0.0104896 -0.0144958 0.0901722 -0.186532 -0.0718868 0.0138485 0.0767802
internal_count=225652 101142 124510 67246 51171 102736 17608 84026 23246 17226 33563 60780 54064 37942 26306 15285 15218 16075 11487 18710 16102 19885 12843 21774 6716 13408 1506 11383 11636 11070
shrinkage=0.05


Tree=27
num_leaves=31
num_cat=0
split_feature=127 124 126 125 125 124 106 35 13 5 14 100 96 42 61 126 61 44 113 26 120 125 126 34 54 90 25 100 127 114
split_gain=99.7527 53.7924 43.7089 36.005 21.0263 20.4119 15.8636 14.248 12.1958 11.5706 11.241 10.6819 10.1808 13.4994 9.50319 11.4545 9.24058 9.1309 9.07514 8.95155 8.67547 14.8932 12.3829 20.0268 8.61309 8.46567 8.43703 8.36946 8.23504 10.5527
threshold=0.37500000000000006 1.0000000180025095e-35 1.5000000000000002 1.7500000000000002 1.2500000000000002 1.0000000180025095e-35 -3.3780499999999996 -1.5764499999999997 0.27051500000000001 6.3481500000000013 2.9308500000000004 -1.1432499999999999 -1.2008499999999998 -0.95150499999999993 0.49075500000000005 1.1000000000000003 -3.4929499999999996 -1.0118499999999997 1.0000000180025095e-35 -0.77220999999999995 1.0000000180025095e-35 1.7500000000000002 1.1000000000000003 -1.8776499999999998 2.4908500000000005 -4.8817999999999993 -4.2707999999999986 2.5062000000000002 0.67500000000000016 1.0000000180025095e-35
decision_type=2 2 2 2 2 2 2 2 2 2 2 2 2 2 2 2 2 2 2 2 2 2 2 2 2 2 2 2 2 2
left_child=1 20 14 5 16 25 19 -6 11 12 18 -8 -7 26 -3 -16 -4 -11 28 -5 21 -1 -22 -24 -9 -2 -14 -23 -10 -30
right_child=3 2 4 6 7 9 8 24 10 17 -12 -13 13 -15 15 -17 -18 -19 -20 -21 22 27 23 -25 -26 -27 -28 -29 29 -31
leaf_value=0.00171240250810564 0.0043461110611708416 -0.00070018806363931953 -0.0012099000207275491 0.0029407142616818 -0.0015579369752974923 -0.0029788674348438715 -0.00072686498930189369 -0.0050650983246917133 0.0025644439984541679 0.0088889225109203447 -2.1579553565771897e-05 0.0014036428263542364 0.00036063668671824423 0.00079754835057996407 -0.0014084934515885129 -0.0040971838967762244 -0.0082519789324084891 -0.018790504969108633 0.0012227674495862337 0.0067155187668947658 0.00025949539702907075 0.00015747148313508273 0.0013684641692210766 -0.0035764744312687838 -0.014914288814955701 0.00080132120642193111 -0.0034431764204041191 -0.0021445553259233151 0.0060838524081271717 0.00054167625254221972
leaf_count=14913 1882 24828 528 8193 5171 4992 8114 2955 9567 37 4329 21400 2206 9596 13857 5547 3957 153 6589 1943 12702 21531 2914 6886 240 16034 4298 4835 4387 1068
internal_value=0 -0.0195772 -0.0418771 0.0225806 -0.0932142 -0.00139738 0.0369104 -0.0635976 0.0302615 -0.0223348 0.04608 0.0163585 -0.0201218 -0.00788812 -0.0269619 -0.0435421 -0.148459 -0.268006 0.055397 0.0732864 0.000380949 0.00899181 -0.0154153 -0.0421222 -0.116099 0.0234737 -0.0430603 -0.00529349 0.0689687 0.0999757
internal_count=225652 120864 57083 104788 12851 39198 65590 8366 55454 21282 25940 29514 21092 16100 44232 19404 4485 190 21611 10136 63781 41279 22502 9800 3195 17916 6504 26366 15022 5455
shrinkage=0.05


Tree=28
num_leaves=31
num_cat=0
split_feature=127 120 126 125 35 113 125 127 125 126 125 35 36 86 110 6 14 5 12 122 125 76 92 10 112 3 35 39 75 5
split_gain=90.1923 41.463 41.0412 28.4597 24.6615 16.5081 14.6471 14.2445 12.6101 11.5895 11.9887 13.28 11.3358 11.3207 10.6844 10.6287 14.4349 13.8612 15.1121 13.5654 9.80904 9.63807 9.02653 9.02221 11.4901 8.98309 8.95028 8.67232 8.34235 10.055
threshold=0.22500000000000001 1.0000000180025095e-35 1.5000000000000002 2.2500000000000004 -1.8187999999999998 1.0000000180025095e-35 1.7500000000000002 0.67500000000000016 1.7500000000000002 0.90000000000000013 2.2500000000000004 -1.7811999999999999 0.5947800000000002 -2.3671499999999996 -0.083454999999999988 -2.1572499999999999 3.7480500000000005 4.3766500000000006 -3.8773999999999993 1.0000000180025095e-35 1.2500000000000002 -1.5129499999999998 5.5800500000000008 0.85621000000000003 -0.45068499999999995 1.51495 -1.3742499999999997 -1.8970499999999999 -2.7876499999999997 -0.42317499999999991
decision_type=2 2 2 2 2 2 2 2 2 2 2 2 2 2 2 2 2 2 2 2 2 2 2 2 2 2 2 2 2 2
left_child=1 8 9 5 20 15 23 -5 -1 -3 11 -11 -13 -9 -15 16 26 18 -18 21 -4 -17 -23 28 -25 -14 -2 -28 29 -6
right_child=3 2 4 7 6 -7 -8 13 -10 10 -12 12 25 14 -16 19 17 -19 -20 -21 -22 22 -24 24 -26 -27 27 -29 -30 -31
leaf_value=0.0016011548931298151 0.0015281970368506267 -0.00032897547673300839 -0.0044180229239747992 0.0013212505933054644 0.0017032008599278947 -0.00078026574278810667 -0.0034728125477161047 -0.00060103725557355625 -0.00040733806426489715 -0.0013896113204755014 -0.00011141145371980506 -0.0032374213227889083 -0.0053784164558106189 0.005305810717691462 0.0023002585300191439 0.0032421070561682998 0.0046202673220820303 -0.0158761527898547 -0.0066561421005700665 -0.00044346946113465199 -0.0011829751933471308 0.00087339085293150747 0.0038990725373021598 -0.0072349372334349921 0.0028482729277717598 -0.013884487105025711 -0.0085181259471773033 -0.00082011203531518753 -0.0114022196037577 -0.010155898144574099
leaf_count=12221 4336 25049 3574 32617 309 23724 3176 1670 21675 10049 6973 5879 914 5889 5939 6932 434 251 942 10951 6804 25744 2726 1287 362 470 453 1902 1976 424
internal_value=0 -0.022182 -0.036557 0.0180189 -0.0775564 0.00642341 -0.121106 0.0377312 0.00633624 -0.021671 -0.0372374 -0.0513385 -0.0839168 0.0650517 0.0759336 0.0159826 -0.0169322 -0.101411 -0.0619897 0.0218891 -0.0459414 0.0314037 0.023262 -0.158747 -0.100428 -0.165341 0.00360992 -0.0460175 -0.194246 -0.103133
internal_count=225652 101142 67246 124510 17912 78395 7534 46115 33896 49334 24285 17312 7263 13498 11828 54671 8318 1627 1376 46353 10378 35402 28470 4358 1649 1384 6691 2355 2709 733
shrinkage=0.05


Tree=29
num_leaves=31
num_cat=0
split_feature=127 120 126 35 65 35 36 3 91 52 10 52 16 120 54 43 8 6 105 5 10 126 15 54 91 111 76 65 113 52
split_gain=82.3492 42.1579 42.4777 25.6872 23.4587 21.6539 25.706 20.2874 17.0528 15.9563 14.4337 13.8669 13.109 15.1331 12.5535 12.3315 10.7476 10.4656 9.9805 9.6877 9.36612 9.03269 8.88896 11.0532 11.3926 11.0156 8.64064 8.59449 8.42742 8.03083
threshold=0.37500000000000006 1.0000000180025095e-35 1.1000000000000003 -1.9014499999999999 -1.83205 -2.1373499999999996 0.8667450000000001 1.0568500000000001 0.79807500000000009 6.5497500000000004 -0.57991499999999985 2.5301500000000003 0.22966000000000003 1.0000000180025095e-35 1.4793500000000004 1.14795 2.2807500000000007 -0.14981999999999998 -6.2581499999999997 2.7337500000000001 -0.47532999999999997 1.7000000000000004 0.81728500000000015 0.96613500000000008 -3.2639499999999995 0.019870000000000002 -2.6357499999999994 4.2326500000000005 1.0000000180025095e-35 7.7155000000000014
decision_type=2 2 2 2 2 2 2 2 2 2 2 2 2 2 2 2 2 2 2 2 2 2 2 2 2 2 2 2 2 2
left_child=1 15 -3 9 -5 8 17 -8 12 26 14 -9 18 -14 19 -1 21 22 -2 -6 -11 -12 25 24 27 -7 -4 -24 -19 -15
right_child=5 2 3 4 10 6 7 11 -10 20 16 -13 13 29 -16 -17 -18 28 -20 -21 -22 -23 23 -25 -26 -27 -28 -29 -30 -31
leaf_value=-0.00013446547952381425 0.0040540501556762514 -0.00053449199386995877 0.0022532745992796216 -0.00017818847332734273 -0.0055337842736722549 -0.00089439012480778401 -0.00065426847825571254 -0.0031552347025970689 0.00045793652886618049 -0.0097106774999670391 -0.0027864827970312854 -0.01092159355409694 0.0001508269794182975 0.0039335359766090273 -0.01410205664767324 0.0017859198007359205 -0.011359278926986974 0.002062263853657079 0.00076860829457364797 -0.013649373944220906 -0.0024668045030628374 -0.0068056897393513581 0.0023583860133044652 -0.0072478619861444556 -0.0026103180411263614 0.0022908576445969339 -0.0015969432566361773 0.019793886696169903 -0.00011609944215474434 -0.00011785576901361855
leaf_count=29635 2706 44434 1595 2658 2859 6330 4429 1380 20509 924 5984 985 3737 17003 667 11644 490 14981 15858 422 863 1824 861 864 2688 4752 16865 77 6310 1318
internal_value=0 -0.0177876 -0.0312381 -0.057213 -0.0887208 0.0205165 0.00350602 -0.0530166 0.0326646 -0.0340198 -0.107204 -0.127797 0.0445321 0.0610121 -0.156977 0.00814475 -0.0835236 0.0139234 0.0249503 -0.131552 -0.124248 -0.0745079 -0.00577873 -0.043314 -0.0190945 0.0094291 -0.0252855 0.0757932 0.0283333 0.0728416
internal_count=225652 120864 79585 35151 14904 104788 43657 6794 61131 20247 12246 2365 40622 22058 3948 41279 8298 36863 18564 3281 1787 7808 15572 4490 3626 11082 18460 938 21291 18321
shrinkage=0.05


Tree=30
num_leaves=31
num_cat=0
split_feature=117 124 126 125 124 16 124 125 66 115 78 7 55 110 35 109 14 5 124 78 126 125 77 16 95 35 5 76 86 10
split_gain=66.0189 37.416 29.65 24.375 20.9804 21.4046 18.1612 17.2689 16.8756 13.9157 13.4638 12.7637 11.5664 11.0917 10.7792 10.1203 10.6186 15.2572 9.92107 11.5635 9.79952 11.8591 11.2672 9.63482 9.59115 9.02292 8.88664 8.88205 9.0328 8.86012
threshold=1.0000000180025095e-35 1.0000000180025095e-35 1.5000000000000002 2.7500000000000004 1.0000000180025095e-35 0.93919500000000011 -1.0000000180025095e-35 1.2500000000000002 -1.7044499999999998 1.0000000180025095e-35 -2.1137999999999999 -2.2475499999999995 -0.91429999999999989 -1.3586499999999997 -1.5764499999999997 1.5060500000000003 9.9576000000000011 4.0995500000000007 1.0000000180025095e-35 -1.4028499999999997 0.50000000000000011 1.7500000000000002 -7.0907999999999989 -0.4845199999999999 4.3140500000000008 -1.7240499999999999 6.3481500000000013 -1.5565499999999999 1.9532500000000004 2.1396500000000005
decision_type=2 2 2 2 2 2 2 2 2 2 2 2 2 2 2 2 2 2 2 2 2 2 2 2 2 2 2 2 2 2
left_child=3 -2 20 4 10 8 -5 27 11 12 -1 -6 25 -13 -9 16 24 -18 19 -8 -3 22 -22 -24 -7 -10 -25 -4 -29 -14
right_child=1 2 7 6 5 15 18 14 9 -11 -12 13 29 -15 -16 -17 17 -19 -20 -21 21 -23 23 26 -26 -27 -28 28 -30 -31
leaf_value=0.0029308200584361151 -4.6240723239516471e-05 0.00059034376654594836 -0.0019611549028250613 -0.00034257941969274044 -0.0038045958706568908 0.0015839816043400061 0.0080916430524480779 -0.0013266058609928584 -0.00097295066596240869 2.5043798727777625e-06 0.00077003521442870404 0.0027696894239877764 -0.0015170030633246906 -0.0002322295278560639 -0.0050206294212510726 -0.0015856692333761011 -0.0007379597727808565 -0.017360484179620061 0.0021376089942723889 0.0032102549636423548 0.0016894369929627093 -0.0006993462463939494 -0.0051332066254056487 -0.0018732191417998008 0.0061148189866582596 -0.0067900017391030925 -0.018644898019683751 -0.0089170944186715145 -0.0027438420115113759 -0.0077477920764079389
leaf_count=8631 48270 5956 844 5435 2002 13574 1721 5171 871 5130 43762 3894 7023 14668 3195 2990 1262 155 12026 4112 1240 14634 4422 6203 1278 2841 80 2896 745 621
internal_value=0 -0.0203061 -0.040919 0.0144079 0.0081173 -0.00528366 0.0437634 -0.0815875 -0.0193405 -0.0431764 0.0225199 -0.000231446 -0.0627036 0.00795047 -0.0547473 0.0217585 0.0315859 -0.0511246 0.059167 0.0930097 -0.0248554 -0.0330709 -0.0564509 -0.0669037 0.0394771 -0.108501 -0.0417354 -0.131653 -0.153079 -0.0404639
internal_count=225652 93656 45386 131996 108702 56309 23294 12851 37050 16486 52393 20564 11356 18562 8366 19259 16269 1417 17859 5833 32535 26579 11945 10705 14852 3712 6283 4485 3641 7644
shrinkage=0.05


Tree=31
num_leaves=31
num_cat=0
split_feature=117 119 126 125 35 125 119 113 69 79 125 42 14 34 61 5 46 44 3 14 106 7 77 6 61 109 91 126 7 45
split_gain=59.5821 32.0382 31.8412 27.0872 24.671 22.8242 24.6961 17.2334 13.7359 13.6616 11.8903 11.39 11.3716 14.3949 13.4271 10.2455 10.501 9.58624 13.3856 11.839 10.69 9.40188 9.28667 9.1849 8.69123 8.72546 8.62045 8.40342 8.30799 8.28419
threshold=1.0000000180025095e-35 1.0000000180025095e-35 1.1000000000000003 1.7500000000000002 -1.7811999999999999 1.2500000000000002 1.0000000180025095e-35 1.0000000180025095e-35 -1.8316499999999998 -0.62730499999999989 1.2500000000000002 0.82824500000000012 0.93021500000000013 -0.56435999999999986 -1.9717499999999999 0.85444000000000009 2.0904500000000001 -0.73889499999999997 4.3416000000000006 1.87185 1.3541500000000004 -1.5793499999999996 9.0974500000000003 2.7674500000000006 0.8783200000000001 -3.7184499999999994 -15.690499999999998 0.90000000000000013 -0.79531499999999988 1.1313500000000001
decision_type=2 2 2 2 2 2 2 2 2 2 2 2 2 2 2 2 2 2 2 2 2 2 2 2 2 2 2 2 2 2
left_child=5 2 -2 4 12 6 17 9 -6 22 -3 -11 14 -14 -4 16 -10 -1 20 -20 24 -9 -7 -22 25 -19 -17 -12 -27 -30
right_child=1 10 3 -5 8 7 -8 21 15 11 27 -13 13 -15 -16 26 -18 18 19 -21 23 -23 -24 -25 -26 28 -28 -29 29 -31
leaf_value=-0.00011955302175350759 -0.00034349506134741508 0.0025750936429839422 0.0040408532437322554 -0.0011440332603958932 -0.0010621681114922677 0.00045924362810016137 0.0022510868019386637 -0.0017365399572724174 -0.0068332591277231684 0.0015942313045546606 -0.0010551201091731945 0.0036738096697385004 -0.0021165211709750962 -0.0085441016364869084 -0.0020774191614166423 0.013207904485170729 -0.001118063843637616 0.001711620170542257 -0.0037172692886088044 -0.014564156442345983 -0.0064419410440629266 0.00043687602621060671 0.0050835905745004618 0.002775610299808141 0.0013641741822947888 -0.0061087961794607255 -0.010227421535180147 0.00075517287215096378 -0.0023149797484197632 0.0084010749148118076
leaf_count=6727 27659 5045 1061 16601 1191 31057 5355 6125 3684 35668 11889 8075 2279 1410 5792 40 1028 1141 664 405 1833 26522 1125 317 2459 1578 2065 13912 2752 193
internal_value=0 -0.0192908 -0.0322522 -0.0522246 -0.0784854 0.0136875 -0.0146228 0.0197954 -0.120328 0.0280569 0.00710172 0.0395625 -0.0467004 -0.0914651 -0.0226034 -0.137639 -0.111728 -0.0322993 -0.0500381 -0.156534 -0.0389562 0.000582301 0.012418 -0.101658 -0.0223603 -0.0439129 -0.195642 -0.00158006 -0.0636263 -0.0322541
internal_count=225652 93656 62810 35151 18550 131996 23424 108572 8008 75925 30846 43743 10542 3689 6853 6817 4712 18069 11342 1069 10273 32647 32182 2150 8123 5664 2105 25801 4523 2945
shrinkage=0.05


Tree=32
num_leaves=31
num_cat=0
split_feature=117 119 126 125 34 121 119 125 112 114 45 125 92 10 5 14 119 16 10 2 49 58 75 81 86 38 62 83 125 83
split_gain=53.7728 28.9145 29.3679 21.5024 18.0923 17.022 16.3726 14.2038 10.8207 12.2153 13.228 10.731 10.0593 11.5643 11.6629 9.85871 9.75393 13.2428 9.86784 9.69239 9.21529 8.98214 8.67781 8.65389 8.42921 9.87418 8.39561 12.6012 8.32359 8.34229
threshold=1.0000000180025095e-35 1.0000000180025095e-35 1.5000000000000002 2.7500000000000004 -1.96105 1.0000000180025095e-35 1.0000000180025095e-35 1.7500000000000002 -0.39962499999999995 1.0000000180025095e-35 -0.064485999999999974 1.2500000000000002 -2.0918999999999994 -0.52414499999999986 3.4284500000000002 0.060868500000000006 1.0000000180025095e-35 0.95919500000000013 1.1339500000000002 -1.08205 5.0828500000000014 -2.8643499999999995 -14.737499999999999 -1.5049499999999998 0.10961000000000001 3.3195500000000004 -1.4977499999999997 -1.7867499999999998 1.2500000000000002 -0.8512249999999999
decision_type=2 2 2 2 2 2 2 2 2 2 2 2 2 2 2 2 2 2 2 2 2 2 2 2 2 2 2 2 2 2
left_child=3 2 12 5 22 8 19 15 16 10 -10 -3 -2 14 -14 -6 17 -1 -19 -5 -9 -15 -4 -21 25 -7 -11 -28 29 -20
right_child=1 11 4 6 7 24 -8 20 9 26 -12 -13 13 21 -16 -17 -18 18 28 23 -22 -23 -24 -25 -26 -27 27 -29 -30 -31
leaf_value=-0.0012850943298833508 0.00099963531977185919 0.0024463389610937555 0.0085729269358680703 0.00096283646289772483 -0.0041749247034708675 -0.0011638422163278721 -0.00037416806435994709 -0.0018396736319350874 0.001029229580875286 0.0020256998700465111 0.0031662413895669692 -7.5052915971058698e-05 -0.0018856615529319349 0.0065489952567847334 -0.0073430364542993402 -0.0079356656125681001 0.0015166158639954058 -0.0010006841070526588 0.0012492834469039671 0.00061933931586108382 -0.010814349910017855 -0.00062779211279260019 -0.0012347579673936814 0.0041090738765509746 0.00023464048250557081 -0.0084239183731811395 0.00031311174249445191 -0.0040452888983753118 0.0034470344748202689 -0.0083684665875804753
leaf_count=15791 6322 5045 236 5283 4201 16522 5435 5107 20136 3183 11308 25801 12958 444 1059 2978 8858 3356 834 2141 303 24115 5087 10435 15792 482 5418 2390 4323 309
internal_value=0 -0.0183263 -0.0306396 0.0130032 -0.0648741 0.00709482 0.0405746 -0.0855401 0.0153203 0.0259241 0.035955 0.00674664 -0.0169818 -0.0230413 -0.0459594 -0.114699 0.00187657 -0.0083644 0.022669 0.0552 -0.0468464 -0.00996087 -0.0159985 0.0702993 -0.0119429 -0.0273928 -0.00277318 -0.0204196 0.0488751 -0.0270158
internal_count=225652 93656 62810 131996 17912 108702 23294 12589 75906 42435 31444 30846 44898 38576 14017 7179 33471 24613 8822 17859 5410 24559 5323 12576 32796 17004 10991 7808 5466 1143
shrinkage=0.05


Tree=33
num_leaves=31
num_cat=0
split_feature=127 124 107 92 10 91 3 13 106 41 52 16 2 119 124 7 85 16 76 16 101 52 10 119 78 85 67 32 78 14
split_gain=59.5897 34.3769 17.8522 16.2402 15.9048 17.6636 14.9296 19.5371 12.8515 13.7903 12.2248 11.0794 10.5392 10.2269 10.2083 13.795 9.83116 9.52028 9.42406 11.4755 9.35637 9.0451 8.83963 8.72935 8.55221 8.36368 8.05183 7.54701 7.44401 9.02844
threshold=0.37500000000000006 1.0000000180025095e-35 0.35339000000000004 -2.8747999999999991 -1.8173499999999996 -5.9645499999999991 4.7557000000000009 -1.5439499999999999 -4.5988499999999997 -0.81495999999999991 6.5497500000000004 -0.40265499999999993 -0.14642999999999998 1.0000000180025095e-35 1.0000000180025095e-35 -1.0365499999999999 -0.26747499999999996 0.26848500000000003 0.82582500000000014 0.99972500000000009 2.2502500000000007 4.8756500000000011 -0.74839999999999984 1.0000000180025095e-35 -0.92863499999999988 -1.0947499999999997 -0.87419999999999987 -0.9161649999999999 -2.1582499999999993 28.148000000000007
decision_type=2 2 2 2 2 2 2 2 2 2 2 2 2 2 2 2 2 2 2 2 2 2 2 2 2 2 2 2 2 2
left_child=1 -1 4 -3 5 16 20 -8 -6 12 11 -5 -10 -14 24 -16 28 27 19 25 -7 26 -12 -19 -4 -17 -9 -11 -2 -30
right_child=2 3 14 10 8 6 7 21 9 17 22 -13 13 -15 15 18 -18 23 -20 -21 -22 -23 -24 -25 -26 -27 -28 -29 29 -31
leaf_value=4.1182698178759144e-05 0.0056427985073087064 0.0011867115271758184 0.0024889841220320777 -0.0025526108848873529 0.0051335236767161086 -0.0012043934653027243 0.001997034841622088 -0.0050554810940359948 -0.00064237283639036213 0.0037087567122136601 -0.0078380485307204401 -0.0010387193144590784 0.0025491802543303487 -0.0019338458291624416 -0.0022778288451849485 -0.00276051002942042 0.0041369663686969 0.0042754540468483756 -0.001356008745799662 0.0032185247991915662 0.0022332849209614194 -0.020101473988986322 -0.0026185356527115879 0.00027398326617802043 0.0002826682247707314 0.0011133391547268725 -0.020075091136909955 0.0006266342654205029 0.00083181661228897211 -0.0058516495578364407
leaf_count=63781 564 4642 6193 21468 3024 7769 472 492 7870 2775 1410 27653 7964 1514 7984 2094 3427 8975 5772 4107 2656 198 1910 1607 15105 4164 109 6987 2320 646
internal_value=0 -0.0151312 0.0174525 -0.0329581 0.0288689 0.00468693 -0.0190463 -0.121369 0.0399473 0.0349151 -0.0379765 -0.0340071 0.0142015 0.0366614 0.0025297 -0.0115577 0.044587 0.0525782 0.00526372 0.0232975 -0.00657137 -0.21666 -0.0967051 0.0733557 0.0184843 -0.00365792 -0.15559 0.0300555 0.0075478 -0.0124771
internal_count=225652 120864 104788 57083 59369 18653 11696 1271 40716 37692 52441 49121 17348 9478 45419 24121 6957 20344 16137 10365 10425 799 3320 10582 21298 6258 601 9762 3530 2966
shrinkage=0.05


Tree=34
num_leaves=31
num_cat=0
split_feature=117 124 126 124 80 125 125 119 27 14 6 44 102 5 7 7 71 35 126 125 73 81 76 44 110 110 81 35 38 5
