tree
version=v2
num_class=1
num_tree_per_iteration=1
label_index=0
max_feature_idx=129
objective=regression
feature_names=all_correlation_best_percentile25_ratio all_correlation_best_percentile50_ratio all_correlation_best_percentile75_ratio all_correlation_kurtosis all_correlation_percentile5_percentile25_ratio all_correlation_skew all_correlation_stddev_best_ratio all_correlation_stddev_median_ratio all_loss_best_percentile25_ratio all_loss_best_percentile50_ratio all_loss_best_percentile75_ratio all_loss_kurtosis all_loss_percentile5_percentile25_ratio all_loss_skew all_loss_stddev_best_ratio all_loss_stddev_median_ratio log10_cardinality recent_10_correlation_best_percentile25_ratio recent_10_correlation_best_percentile50_ratio recent_10_correlation_best_percentile75_ratio recent_10_correlation_kurtosis recent_10_correlation_percentile5_percentile25_ratio recent_10_correlation_skew recent_10_correlation_stddev_best_ratio recent_10_correlation_stddev_median_ratio recent_10_loss_best_percentile25_ratio recent_10_loss_best_percentile50_ratio recent_10_loss_best_percentile75_ratio recent_10_loss_kurtosis recent_10_loss_percentile5_percentile25_ratio recent_10_loss_skew recent_10_loss_stddev_best_ratio recent_10_loss_stddev_median_ratio recent_15%_correlation_best_percentile25_ratio recent_15%_correlation_best_percentile50_ratio recent_15%_correlation_best_percentile75_ratio recent_15%_correlation_kurtosis recent_15%_correlation_percentile5_percentile25_ratio recent_15%_correlation_skew recent_15%_correlation_stddev_best_ratio recent_15%_correlation_stddev_median_ratio recent_15%_loss_best_percentile25_ratio recent_15%_loss_best_percentile50_ratio recent_15%_loss_best_percentile75_ratio recent_15%_loss_kurtosis recent_15%_loss_percentile5_percentile25_ratio recent_15%_loss_skew recent_15%_loss_stddev_best_ratio recent_15%_loss_stddev_median_ratio recent_25_correlation_best_percentile25_ratio recent_25_correlation_best_percentile50_ratio recent_25_correlation_best_percentile75_ratio recent_25_correlation_kurtosis recent_25_correlation_percentile5_percentile25_ratio recent_25_correlation_skew recent_25_correlation_stddev_best_ratio recent_25_correlation_stddev_median_ratio recent_25_loss_best_percentile25_ratio recent_25_loss_best_percentile50_ratio recent_25_loss_best_percentile75_ratio recent_25_loss_kurtosis recent_25_loss_percentile5_percentile25_ratio recent_25_loss_skew recent_25_loss_stddev_best_ratio recent_25_loss_stddev_median_ratio top_10%_correlation_best_percentile25_ratio top_10%_correlation_best_percentile50_ratio top_10%_correlation_best_percentile75_ratio top_10%_correlation_kurtosis top_10%_correlation_percentile5_percentile25_ratio top_10%_correlation_skew top_10%_correlation_stddev_best_ratio top_10%_correlation_stddev_median_ratio top_10%_loss_best_percentile25_ratio top_10%_loss_best_percentile50_ratio top_10%_loss_best_percentile75_ratio top_10%_loss_kurtosis top_10%_loss_percentile5_percentile25_ratio top_10%_loss_skew top_10%_loss_stddev_best_ratio top_10%_loss_stddev_median_ratio top_20%_correlation_best_percentile25_ratio top_20%_correlation_best_percentile50_ratio top_20%_correlation_best_percentile75_ratio top_20%_correlation_kurtosis top_20%_correlation_percentile5_percentile25_ratio top_20%_correlation_skew top_20%_correlation_stddev_best_ratio top_20%_correlation_stddev_median_ratio top_20%_loss_best_percentile25_ratio top_20%_loss_best_percentile50_ratio top_20%_loss_best_percentile75_ratio top_20%_loss_kurtosis top_20%_loss_percentile5_percentile25_ratio top_20%_loss_skew top_20%_loss_stddev_best_ratio top_20%_loss_stddev_median_ratio top_30%_correlation_best_percentile25_ratio top_30%_correlation_best_percentile50_ratio top_30%_correlation_best_percentile75_ratio top_30%_correlation_kurtosis top_30%_correlation_percentile5_percentile25_ratio top_30%_correlation_skew top_30%_correlation_stddev_best_ratio top_30%_correlation_stddev_median_ratio top_30%_loss_best_percentile25_ratio top_30%_loss_best_percentile50_ratio top_30%_loss_best_percentile75_ratio top_30%_loss_kurtosis top_30%_loss_percentile5_percentile25_ratio top_30%_loss_skew top_30%_loss_stddev_best_ratio top_30%_loss_stddev_median_ratio resultFilteringMode_age resultFilteringMode_loss_rank resultFilteringMode_none resultFilteringMode_random secondaryProbabilityMode_correlation secondaryProbabilityMode_fixed secondaryLockingMode_random secondaryLockingMode_top resultFilteringAgeMultiplier resultFilteringLossRankMultiplier resultFilteringRandomProbability secondaryTopLockingPercentile secondaryCorrelationExponent secondaryCorrelationMultiplier secondaryFixedProbability secondaryCutoff gamma
feature_infos=[-9.0793999999999997:106.40000000000001] [-6.1543999999999999:907.00999999999999] [-4.2420999999999998:4891.5] [-4.0632000000000001:42.643000000000001] [-11.725:138.13999999999999] [-12.686:13.845000000000001] [-15.976000000000001:11.5] [-5.9271000000000003:1428.2] [-92019:46103] [-76234:115450] [-15884:122060] [-2.3426:70.739999999999995] [-81702:47027] [-8.2988:19.844000000000001] [-537830:1444500] [-78181:1104700] [-4.9066000000000001:5.7077999999999998] [-4.2309000000000001:1690.3] [-2.4914999999999998:363.81999999999999] [-2.2536:422.11000000000001] [-2.5891000000000002:34.893999999999998] [-5.0574000000000003:1705.5] [-9.4838000000000005:11.569000000000001] [-15.170999999999999:8.0465] [-2.4289999999999998:353.56] [-15750:17733] [-24245:129280] [-29342:94593] [-1.7628999999999999:2.0127000000000002] [-12687:18631] [-6.274:1.8354999999999999] [-378090:1398600] [-339220:1724900] [-4.3403:8764.7999999999993] [-2.6692:4616.3000000000002] [-2.3054999999999999:8748.2999999999993] [-2.5735000000000001:33.960000000000001] [-5.2473000000000001:9928.8999999999996] [-11.114000000000001:11.558] [-14.411:7.4763999999999999] [-2.6036000000000001:4298.5] [-25805:15193] [-71151:398300] [-232340:102990] [-1.6065:49.856000000000002] [-23318:13028] [-7.5063000000000004:12.785] [-779600:1158500] [-3854900:1321600] [-4.9035000000000002:9369.6000000000004] [-3.0550999999999999:3670.5] [-2.6476999999999999:4790.8000000000002] [-2.8029999999999999:42.148000000000003] [-6.0103999999999997:9025.7999999999993] [-10.73:12.619999999999999] [-13.798999999999999:7.9203999999999999] [-2.8595999999999999:3237.1999999999998] [-110400:32742] [-54569:50533] [-25601:21684] [-1.9413:3.7551999999999999] [-121220:7508.6000000000004] [-9.4586000000000006:3.0712000000000002] [-777050:1005600] [-4907700:2416500] [-3.5528:6421.6000000000004] [-2.3841000000000001:3859.3000000000002] [-1.8844000000000001:2265.0999999999999] [-2.2686999999999999:28.308] [-4.1837:6406.6000000000004] [-13.297000000000001:10.804] [-13.407999999999999:6.319] [-2.3730000000000002:3342.0999999999999] [-22397:39663] [-37882:31527] [-54135:285190] [-3.0364:128.66999999999999] [-21922:40673] [-24.335000000000001:19.193000000000001] [-555170:366600] [-27388:44588] [-3.9630000000000001:22230] [-2.3159000000000001:13472] [-1.9112:3249.8000000000002] [-2.4296000000000002:30.291] [-4.7637999999999998:13939] [-14.045:11.15] [-14.471:7.2553999999999998] [-2.3260000000000001:9986.7999999999993] [-80788:9101.8999999999996] [-96031:28600] [-78856:27997] [-3.8111000000000002:275.38999999999999] [-38099:9126.2999999999993] [-36.381999999999998:30.282] [-440240:271940] [-31583:88057] [-4.4935999999999998:76437] [-2.3953000000000002:17238] [-2.0042:18072] [-2.6255999999999999:30.370000000000001] [-5.4583000000000004:76103] [-11.244999999999999:10.606999999999999] [-14.869999999999999:7.6917] [-2.3576999999999999:17510] [-63240:23966] [-27011:25286] [-308980:655530] [-4.2102000000000004:378.39999999999998] [-85724:27764] [-41.186:32.061] [-557080:1121200] [-23140:353280] [0:1] [0:1] [0:1] [0:1] [0:1] [0:1] [0:1] [0:1] [-3:4] [-3:4] [-3:0.90000000000000002] [-3:10] [1:3] [-3:1.8] [-3:0.75] [-1:1] [0.20000000000000001:2]
tree_sizes=2541 2603 2621 2626 2612 2606 2614 2616 2626 2636 2606 2582 2617 2625 2603 2625 2630 2597 2612 2609 2635 2603 2605 2621 2624 2609 2606 2632 2601 2613 2575 2614 2586 2572 2599 2603 2574 2593 2594 2592 2595 2607 2560 2560 2580 2581 2585 2566 2583 2622 2593 2557 2538 2594 2545 2575 2551 2578 2579 2578 2588 2581 2529 2570 2555 2578 2590 2601 2540 2558 2574 2563 2576 2577 2554 2600 2590 2533 2541 2546 2506 2569 2500 2572 2476 2501 2512 2576 2577 2557 2463 2553 2478 2537 2494 2518 2553 2510 2536 2488

Tree=0
num_leaves=31
num_cat=0
split_feature=92 76 113 122 44 76 76 123 79 106 114 76 114 59 76 78 9 44 129 90 59 9 44 122 15 128 43 110 106 124
split_gain=318130 164503 80116.1 41044.6 19306.3 17904.7 29019.2 15731.2 15147.4 14139.8 12836.5 10641.9 7590.12 7123.02 6955.63 6356.51 6249.53 6184.08 6041.72 6017.49 5998.67 5447.28 5440.65 5778.65 6197.95 5134.25 4752.98 4948.12 7049.8 4520.53
threshold=-3.2936499999999995 -3.0362999999999993 1.0000000180025095e-35 1.5000000000000002 -0.73889499999999997 -1.5781499999999997 -1.5782499999999999 1.0000000180025095e-35 0.35718000000000005 1.2460500000000001 1.0000000180025095e-35 -1.2420499999999997 1.0000000180025095e-35 -2.3395499999999996 -1.5782499999999999 2.7607500000000003 -9.3054499999999987 2.6676500000000005 1.3 -3.0072499999999995 -1.7497499999999999 -4.4873499999999993 1.0313000000000001 2.5000000000000004 8.499900000000002 -0.94999999999999984 -0.81007499999999988 -0.29055499999999995 -1.9927499999999998 -1.0000000180025095e-35
decision_type=2 2 2 2 2 2 2 2 2 2 2 2 2 2 2 2 2 2 2 2 2 2 2 2 2 2 2 2 2 2
left_child=15 18 3 5 11 6 29 8 10 13 17 14 -8 -4 -5 -1 -10 -7 -2 -15 -12 -20 -6 -24 -25 -21 27 28 -18 -3
right_child=1 2 9 4 22 7 12 -9 16 -11 20 -13 -14 19 -16 -17 26 -19 21 25 -22 -23 23 24 -26 -27 -28 -29 -30 -31
leaf_value=15.901811455666186 15.800398456817749 15.68674303086862 15.727950190634314 15.585287543358632 15.568838090343002 15.664965712301012 15.742438657492063 15.608091649104789 15.89088562923606 15.74125703436119 15.739916182450839 15.583301925276411 15.883023728389773 15.627360865889987 15.733155881788862 15.63471634442852 15.572893326789746 15.712617982825737 15.973348269822868 15.600444916576219 15.496132827617471 15.846701461792833 15.438202934347805 15.554601769454157 15.394026546407595 15.689455984374019 15.594545969233685 15.679847731176153 15.693824205221029 15.610126480740982
leaf_count=15513 7471 2702 8384 1100 7712 25112 6653 33106 209 15465 306 5158 1122 5252 2871 226 3936 9341 1006 1707 1439 5442 2078 5056 682 31805 11798 4566 1737 6697
internal_value=0 -0.325126 -0.561038 -0.999088 -2.16395 -0.734915 0.202032 -0.910678 -0.598692 0.372116 -0.19959 -1.0099 1.63125 0.099951 0.220624 4.33625 -1.2481 -0.0655716 2.99676 -0.080813 -2.84563 3.70593 -2.84242 -3.4304 -2.91295 0.0751623 -1.29971 -0.801195 -1.42486 -0.980238
internal_count=225652 209913 195994 133381 24657 108724 17174 91550 58444 62613 36198 9129 7775 47148 3971 15739 22246 34453 13919 38764 1745 6448 15528 7816 5738 33512 22037 10239 5673 9399
shrinkage=1


Tree=1
num_leaves=31
num_cat=0
split_feature=92 76 113 115 44 76 76 114 96 106 129 110 44 9 69 58 128 90 16 86 31 4 129 115 17 24 128 129 127 82
split_gain=287112 148464 72304.7 32209.7 46417.2 31297.2 17684.4 16801.7 16352.7 12761.1 9769.61 7741.87 6640.61 5993.96 5915.34 5619.5 5487.61 5161.1 5121.38 5044.83 4901.21 4117.05 4114 6060.04 3987.62 3909.11 3892.9 3848.39 3836.69 4640.48
threshold=-3.2936499999999995 -3.0362999999999993 1.0000000180025095e-35 1.0000000180025095e-35 -0.72895499999999991 -1.5781499999999997 -1.5782499999999999 1.0000000180025095e-35 0.54061500000000018 1.2460500000000001 1.5000000000000002 0.12242000000000001 1.0313000000000001 -2.6090499999999994 -1.5398499999999997 -10.125999999999999 -0.74999999999999989 -3.4532499999999993 3.1878500000000005 -0.59967499999999985 -0.81349999999999989 -1.6345499999999997 1.3 1.0000000180025095e-35 6.6055500000000009 -0.34603499999999993 -0.6499999999999998 1.1000000000000003 0.67500000000000016 -1.3995499999999998
decision_type=2 2 2 2 2 2 2 2 2 2 2 2 2 2 2 2 2 2 2 2 2 2 2 2 2 2 2 2 2 2
left_child=19 15 3 4 5 6 -3 -6 16 14 -8 21 -9 -12 -4 27 -5 -13 28 -1 -7 -10 -17 -24 -21 -19 -16 -2 29 -18
right_child=1 2 9 8 7 20 10 12 11 -11 13 17 -14 -15 26 22 18 25 -20 24 -22 -23 23 -25 -26 -27 -28 -29 -30 -31
leaf_value=0.2210900692142353 0.131111028244985 -0.048092571397622429 0.042965336867485777 -0.045776490822868138 -0.077012919019528794 -0.08679422268914086 0.034314821260495926 -0.10997563037322729 -0.010148498461344765 0.057088465605821197 0.26952251878817352 0.044517290981197298 -0.17138245034605218 0.11592382451417056 -0.033262072243733738 0.10807124451832301 0.038526367558649126 -0.017763536190886293 -0.059600910324991853 0.16020860190109593 -0.031397894236951066 -0.094445994171400677 0.18839812271687995 0.059383282309134824 -0.24122065961479194 -0.10359476951284607 0.0049541231870032908 0.34603050201621421 -0.031775706257093271 -0.0021443784622732962
leaf_count=12246 336 3222 8335 6631 25709 9006 3550 8884 1674 15465 826 2216 8728 2749 8545 7020 12872 4277 2934 3430 7173 10749 4897 1118 63 1923 30268 548 4848 15410
internal_value=0 -0.30887 -0.532986 -0.949133 -1.41781 -0.376025 0.982243 -2.05571 -0.433884 0.35351 1.86138 -1.16006 -2.80814 3.02825 0.0949534 2.84692 -0.0794449 -0.419527 0.074284 4.11943 -1.24468 -1.66174 2.68145 3.28837 3.05937 -0.887701 -0.0691897 5.28683 0.186428 0.327322
internal_count=225652 209913 195994 133381 69847 26526 10347 43321 63534 62613 7125 20839 17612 3575 47148 13919 42695 8416 36064 15739 16179 12423 13035 6015 3493 6200 38813 884 33130 28282
shrinkage=0.05


Tree=2
num_leaves=31
num_cat=0
split_feature=92 76 113 122 51 76 76 115 96 106 76 76 110 11 114 114 78 74 69 58 15 44 122 43 129 51 119 1 128 95
split_gain=259119 133989 65255 33898.8 16551.8 14996 24336.5 20192.7 14940.4 11516.9 10770.8 7616.02 7178.3 6863.65 6456.85 6094.78 5587.01 5582.5 5338.6 5071.6 5025.8 4892.09 4292.56 4283.92 4185.84 4087.66 4039.59 3954.75 3860.09 4012.16
threshold=-3.2936499999999995 -3.0362999999999993 1.0000000180025095e-35 1.5000000000000002 -2.4169499999999995 -1.5781499999999997 -1.5782499999999999 1.0000000180025095e-35 0.54061500000000018 1.2460500000000001 -1.5781499999999997 -1.5782499999999999 0.12242000000000001 -0.53116499999999989 1.0000000180025095e-35 1.0000000180025095e-35 2.7607500000000003 -2.7698999999999994 -1.5398499999999997 -10.125999999999999 -1.2396499999999999 2.6676500000000005 3.5000000000000004 -8.3815499999999989 1.5000000000000002 -1.8187499999999999 1.0000000180025095e-35 -0.76174499999999989 -0.74999999999999989 -1.4207499999999997
decision_type=2 2 2 2 2 2 2 2 2 2 2 2 2 2 2 2 2 2 2 2 2 2 2 2 2 2 2 2 2 2
left_child=16 19 3 5 22 6 26 13 21 18 11 -6 20 -7 -8 -15 -1 23 -4 -2 -10 28 -5 -14 -16 -13 -3 -21 -9 -30
right_child=1 2 9 4 10 7 14 8 12 -11 -12 25 17 15 24 -17 -18 -19 -20 27 -22 -23 -24 -25 -26 -27 -28 -29 29 -31
leaf_value=0.19926870075783712 0.25112458332209969 -0.065161748218442048 0.040817065255042674 -0.17300634231137466 -0.082347226747295318 -0.039910096364340585 0.056523220526625922 -0.059184232213042802 -0.17738582325643965 0.054234032836732761 -0.08940795587969351 0.32150110730837134 0.25996466575253413 -0.078663974717569973 0.051238334320093462 -0.17539077480117005 -0.051138089966457502 -0.052273191846465963 -0.0032865172776160387 0.1595487577353647 -0.073814269930636264 0.024724614099891865 -0.1045846765832005 0.021210557029691535 0.25530116514678081 0.047347346159164722 0.0072646401414467087 0.10379866171964425 0.025097815807117486 -0.020693455447682481
leaf_count=15513 884 6697 8335 6286 1425 12381 6653 4287 1350 15465 11011 145 207 22119 380 1758 226 4813 38813 5511 8848 10350 3608 2034 742 2182 2702 7524 6704 16699
internal_value=0 -0.293426 -0.506337 -0.901677 -1.96029 -0.661598 0.19587 -0.822452 -0.442141 0.335834 -1.28956 0.173693 -1.21402 -1.40241 1.5047 -1.71571 3.91346 -0.438435 0.0902056 2.70457 -1.7505 -0.0920753 -2.96111 0.865283 3.72378 1.28861 -0.886816 2.54738 -0.311323 -0.151523
internal_count=225652 209913 195994 133381 24657 108724 17174 91550 55292 62613 14763 3752 17252 36258 7775 23877 15739 7054 47148 13919 10198 38040 9894 2241 1122 2327 9399 13035 27690 23403
shrinkage=0.05


Tree=3
num_leaves=31
num_cat=0
split_feature=92 76 113 122 51 76 76 115 96 96 76 76 10 11 114 114 10 78 54 61 58 127 46 90 11 16 22 119 82 51
split_gain=233855 120925 58892.7 30593.7 14938 13533.9 22020 18224 13483.7 10648.6 9720.64 6873.46 6847.45 6194.45 5956.95 5500.54 5218.32 5042.28 4891.96 4630.83 4577.12 4571.86 4807.9 4225.18 4079.57 4023.58 3910.54 3894.57 3830.33 3689.11
threshold=-3.2936499999999995 -3.0362999999999993 1.0000000180025095e-35 1.5000000000000002 -2.4169499999999995 -1.5781499999999997 -1.5960499999999997 1.0000000180025095e-35 0.54061500000000018 -0.88114499999999996 -1.5781499999999997 -1.5782499999999999 -0.69222499999999987 -0.53116499999999989 1.0000000180025095e-35 1.0000000180025095e-35 -0.95519999999999994 2.7607500000000003 2.5802500000000004 -0.38869999999999999 -10.125999999999999 0.67500000000000016 2.1435500000000007 -1.5793499999999996 -0.71910499999999988 2.2903500000000006 -1.53155 1.0000000180025095e-35 -1.4078499999999996 -1.8187499999999999
decision_type=2 2 2 2 2 2 2 2 2 2 2 2 2 2 2 2 2 2 2 2 2 2 2 2 2 2 2 2 2 2
left_child=17 20 3 5 24 6 27 13 21 19 11 -6 18 -7 -8 -15 23 -1 -10 -4 -2 22 25 -11 -5 28 -17 -3 -9 -13
right_child=1 2 9 4 10 7 14 8 12 16 -12 29 -14 15 -16 26 -18 -19 -20 -21 -22 -23 -24 -25 -26 -27 -28 -29 -30 -31
leaf_value=0.18930527162574551 0.23856834314291564 -0.064636211986359118 0.14958339148094238 -0.090498809242861994 -0.078229856133461007 -0.037914601047674891 0.052174944414121328 0.026526981625818818 -0.047692270614309078 0.0025362467009182339 -0.084937561880355644 0.30542605222299185 -0.094939201756167491 -0.074730785112440481 0.17594449577423243 -0.024374847511188336 -0.012936637823163261 -0.048581191745743289 0.041951024234135437 0.039116372230826195 0.12100051476115002 -0.044822413409939865 0.036386554278865967 0.056273510585737041 -0.16120573354242163 -0.052383123550593935 -0.20571578936874221 0.0075709794933786828 -0.017866339727520063 0.044979975841031174
leaf_count=15513 884 6501 994 2876 1425 12381 6922 8549 8195 9146 11011 145 7188 22119 1131 379 25555 226 1869 20822 13035 5902 8094 6096 7018 4238 1379 2620 11257 2182
internal_value=0 -0.278755 -0.48102 -0.856593 -1.86228 -0.628519 0.186077 -0.78133 -0.420034 0.319043 -1.22508 0.165008 -1.15332 -1.33229 1.39115 -1.62993 0.0174739 3.71779 -0.62089 0.882991 2.56935 -0.0874716 0.0610933 0.480567 -2.81305 -0.163319 -3.33242 -0.877895 0.0259091 1.22418
internal_count=225652 209913 195994 133381 24657 108724 17174 91550 55292 62613 14763 3752 17252 36258 8053 23877 40797 15739 10064 21816 13919 38040 32138 15242 9894 24044 1758 9121 19806 2327
shrinkage=0.05


Tree=4
num_leaves=31
num_cat=0
split_feature=92 76 113 122 44 76 76 115 96 93 51 59 54 11 76 114 16 15 122 114 129 115 86 129 128 7 76 51 128 129
split_gain=211054 109135 53150.6 27610.8 13868.1 12214.3 19873 16447.1 12313.6 10014 7808.68 6642.33 6600.82 5590.49 5526.12 5376.15 5275.85 4987.03 5206.31 4964.24 4861.9 4913.57 4421.4 4365.17 4172.13 4150.03 3897.8 3832.84 3771.96 3764.93
threshold=-3.2936499999999995 -3.0362999999999993 1.0000000180025095e-35 1.5000000000000002 0.38939000000000007 -1.5781499999999997 -1.5960499999999997 1.0000000180025095e-35 0.10988500000000001 0.39085000000000009 -2.4169499999999995 -2.8059499999999997 2.4482500000000003 -0.53116499999999989 -1.2420499999999997 1.0000000180025095e-35 0.25693500000000008 8.499900000000002 2.5000000000000004 1.0000000180025095e-35 1.3 1.0000000180025095e-35 -0.59967499999999985 1.7000000000000004 -0.74999999999999989 -2.6968499999999995 -1.5782499999999999 -1.8187499999999999 -0.94999999999999984 1.5000000000000002
decision_type=2 2 2 2 2 2 2 2 2 2 2 2 2 2 2 2 2 2 2 2 2 2 2 2 2 2 2 2 2 2
left_child=22 20 3 5 10 6 -3 13 24 11 -5 -4 16 -7 26 -8 -10 18 -6 -15 -2 -22 -1 -11 -9 -25 -12 -28 -13 -17
right_child=1 2 9 4 17 7 15 8 12 23 14 28 -14 19 -16 29 -18 -19 -20 -21 21 -23 -24 25 -26 -27 27 -29 -30 -31
leaf_value=0.19074843002058275 0.094590754322223983 -0.041700014362058391 0.047164831606860878 -0.11057639156035307 -0.18600686934219102 -0.03601886649278993 0.049566197431329034 -0.042112187105002669 -0.038159870960007065 0.017766759695290756 -0.065220222999932062 -0.086403488567282236 0.0098481944917309695 -0.070994239299377856 -0.062830553825596255 0.039910716734205681 -0.093297234026999701 -0.23340614420929176 -0.098371072691908104 -0.1582901753951394 0.17485206396133279 0.06313228477653203 0.12697467120332848 0.16685914149346037 0.0063302217820578963 0.050858851350684901 0.28373356646374809 0.030274027990243674 -0.0076155248052927399 0.23255401548531798
leaf_count=12246 7471 9121 5674 4791 2312 12381 6922 5262 9792 13526 1136 1606 3830 22119 6116 384 7790 1131 6348 1758 5236 1212 3493 820 28618 12912 158 2665 28075 747
internal_value=0 -0.264817 -0.456969 -0.813763 -1.76916 -0.597093 0.176773 -0.742263 -0.399032 0.303091 -1.16053 -0.0480592 -0.992647 -1.26568 -0.660748 1.3216 -1.25179 -2.69327 -2.43535 -1.54843 2.44088 3.07705 3.5319 0.75855 -0.0238702 1.15572 0.259763 0.889197 -0.237573 3.34295
internal_count=225652 209913 195994 133381 24657 108724 17174 91550 55292 62613 14866 35355 21412 36258 10075 8053 17582 9791 8660 23877 13919 6448 15739 27258 33880 13732 3959 2823 29681 1131
shrinkage=0.05


Tree=5
num_leaves=31
num_cat=0
split_feature=92 76 113 122 11 76 76 95 106 127 51 128 9 114 7 59 16 90 114 129 7 128 102 129 121 128 44 28 129 35
split_gain=190476 98494 47968.4 24918.8 12524 11023.4 17978.3 10910.5 9061.73 7710.73 7561.16 7257.62 6319.61 5738.1 5750.81 5696.26 5620.17 5238.86 4740.8 4387.87 4595.77 4189.6 4156.73 4111.79 5313.03 3990.19 3954.95 4798.89 3718.67 3691.79
threshold=-3.2936499999999995 -3.0362999999999993 1.0000000180025095e-35 1.5000000000000002 -1.1055499999999998 -1.5781499999999997 -1.5782499999999999 -0.078126999999999988 1.3009500000000001 0.67500000000000016 -2.4169499999999995 -0.74999999999999989 -8.1948499999999971 1.0000000180025095e-35 -2.4220499999999996 -2.3395499999999996 0.092294000000000001 -3.0072499999999995 1.0000000180025095e-35 1.3 -2.4220499999999996 -0.94999999999999984 -2.1013499999999996 1.5000000000000002 1.5000000000000002 0.55000000000000016 -0.73889499999999997 0.87754500000000013 1.7000000000000004 17.636500000000002
decision_type=2 2 2 2 2 2 2 2 2 2 2 2 2 2 2 2 2 2 2 2 2 2 2 2 2 2 2 2 2 2
left_child=22 19 3 5 -5 6 -3 9 15 13 -6 -9 -13 -7 -15 23 -14 -17 -8 -2 -21 -19 -1 29 -25 -11 27 -12 -23 -4
right_child=1 2 8 4 10 7 18 11 -10 25 26 12 16 14 -16 17 -18 21 -20 20 -22 28 -24 24 -26 -27 -28 -29 -30 -31
leaf_value=0.19632462219299029 0.089861226229742824 -0.038131656657762893 0.0081154867199524795 -0.022419219344498705 -0.14067218908070347 -0.0083030537439851611 0.048610000441016876 -0.10177194420589664 0.048783532806863247 -0.036631759357866216 -0.063494776425090813 0.1066133904589584 -0.027964346808061404 0.23601227649129353 -0.15306649760528721 -0.050588005245503637 -0.069435603740275728 -0.072594509501185941 0.15971682766010842 0.25463581285878734 0.12973366690573415 -0.010074627949181259 0.14464642306385875 0.15819277178683833 0.039678876281256187 -0.10737398674115331 -0.099434158303510253 0.078208823086454826 0.023745252119887796 -0.34639423497517907
leaf_count=7041 7471 9399 3526 6180 8144 41728 6653 6820 14670 5214 2969 672 16672 104 1094 5252 16019 1738 1122 848 5600 16021 8698 1290 3543 3227 6616 748 16498 75
internal_value=0 -0.251576 -0.43412 -0.773075 -1.68071 -0.567238 0.167934 -0.70515 0.287936 -0.399818 -2.09288 -1.09546 -0.903316 -0.228011 -2.3858 0.0774973 -0.965716 -0.0817606 1.29287 2.31883 2.9232 0.0608193 3.3553 0.823539 1.42624 -1.27353 -1.52496 -0.699574 0.141667 0.0146384
internal_count=225652 209913 195994 133381 24657 108724 17174 91550 62613 51367 18477 40183 33363 42926 1198 47943 32691 39509 7775 13919 6448 34257 15739 8434 4833 8441 10333 3717 32519 3601
shrinkage=0.05


Tree=6
num_leaves=31
num_cat=0
split_feature=92 76 113 122 44 76 76 115 96 93 11 15 11 49 78 15 122 76 114 127 58 4 111 76 44 44 129 7 58 54
split_gain=171905 88890.8 43291.5 22489.2 11745.3 9948.65 16239.4 14648.1 10527.1 8428.15 6441.72 6111.48 5087.77 4842.61 4504.76 4465.31 4703.27 4455.36 4373.95 4220.65 4110.51 4045.89 5187.31 4030.2 3989.81 3912.35 3766.78 3732.19 3679.15 3625.36
threshold=-3.2936499999999995 -3.0362999999999993 1.0000000180025095e-35 1.5000000000000002 0.38939000000000007 -1.5781499999999997 -1.5960499999999997 1.0000000180025095e-35 0.54061500000000018 0.39085000000000009 -0.60026999999999997 0.45587000000000005 -1.0713499999999996 -0.93680499999999989 4.1749000000000009 8.499900000000002 2.5000000000000004 -1.0927499999999999 1.0000000180025095e-35 0.52500000000000013 -10.125999999999999 -1.1595999999999997 47.380500000000005 -1.5782499999999999 2.6676500000000005 7.6332500000000012 1.7000000000000004 -2.6968499999999995 -7.4067499999999988 2.4482500000000003
decision_type=2 2 2 2 2 2 2 2 2 2 2 2 2 2 2 2 2 2 2 2 2 2 2 2 2 2 2 2 2 2
left_child=14 20 3 5 10 6 -3 12 24 -4 17 25 -7 -12 -1 16 -6 23 28 -14 -2 -13 -23 -5 -9 29 -11 -28 -8 -10
right_child=1 2 9 4 15 7 18 8 11 26 13 21 19 -15 -16 -17 -18 -19 -20 -21 -22 22 -24 -25 -26 -27 27 -29 -30 -31
leaf_value=0.16177996364449285 0.21448276546273837 -0.037708431422030793 -0.0024304358210054289 -0.06284000735028801 -0.17121002108735198 -0.020821289715489806 0.16124971348206096 -0.01250646686106759 -0.10050002336870112 0.015841113893110288 -0.028765471848847819 0.03614921803390652 -0.052905445081774582 -0.11366995717607553 -0.13838896261794228 -0.21579072563443746 -0.087915501486282355 -0.051382573757852823 0.15088278977982669 -0.092392840685093014 0.10306870161160959 -0.049487727138992438 0.18130195841723282 0.063804749447461589 0.023879554590309299 0.1096877852047997 0.15645286993248525 0.046447135633134795 0.033412559128029283 -0.0027056229179614889
leaf_count=15613 884 9121 35355 882 2312 7279 618 27690 6883 13526 2553 2291 18210 4908 126 1131 6348 4340 1131 10769 13035 6465 253 2183 10350 261 820 12912 6304 1099
internal_value=0 -0.238997 -0.412414 -0.734421 -1.59667 -0.538876 0.159538 -0.669893 -0.345977 0.273539 -1.03655 -0.993899 -1.16385 -1.69235 3.18754 -2.44711 -2.20306 -0.375799 1.19442 -1.35159 2.20289 -0.424577 -0.815924 0.547216 -0.0521297 -1.61613 0.691381 1.06032 0.896519 -1.7407
internal_count=225652 209913 195994 133381 24657 108724 17174 91550 55292 62613 14866 17252 36258 7461 15739 9791 8660 7405 8053 28979 13919 9009 6718 3065 38040 8243 27258 13732 6922 7982
shrinkage=0.05


Tree=7
num_leaves=31
num_cat=0
split_feature=92 76 113 122 51 76 76 115 96 96 76 110 59 76 46 114 74 61 59 78 129 115 15 114 44 122 59 108 9 16
split_gain=155144 80224 39070.6 20296.5 10892.6 8978.65 14674.2 13219.9 9546.59 7845.27 6973.23 6948.93 5490.08 5016.51 4817.31 5289.13 4461.38 4203.91 4136.87 4128.87 3954.46 4443.97 3862.66 3860.43 3805.09 3717.6 3634.41 3562.59 3502.63 3500.44
threshold=-3.2936499999999995 -3.0362999999999993 1.0000000180025095e-35 1.5000000000000002 -2.4169499999999995 -1.5781499999999997 -1.5782499999999999 1.0000000180025095e-35 0.64876000000000011 -0.88114499999999996 -1.5781499999999997 0.12242000000000001 -2.3395499999999996 -1.5782499999999999 2.0081000000000002 1.0000000180025095e-35 -5.4187499999999993 -0.38869999999999999 -1.3601499999999997 2.7607500000000003 1.3 1.0000000180025095e-35 -1.2396499999999999 1.0000000180025095e-35 2.6676500000000005 3.5000000000000004 -6.2242999999999986 1.9565500000000002 -4.9188499999999991 0.28423000000000004
decision_type=2 2 2 2 2 2 2 2 2 2 2 2 2 2 2 2 2 2 2 2 2 2 2 2 2 2 2 2 2 2
left_child=19 20 3 5 25 6 -3 14 24 17 13 22 -11 -6 18 -16 26 -4 27 -1 -2 -22 -10 -8 29 -5 -13 -7 -23 -9
right_child=1 2 9 4 10 7 23 8 11 12 -12 16 -14 -15 15 -17 -18 -19 -20 -21 21 28 -24 -25 -26 -27 -28 -29 -30 -31
leaf_value=0.15449910682965806 0.079878435017728788 -0.034457936495659848 0.13765231529325697 -0.13965619608067686 -0.063648143868697313 -0.033464880582917571 0.043925703366089815 0.0044399728951262712 -0.15785809035241938 0.037133847482388412 -0.068695269704227735 0.2715903036720097 -0.0090215286694334557 0.055475181693128754 -0.078686518930256411 -0.24928448639841003 -0.026731093790565871 0.032400484383967247 -0.056316460578386157 -0.060765092153992277 0.15329524697899546 0.24795905348399414 -0.063533050391169466 0.14418685196395864 0.022653401686495402 -0.075981516111435624 0.038581799276458613 0.047642345073156178 0.011087440657302564 -0.030707001517235252
leaf_count=15513 7471 9399 994 6286 1425 5034 6653 14695 1247 8019 11011 211 32778 2327 7916 482 5718 20822 20974 226 5236 184 8373 1122 10561 3608 809 1852 1028 13678
internal_value=0 -0.227048 -0.391794 -0.6977 -1.51684 -0.511932 0.151561 -0.636398 -0.328678 0.259862 -0.972718 -0.969729 0.00101412 0.204649 -1.10566 -1.76956 -0.190947 0.743921 -0.905535 3.02816 2.09275 2.66649 -1.5152 1.16789 -0.0593427 -2.32872 1.73565 -0.233019 0.940963 -0.250072
internal_count=225652 209913 195994 133381 24657 108724 17174 91550 55292 62613 14763 16358 40797 3752 36258 8398 6738 21816 27860 15739 13919 6448 9620 7775 38934 9894 1020 6886 1212 28373
shrinkage=0.05


Tree=8
num_leaves=31
num_cat=0
split_feature=92 76 113 115 44 76 96 76 114 129 93 110 9 59 59 19 129 115 128 95 13 128 90 4 41 89 86 129 128 129
split_gain=140154 75107.6 35048.1 16554.9 28494.7 15748.7 9068.29 8822.37 8719.16 8078.55 7234.17 6301.67 5278.71 5197.71 4908.4 4846.29 4397.77 4305.48 4226.06 3854.09 3626.97 3783.33 3600.44 3581.24 3554.39 3536.97 3462.55 3407.71 3227.28 3127.85
threshold=-3.5404999999999993 -3.0362999999999993 1.0000000180025095e-35 1.0000000180025095e-35 -0.72895499999999991 -1.5781499999999997 0.64876000000000011 -1.5782499999999999 1.0000000180025095e-35 1.5000000000000002 0.39085000000000009 0.12242000000000001 -2.6090499999999994 -3.1930499999999995 -0.67445499999999992 -2.0850499999999994 1.3 1.0000000180025095e-35 -0.74999999999999989 -1.4037499999999998 0.62941500000000017 0.45000000000000007 -3.4532499999999993 -1.6345499999999997 1.2068500000000004 0.31976500000000002 2.3090500000000005 1.7000000000000004 -0.94999999999999984 0.3000000000000001
decision_type=2 2 2 2 2 2 2 2 2 2 2 2 2 2 2 2 2 2 2 2 2 2 2 2 2 2 2 2 2 2
left_child=26 16 3 4 5 7 18 -3 -6 -9 13 23 -11 25 -7 20 -2 -18 -5 24 21 -10 -13 -8 -20 -4 -1 -12 -15 -16
right_child=1 2 10 6 8 14 11 9 15 12 27 22 -14 28 29 -17 17 -19 19 -21 -22 -23 -24 -25 -26 -27 -28 -29 -30 -31
leaf_value=0.15307465947803844 0.074161259189392759 -0.029933283470626505 0.035880758338438339 -0.038160800395166193 -0.056279003898364488 -0.003397400018319625 0.003964607219077038 0.016436844652569504 -0.070268019999565959 0.23276067804165035 0.013802250822860169 0.045699867793937796 0.089276221980726239 -0.078638213935718349 0.19752176820204176 -0.06378647219807991 0.14896920038340974 0.045962478639222419 0.067607352432492301 -0.0057068265331602155 -0.15222030501532616 -0.1485784466824365 -0.029108990239695421 -0.076697630808595263 0.0083274429634118199 0.23970808912644942 0.035424671916786686 0.049109715887432064 -0.0064696212299931236 -0.063580473824028483
leaf_count=14297 7725 3224 4670 6776 25730 5862 1590 3588 4609 833 13574 2220 2781 1637 116 5655 5402 1249 3946 25976 5041 2318 5838 10226 7040 223 654 13763 28851 10238
internal_value=0 -0.209935 -0.371497 -0.660982 -0.996553 -0.182646 -0.291739 0.776208 -1.49673 1.39168 0.245187 -0.851858 2.44697 -0.0533437 -0.799137 -2.03861 1.99643 2.59251 -0.0372282 0.0958624 -2.39909 -1.92946 -0.169979 -1.31687 0.592397 0.903405 2.95857 0.631561 -0.206892 -1.2131
internal_count=225652 210701 196325 133607 69995 26642 63612 10426 43353 7202 62718 19874 3614 35381 16216 17623 14376 6651 43738 36962 11968 6927 8058 11816 10986 4893 14951 27337 30488 10354
shrinkage=0.05


Tree=9
num_leaves=31
num_cat=0
split_feature=92 71 113 122 11 128 59 95 115 106 59 44 4 60 11 115 44 43 51 53 96 69 44 55 13 116 18 59 129 97
split_gain=126489 49055.6 30318.7 15625.6 11696.6 8732.24 8780.81 10266.4 7764.33 7109.8 6534.9 6055.4 5889.55 5686.52 5394.07 4655.62 4496.47 4479.68 4369.29 4257.55 4088.55 3948.15 3919.35 3624.45 3602.71 3702.17 3574.32 3566.14 3366.22 3476.31
threshold=-3.5404999999999993 4.1377000000000015 1.0000000180025095e-35 1.5000000000000002 -0.58727999999999991 -0.94999999999999984 -1.8465499999999999 0.81276000000000004 1.0000000180025095e-35 1.3009500000000001 0.51101500000000011 -0.72895499999999991 -1.3828499999999997 0.49904500000000002 -1.8917499999999998 1.0000000180025095e-35 -0.72895499999999991 -0.088091499999999975 -2.4169499999999995 0.06518450000000002 -1.3157499999999998 -1.5398499999999997 2.6676500000000005 -1.0252499999999998 -4.111699999999999 1.0000000180025095e-35 11.158000000000003 -3.3569999999999998 1.7000000000000004 3.1021500000000004
decision_type=2 2 2 2 2 2 2 2 2 2 2 2 2 2 2 2 2 2 2 2 2 2 2 2 2 2 2 2 2 2
left_child=-1 2 3 5 13 -2 16 8 10 14 19 15 -9 27 20 28 17 23 -6 -8 -4 -16 -10 -7 -12 -26 -21 -5 -3 -30
right_child=1 11 9 4 18 6 7 12 22 -11 24 -13 -14 -15 21 -17 -18 -19 -20 26 -22 -23 -24 -25 25 -27 -28 -29 29 -31
leaf_value=0.14053189214012515 -0.080180579748491562 0.094217491990114421 0.79272069735452533 0.048571335495526856 -0.12399227496568906 0.061746351201348471 0.032433371892698674 -0.0018175859638618051 -0.010441347020375802 0.042894777302427398 0.46001552623860981 -0.0071525936794648998 -0.069465684582506251 -0.10630467778085623 0.031661053118601283 0.038292919444520235 -0.012151365932694981 0.092909658530136108 -0.069359843938492954 -0.056831769473800392 0.074426035233228729 -0.0071066229701954239 0.026365828665482358 -0.010485200404298761 -0.13596390272938569 -0.048501593692415926 0.16578796319663525 -0.026065823558671528 0.14533975503365104 0.36397722152748496
leaf_count=14951 5991 6547 20 2140 6591 2738 4521 4008 28640 14664 34 1640 16312 1747 7931 2732 9904 2528 8229 2960 2095 38198 9676 4749 1310 15836 192 6347 2223 198
internal_value=0 -0.199438 -0.324885 -0.592982 -1.30535 -0.42984 -0.361837 -0.504171 -0.305285 0.248118 -0.740597 1.6565 -1.12245 -0.483118 0.0627734 1.90875 0.234747 0.707225 -1.87314 0.0266924 1.62437 -0.00882524 -0.0229275 0.318598 -1.08329 -1.10368 -0.865424 -0.144921 2.25691 3.26442
internal_count=225652 210701 197361 134453 25054 109399 103408 83489 63169 62908 24853 13340 20320 10234 48244 11700 19919 10015 14820 7673 2115 46129 38316 7487 17180 17146 3152 8487 8968 2421
shrinkage=0.05


Tree=10
num_leaves=31
num_cat=0
split_feature=77 76 113 122 44 128 128 59 106 129 110 59 7 115 59 129 11 7 98 122 15 105 7 115 38 54 11 101 46 49
split_gain=114649 64169.4 28517.4 15022.7 9005.1 8267.83 8376.21 6632.93 8797.97 6477.96 5975.96 5571.46 5556.83 4851.22 4813.66 4605.42 4582.44 4555.57 4345.11 4305 4523.98 4218.55 4124.86 4092.41 3902.33 3884.71 3761.52 3752.66 3688.15 3431.76
threshold=-101.50499999999998 -3.0362999999999993 1.0000000180025095e-35 1.5000000000000002 1.0313000000000001 -0.74999999999999989 0.75000000000000011 -1.8465499999999999 -0.38614999999999994 1.7000000000000004 3.3242500000000006 -0.92494999999999983 -2.8112499999999998 1.0000000180025095e-35 0.88563500000000006 1.3 -1.8917499999999998 -2.4220499999999996 -1.5042499999999996 2.5000000000000004 8.499900000000002 -1.4660999999999997 -1.34385 1.0000000180025095e-35 -4.8858999999999986 -0.25314999999999993 -0.57152499999999995 4.2001500000000007 -0.74642499999999989 -0.37595499999999998
decision_type=2 2 2 2 2 2 2 2 2 2 2 2 2 2 2 2 2 2 2 2 2 2 2 2 2 2 2 2 2 2
left_child=26 15 3 5 11 -3 7 -7 22 -4 12 29 -11 14 25 -2 -14 -17 -18 -6 -21 -20 -9 -19 -23 28 -1 -24 -10 -5
right_child=1 2 9 4 19 6 -8 8 13 10 -12 -13 16 -15 -16 17 18 23 21 20 -22 24 27 -25 -26 -27 -28 -29 -30 -31
leaf_value=0.13794943688145223 0.064551175318031465 -0.053396941765272876 -0.0049476995882288301 0.026654588998395009 -0.17143362328983203 0.023870004343314575 -0.046293412067375875 0.00061136498289653205 0.10398710320551879 0.13457510442534845 0.10658828799690828 -0.06685455192172024 0.13188083874565151 0.011699801451609959 -0.046746568646364922 0.22486952327909662 0.041483119524615288 0.12426000003710165 -0.043598231744798668 -0.071157621509892063 -0.20879249299272479 0.36779097604577421 -0.065008061454522759 0.018813997065189762 0.010794210838174821 -0.029781376421930988 -0.052491174731403592 0.0085755742858525802 -0.003352607609541338 -0.047818837343409498
leaf_count=14530 8058 17714 31987 3393 2077 13032 18299 4209 1546 1039 2202 10605 838 24552 9334 903 8945 4898 4418 5055 677 77 13177 1133 13046 3147 264 1995 1659 2843
internal_value=0 -0.188805 -0.341427 -0.602799 -1.30761 -0.442916 -0.321183 -0.168877 -0.310146 0.215621 0.544831 -0.89603 0.421627 -0.0435404 -0.477945 1.80517 0.335315 2.40265 0.262471 -2.19522 -1.74827 -0.0267668 -0.86366 2.08901 0.257778 0.193577 2.69102 -1.10665 0.9685 -0.145959
internal_count=225652 210858 195866 133314 24650 108664 90950 72651 59619 62552 30565 16841 28363 40238 15686 14992 27324 6934 26486 7809 5732 17541 19381 6031 13123 6352 14794 15172 3205 6236
shrinkage=0.05


Tree=11
num_leaves=31
num_cat=0
split_feature=77 76 113 115 44 76 76 129 96 114 96 9 129 11 59 14 129 7 32 25 127 82 16 115 90 47 26 102 6 129
split_gain=103470 57912.9 25737 12764.3 23393.1 14092.6 7710.01 7511.64 7111.1 6461.39 5918.39 5051.7 4741.51 4549.67 4376.37 4230.42 4156.4 4111.4 3863.06 3723.19 3695.41 4309.26 3855.96 3693.4 3594.82 3534.64 3422.93 3413.33 3328.77 3316.18
threshold=-101.50499999999998 -3.0362999999999993 1.0000000180025095e-35 1.0000000180025095e-35 -0.72895499999999991 -1.5781499999999997 -1.5782499999999999 1.5000000000000002 0.64876000000000011 1.0000000180025095e-35 -0.88114499999999996 -2.6090499999999994 1.7000000000000004 -1.7661499999999999 -2.3395499999999996 3.0506000000000006 1.3 -2.4220499999999996 -0.81345499999999993 -0.70408999999999988 0.67500000000000016 -1.3995499999999998 2.3484000000000003 1.0000000180025095e-35 -3.0072499999999995 -1.1756499999999999 -12.690999999999997 -2.1013499999999996 -5.0652499999999989 1.3
decision_type=2 2 2 2 2 2 2 2 2 2 2 2 2 2 2 2 2 2 2 2 2 2 2 2 2 2 2 2 2 2
left_child=27 16 3 4 5 6 -3 -8 20 -6 19 -9 -11 -14 29 -10 -2 -18 -7 -4 21 22 -5 26 25 -16 -19 -1 -27 -12
right_child=1 2 10 8 9 18 7 11 15 12 14 -13 13 -15 24 -17 17 23 -20 -21 -22 -23 -24 -25 -26 28 -28 -29 -30 -31
leaf_value=0.1536309822155133 0.061323615194077113 -0.025543791376641641 0.10551911544710893 0.03414693973356784 -0.050073639659658123 -0.057783119143463374 0.016269631743209424 0.22621822859600582 -0.053192301991984527 -0.11624125623241227 -0.0166979290206037 0.085993052432886893 0.14870189109236981 -0.070165605653742372 0.33150113303153245 -0.0036449131438118718 0.21362604754899578 0.35651022197602145 -0.0085481670540211354 0.025519028585703336 -0.035193215351359518 -0.010022993292740244 -0.036533646746453312 0.017873295872009445 -0.0018168488489721246 0.33919652703183667 0.11072047671259254 0.10547300513728507 -0.05542336600074857 0.053756576011219082
leaf_count=6866 8058 3222 1567 13965 25685 8912 3598 834 13424 8504 2397 2794 244 8834 61 6344 903 146 7205 20234 6743 20767 2239 1133 27579 54 4752 7928 5152 5508
internal_value=0 -0.179364 -0.324356 -0.572659 -0.867683 -0.129031 0.775587 1.34921 -0.248124 -1.3212 0.20484 2.36456 -1.78828 -1.28566 -0.0201436 -0.745828 1.71491 2.28252 -0.715459 0.625385 -0.0230554 0.101115 0.487612 1.98456 -0.180911 -0.937927 2.36094 2.55647 -1.0266 0.647859
internal_count=225652 210858 195866 133314 69832 26565 10448 7226 63482 43267 62552 3628 17582 9078 40751 19768 14992 6934 16117 21801 43714 36971 16204 6031 32846 5267 4898 14794 5206 7905
shrinkage=0.05


Tree=12
num_leaves=31
num_cat=0
split_feature=77 76 121 115 44 76 76 129 96 114 129 110 110 7 9 129 98 86 65 96 129 9 115 30 127 82 16 46 16 4
split_gain=93382 52266.4 23227.6 11519.7 21112.2 12718.5 6958.29 6779.26 6417.76 5831.4 5750.48 5283.52 4966.43 4947.85 4729.22 4279.21 4039.63 3824.8 3759.19 3838.55 3751.15 3848.7 4210.88 3608.22 3335.11 3889.1 3480.01 3234.53 3169.56 3107.93
threshold=-101.50499999999998 -3.0362999999999993 1.0000000180025095e-35 1.0000000180025095e-35 -0.72895499999999991 -1.5781499999999997 -1.5782499999999999 1.5000000000000002 0.64876000000000011 1.0000000180025095e-35 1.7000000000000004 3.3242500000000006 0.12242000000000001 -2.8112499999999998 -0.56239499999999987 1.7000000000000004 -1.5042499999999996 1.2349500000000002 -1.4167499999999997 0.28805500000000006 1.3 -4.4873499999999993 1.0000000180025095e-35 0.052356500000000007 0.67500000000000016 -1.3995499999999998 2.3484000000000003 1.4578500000000003 3.4459000000000004 -1.6345499999999997
decision_type=2 2 2 2 2 2 2 2 2 2 2 2 2 2 2 2 2 2 2 2 2 2 2 2 2 2 2 2 2 2
left_child=17 20 3 4 5 6 -3 -8 24 28 -4 13 29 -12 -9 -11 -15 -1 -18 -20 -2 -22 -23 -7 25 26 -5 -17 -6 -10
right_child=1 2 10 8 9 23 7 14 12 15 11 -13 -14 16 -16 27 18 -19 19 -21 21 22 -24 -25 -26 -27 -28 -29 -30 -31
leaf_value=0.12892053066945439 0.058257432632956387 -0.024266604233294967 -0.0050893891909255138 0.032439589973938754 -0.043913288519194404 -0.044216985941490775 0.015456149815702104 0.17423232097310548 0.0091559214190272669 -0.11042919279435262 0.12654069008743093 0.099846895886868098 -0.0050626970870454062 0.042324595878707863 0.05968321332273923 -0.03569277335784822 0.05627230177347306 0.035117810582907701 0.010353805442709843 -0.042032110357856145 0.19543213206924348 0.11256183045671996 0.0030503025872762814 0.020712183431142898 -0.033433555177548695 -0.009521843143246618 -0.034706965990758877 -0.096171303992805157 -0.13193723347942296 -0.066236658778744004
leaf_count=13613 8058 3222 31987 13965 24618 13577 3598 1667 1579 8504 1039 2202 8010 9215 1961 5269 2684 1181 10067 5358 1074 4785 1075 2540 6743 20767 2239 3809 1067 10179
internal_value=0 -0.170396 -0.308138 -0.544026 -0.824299 -0.12258 0.736808 1.28175 -0.235717 -1.25514 0.194598 0.504772 -0.708537 0.388926 2.24633 -1.69886 0.30748 2.42865 0.0331974 -0.156857 1.62916 2.16839 1.84945 -0.679686 -0.0219026 0.096059 0.463231 -1.22137 -0.951399 -1.12224
internal_count=225652 210858 195866 133314 69832 26565 10448 7226 63482 43267 62552 30565 19768 28363 3628 17582 27324 14794 18109 15425 14992 6934 5860 16117 43714 36971 16204 9078 25685 11758
shrinkage=0.05


Tree=13
num_leaves=31
num_cat=0
split_feature=73 76 113 122 16 11 127 10 93 104 1 51 59 71 9 129 9 107 27 51 39 76 111 100 128 51 127 95 66 89
split_gain=84340.8 47180.6 21049.4 11182.6 7596.72 7482.46 6919.34 5593.26 5210.29 4879.29 5903.08 4358.58 4309.81 3959.61 3440.11 4540.09 3350.19 3302.41 4016.37 3253.04 3154.16 3652.17 3586.99 3045.9 3033.9 3025.26 2983.14 2978.07 3142.18 2975.13
threshold=-72.567999999999984 -3.0362999999999993 1.0000000180025095e-35 1.5000000000000002 0.90250000000000019 -1.1055499999999998 0.52500000000000013 1.8846500000000004 0.39085000000000009 -1.7696499999999997 -1.2021499999999998 -2.4169499999999995 -3.1930499999999995 -0.63799999999999979 -3.8715999999999995 1.1000000000000003 -7.3265499999999983 0.14186500000000005 -0.40303499999999998 -1.7008499999999998 1.3829500000000003 -0.24119999999999997 23.012500000000006 -0.6028199999999998 -0.14999999999999999 -1.8691499999999996 0.52500000000000013 1.4090500000000004 -0.42222499999999996 0.31976500000000002
decision_type=2 2 2 2 2 2 2 2 2 2 2 2 2 2 2 2 2 2 2 2 2 2 2 2 2 2 2 2 2 2
left_child=13 14 3 4 6 26 9 20 12 -3 -11 -7 29 -1 15 -2 -8 18 24 -13 22 -22 27 -24 -12 -17 -5 -6 -29 -4
right_child=1 2 8 5 7 11 16 -9 -10 10 17 19 -14 -15 -16 25 -18 -19 -20 -21 21 -23 23 -25 -26 -27 -28 28 -30 -31
leaf_value=0.11865731653678142 0.050232510300965087 0.023270778976630126 0.032168478825934863 0.016567169359752901 -0.04624785940564758 -0.099664918387722345 0.050310835662612498 0.0071331720178309356 0.02564285292730667 0.018568197814912642 -0.059647168957236346 0.066587382915541393 -0.010335887142177012 -0.060238457768507114 0.066072246640171944 0.38382891575014783 -0.035498752061029371 -0.0050581059190694501 -0.078199253979887848 -0.057429146316220786 0.038543680547700708 -0.049425119169615644 0.31035897906048826 0.0040594838330378904 0.015371235061904015 0.15849126810532321 -0.05654080134245263 -0.06531720578280481 -0.14999623784443011 0.21849408448942836
leaf_count=14607 1108 16639 4480 4042 19608 8124 1196 5840 27315 11331 2338 559 30483 316 12265 166 23240 9384 5021 9779 2190 2558 118 260 3182 1450 2131 4217 1480 225
internal_value=0 -0.162692 -0.29363 -0.518234 -0.380254 -1.12651 -0.192965 -0.753742 0.185156 0.0279575 -0.204921 -1.44519 -0.0692241 2.29738 1.54722 2.56377 -0.625977 -0.532645 -0.916767 -1.01447 -0.92577 -0.176996 -1.0642 1.99354 -0.328057 3.63277 -0.173413 -1.10987 -1.74631 0.821577
internal_count=225652 210729 195740 133237 108602 24635 72331 36271 62503 47895 31256 18462 35188 14923 14989 2724 24436 19925 10541 10338 30431 4748 25683 378 5520 1616 6173 25305 5697 4705
shrinkage=0.05


Tree=14
num_leaves=31
num_cat=0
split_feature=73 76 113 122 128 128 11 7 127 102 59 75 129 11 7 76 102 71 8 13 129 7 127 121 61 71 108 60 129 76
split_gain=76117.6 42580.5 18997 10092.3 7284.55 7397.92 6844.7 5954.02 5658.49 5477.93 6322.63 5321.51 5167.58 4989.7 4286.14 4125.27 3878.83 3573.55 3340.14 3230.91 3230.05 3580.37 3222.39 3218.24 3166.26 3148.48 3183.7 3460.63 3130.01 3114.63
threshold=-72.567999999999984 -3.0362999999999993 1.0000000180025095e-35 1.5000000000000002 -0.74999999999999989 0.75000000000000011 -0.58727999999999991 -1.8472499999999996 0.52500000000000013 1.8707500000000004 -0.95938499999999982 -1.0933499999999998 1.7000000000000004 -1.8917499999999998 -2.6968499999999995 -1.0927499999999999 0.65159500000000004 -0.63799999999999979 -0.45768999999999999 0.6772450000000001 1.3 -2.4220499999999996 0.52500000000000013 1.5000000000000002 -11.640499999999998 1.6622500000000002 3.1819000000000002 0.53217500000000018 0.3000000000000001 -1.5781499999999997
decision_type=2 2 2 2 2 2 2 2 2 2 2 2 2 2 2 2 2 2 2 2 2 2 2 2 2 2 2 2 2 2
left_child=17 20 3 4 29 7 15 19 -7 10 18 -12 -4 23 22 -5 -16 -1 28 -6 -2 -22 -15 -14 -10 -8 -27 -28 -9 -3
right_child=1 2 12 6 5 8 25 9 24 -11 11 -13 13 14 16 -17 -18 -19 -20 -21 21 -23 -24 -25 -26 26 27 -29 -30 -31
leaf_value=0.1127244631526657 0.05196345287562526 0.0029036971039489803 -0.0052613805299652275 0.022388171121950788 0.051883986585365964 -0.01477890350305943 -0.085715616083239965 0.28642932126379533 0.12121269780965079 0.015874744496440236 -0.063906283485071866 -0.018851453730684517 0.26429368556610178 0.15644989959986591 -0.0003492620216384723 -0.045279934243982238 0.037207839673049289 -0.057226535145051875 0.056934698498388961 -0.0040188088717375836 0.19136642632533613 0.084609407463325237 -0.015939266741089031 0.073314304649705314 -0.075371675991877454 -0.048679082694857739 -0.04196748177229024 0.25217196314815599 -0.0068461923747764487 -0.056148196490324154
leaf_count=14607 8057 2621 31956 3504 6373 9763 12168 92 210 14393 8608 27463 315 952 16248 6305 11917 316 3146 4348 903 6029 379 736 8316 2258 201 199 8187 15082
internal_value=0 -0.154557 -0.278948 -0.492322 -0.361241 -0.246946 -1.07018 -0.10377 -0.815378 -0.222954 -0.386729 -0.592067 0.175899 0.469992 0.393701 -0.422147 0.310833 2.18251 0.261564 0.584242 1.46986 1.97032 2.14725 2.61107 -1.41059 -1.49893 -0.512947 2.08734 -0.0717436 -0.948107
internal_count=225652 210729 195740 133237 108602 90899 24635 72610 18289 61889 47496 36071 62503 30547 29496 9809 28165 14923 11425 10721 14989 6932 1331 1051 8526 14826 2658 400 8279 17703
shrinkage=0.05


Tree=15
num_leaves=31
num_cat=0
split_feature=73 76 113 76 115 76 11 96 54 16 96 129 9 32 10 120 128 16 63 14 128 61 15 59 114 122 128 9 56 86
split_gain=68696.1 38428.9 17144.8 9388.62 15316.2 15228.6 6935.62 5633.96 5578.05 4822.24 4807.17 4238.22 5699.3 4034.35 3753.86 3718.23 3714.8 3609.54 3447.09 3377.07 3316.53 3307.39 3346.45 3901.87 3272.54 4305.02 3239.95 4462.82 3158.58 3117.5
threshold=-72.567999999999984 -3.0362999999999993 1.0000000180025095e-35 -1.5781499999999997 1.0000000180025095e-35 -1.5960499999999997 -1.0713499999999996 0.10988500000000001 2.5357500000000006 -0.16046499999999997 -0.88114499999999996 1.5000000000000002 -0.56239499999999987 -0.45452499999999996 -0.20988499999999996 1.0000000180025095e-35 -0.94999999999999984 0.25693500000000008 38.398500000000006 -1.5228499999999998 0.25000000000000006 -0.38869999999999999 -0.31840499999999994 -2.8811499999999994 1.0000000180025095e-35 2.5000000000000004 0.45000000000000007 -3.8715999999999995 -1.7388499999999996 2.3090500000000005
decision_type=2 2 2 2 2 2 2 2 2 2 2 2 2 2 2 2 2 2 2 2 2 2 2 2 2 2 2 2 2 2
left_child=29 26 3 5 6 15 13 -6 17 16 21 -7 -13 -5 -12 -3 -8 19 -10 -9 -18 22 23 -4 -11 28 27 -2 -26 -1
right_child=1 2 10 4 7 11 9 8 18 24 14 12 -14 -15 -16 -17 20 -19 -20 -21 -22 -23 -24 -25 25 -27 -28 -29 -30 -31
leaf_value=0.10863584455936788 0.15770685563943351 0.01129781470709261 0.82022634855023147 -0.044202331917426826 0.0020829661078797849 0.019467530220422705 -0.11504457812212521 -0.17268234687263256 0.014585242555949294 -0.05710438293813911 0.013100194315281605 0.14160592525613397 0.034759494695891853 0.015083466333721632 -0.01727455674327787 -0.05205546259795113 -0.015273916252441662 -0.067613097785740636 0.23786970056020298 -0.01645511038898197 -0.05585934538389016 0.023094891599337468 0.049098808839325873 0.19392675757230748 -0.2387393364710888 -0.069942363307960442 0.036202177929576827 0.070571823008255957 -0.11684712176793038 -0.0014892820772586218
leaf_count=14250 1783 3244 27 5470 33860 5644 1526 359 3439 13552 20745 2257 2792 6036 19957 8096 10826 7843 182 9489 9408 20829 630 315 663 5872 4849 8357 2679 673
internal_value=0 -0.146829 -0.265001 -0.467706 -0.585864 0.128659 -0.954126 -0.211863 -0.614653 -1.13297 0.167104 0.984808 1.65044 -0.262025 -0.035863 -0.678644 -0.796359 -0.846108 0.516161 -0.443005 -0.68289 0.546038 2.34908 4.86743 -1.45471 -1.91452 1.39636 1.71787 -2.82057 2.07339
internal_count=225652 210729 195740 133237 111204 22033 56032 55172 21312 44526 62503 10693 5049 11506 40702 11340 21760 17691 3621 9848 20234 21801 972 342 22766 9214 14989 10140 3342 14923
shrinkage=0.05


Tree=16
num_leaves=31
num_cat=0
split_feature=73 76 113 76 115 76 11 96 105 114 51 46 9 102 32 59 7 119 1 71 127 74 98 29 58 110 119 110 112 46
split_gain=61998.2 34682 15473.2 8473.23 13822.8 13743.8 6259.4 5215.43 4439.69 4263.03 4398.39 4182.11 4031.82 3705.03 3641 3394.85 3389.96 3355.7 3539.57 3205.42 3154.63 3098.88 3071.91 3450.45 2964.63 2961.95 3188.12 2924.8 4654.79 2853.27
threshold=-72.567999999999984 -3.0362999999999993 1.0000000180025095e-35 -1.5781499999999997 1.0000000180025095e-35 -1.5960499999999997 -1.0713499999999996 -1.4324499999999998 -0.43840499999999999 1.0000000180025095e-35 -2.4169499999999995 2.1435500000000007 -5.6557499999999994 3.4438500000000007 -0.45452499999999996 -3.1930499999999995 -2.8819999999999992 1.0000000180025095e-35 -2.1971499999999993 -0.63799999999999979 0.52500000000000013 0.80078500000000008 -1.4766499999999996 -1.4402999999999997 -10.125999999999999 -0.71972499999999984 1.0000000180025095e-35 -3.3867999999999996 -1.6184499999999999 -2.4329499999999995
decision_type=2 2 2 2 2 2 2 2 2 2 2 2 2 2 2 2 2 2 2 2 2 2 2 2 2 2 2 2 2 2
left_child=19 24 3 5 6 17 14 21 15 20 25 13 -7 -9 -5 -4 -17 18 -3 -1 -8 -6 -10 -24 -2 -11 -27 28 -13 -12
right_child=1 2 8 4 7 12 9 11 22 10 29 27 -14 -15 -16 16 -18 -19 -20 -21 -22 -23 23 -25 -26 26 -28 -29 -30 -31
leaf_value=0.10189429678400569 0.15224470717636485 0.05172659119879696 0.032004339363810794 -0.041992215801207468 0.075696177338293466 0.14817770795285665 -0.027997063039596305 -0.030952339261991608 0.037460750759527595 -0.14006197758201192 0.075157045742288944 0.59549109417459245 0.0374821696594793 0.034516745395252207 0.014329293173852928 0.11272750342865503 -0.01997725918079642 0.01073292436037783 -0.060255289406847323 -0.059065155148553317 -0.063623639268289109 0.0076675791890992873 0.070791788175804907 0.0020399791406684339 0.060572102364204183 -0.099045408048411776 -0.010323072129418931 0.018167541423416044 -0.13119925305797514 -0.055382395837270719
leaf_count=14607 941 781 4303 5470 2008 898 16819 31353 13898 2888 439 23 9795 2321 6036 493 20175 3244 7315 316 9854 10065 1993 21641 14048 4182 1336 8876 526 9008
internal_value=0 -0.139488 -0.251751 -0.444321 -0.556571 0.122226 -0.90642 -0.20127 0.158748 -1.07632 -1.45453 -0.363997 0.935568 -0.528797 -0.248924 -0.167996 -0.336236 -0.644711 -0.989054 1.96972 -0.823177 0.379644 0.37614 0.156753 1.32655 -1.98072 -1.55128 0.224808 -2.0151 -0.986325
internal_count=225652 210729 195740 133237 111204 22033 56032 55172 62503 44526 17853 43099 10693 33674 11506 24971 20668 11340 8096 14923 26673 12073 37532 23634 14989 8406 5518 9425 549 9447
shrinkage=0.05


Tree=17
num_leaves=31
num_cat=0
split_feature=69 44 122 75 96 59 16 39 109 129 2 11 110 9 114 13 114 11 122 51 119 114 5 110 24 15 12 50 129 29
split_gain=56131.5 30731.3 11302.4 9353.1 9336.96 8167.26 7379.12 5846.27 5853.2 4690.41 4487.54 4060.85 3932.58 3871.8 3669.35 3587.5 3577.69 3480.14 3312.31 4399.84 3303.86 3300.87 3166.55 3134.09 3550.25 3281.33 3091.7 3079.03 4523.83 3051.01
threshold=-1.7879499999999997 -0.72895499999999991 1.5000000000000002 -6.8755999999999995 -1.4324499999999998 -1.9537499999999997 -0.31523499999999999 1.3829500000000003 -1.0726999999999998 1.9000000000000001 -1.8496499999999998 -1.7661499999999999 1.0216500000000004 1.7706500000000001 1.0000000180025095e-35 3.5951500000000007 1.0000000180025095e-35 -1.3974499999999999 3.5000000000000004 -2.4169499999999995 1.0000000180025095e-35 1.0000000180025095e-35 6.3481500000000013 2.9898500000000006 -0.8018099999999998 28.909500000000005 2.0226500000000005 -1.91035 1.5000000000000002 1.2857500000000004
decision_type=2 2 2 2 2 2 2 2 2 2 2 2 2 2 2 2 2 2 2 2 2 2 2 2 2 2 2 2 2 2
left_child=1 3 4 -1 13 9 -7 8 15 20 23 -4 14 -2 -11 26 -3 22 19 -13 29 -10 -12 25 -25 -5 -8 -18 -29 -6
right_child=2 16 11 10 5 6 7 -9 21 12 17 18 -14 -15 -16 -17 27 -19 -20 -21 -22 -23 -24 24 -26 -27 -28 28 -30 -31
leaf_value=0.096868080035998241 0.038287187801733333 -0.0046621764816980856 0.025971006422609657 0.075585835370869728 -0.0050906868913980644 -0.0042906275943390528 -0.05710023744887166 0.0029054516029643064 -0.025613984233132506 0.0062062334601750146 0.05741846957510504 -0.10683416972893295 0.11915847963936746 0.00062117091328361051 0.26595843985883727 -0.12724078907957956 -0.12884148795117528 0.016816529069549082 -0.026828579740578319 -0.046661958066260584 0.040427850532636964 -0.13009596784462982 0.49783758477466861 0.21342543009228174 0.012362315105337675 -0.23026724077761174 0.29965145965335799 -0.16041329761287049 0.072918394192457811 -0.1031186534255278
leaf_count=15841 11775 14928 1692 3421 12197 37534 13735 9776 34245 2435 8928 4930 1672 16222 144 1996 1160 10284 6912 7916 4009 773 41 867 294 90 61 315 610 849
internal_value=0 0.860141 -0.289199 1.34135 -0.190518 -0.312368 -0.434228 -0.650077 -0.786334 0.248831 0.94672 -0.967426 1.18863 0.329255 0.414193 -1.29175 -0.264625 0.733376 -1.09475 -1.39509 0.0145839 -0.558407 1.18864 1.8259 3.2502 1.35491 -1.11046 -1.49167 -0.13081 -0.229402
internal_count=225652 56779 168873 39766 147423 119426 98120 60586 50810 21306 23925 21450 4251 27997 2579 15792 17013 19253 19758 12846 17055 35018 8969 4672 1161 3511 13796 2085 925 13046
shrinkage=0.05


Tree=18
num_leaves=31
num_cat=0
split_feature=65 44 114 79 128 96 51 44 122 16 122 50 76 129 85 42 115 87 127 113 70 28 59 111 29 91 0 61 60 11
split_gain=50848.4 28218.9 11420.5 9919.81 9014.95 8175.83 8145.11 6955.4 6443.92 6025.19 5651.99 5535.2 5473.41 5831.26 4889.57 4140.56 3941.21 3831.17 3652.51 3559.69 3452.93 3365.13 3310.21 3051.44 3022.65 5622.86 3090.09 2945.12 2929.6 2889.88
threshold=-1.6324499999999997 -0.72895499999999991 1.0000000180025095e-35 -2.6663999999999999 -0.94999999999999984 -1.48715 -2.4169499999999995 -0.73889499999999997 1.5000000000000002 -0.51095499999999994 3.5000000000000004 -1.5141499999999997 -1.5781499999999997 1.5000000000000002 5.5511500000000007 1.2580500000000001 1.0000000180025095e-35 3.2085500000000002 0.52500000000000013 1.0000000180025095e-35 -3.3047999999999997 0.78161500000000006 0.57811500000000005 47.380500000000005 -0.15813999999999998 -2.4381999999999997 -2.8441999999999994 -0.15307499999999999 0.51949500000000015 -1.8616499999999998
decision_type=2 2 2 2 2 2 2 2 2 2 2 2 2 2 2 2 2 2 2 2 2 2 2 2 2 2 2 2 2 2
left_child=1 3 4 20 -2 15 10 8 11 24 -4 -8 13 17 19 -6 -15 -5 -3 23 -1 -10 -13 -11 26 -26 -7 -17 -14 -21
right_child=2 18 6 12 5 9 7 -9 21 14 -12 22 28 16 -16 27 -18 -19 -20 29 -22 -23 -24 -25 25 -27 -28 -29 -30 -31
leaf_value=0.41240045158636002 -0.062064226049077853 0.003046585558830096 -0.10985700337602185 0.023227688221808627 0.050242659160340125 0.42724279528078829 0.30334804150759154 -0.053918200266009901 -0.029275211946301116 -0.036241594381293034 -0.026148410303866238 0.10088984502086769 0.021586820918607905 0.10085993922057704 0.020446041975833888 0.2831983727638267 0.016184678804526845 0.10252953697756802 -0.042904216683302111 0.078576872276949539 0.090941169542685274 0.082089898259710928 -0.11371785978172727 0.11249673950603639 -0.081847568545093535 -0.00031090268441381842 0.016936091984251531 0.0039541015397018047 -0.056785267346968232 -0.013519151517499656
leaf_count=84 7656 13153 6354 11833 7808 46 291 8279 4227 37794 2954 925 4557 7412 6390 95 1687 1748 6443 886 15136 808 223 348 2393 18163 18748 15528 1615 22068
internal_value=0 0.757172 -0.297607 1.2011 -0.186704 -0.124725 -0.933329 -0.471183 0.305285 -0.242048 -1.66582 2.17148 0.85652 1.08373 -0.423388 0.410224 1.70321 0.668691 -0.241233 -0.510438 1.85431 -0.228074 1.18404 -0.697691 0.0689519 -0.196058 0.358807 0.113042 0.0215908 -0.199287
internal_count=225652 63668 161984 44072 137923 130267 24061 14753 6474 106836 9308 1439 28852 22680 67486 23431 9099 13581 19596 61096 15220 5035 1148 38142 39350 20556 18794 15623 6172 22954
shrinkage=0.05


Tree=19
num_leaves=31
num_cat=0
split_feature=65 44 114 79 96 51 44 16 122 51 122 66 76 129 54 9 115 87 0 127 51 16 98 129 28 57 2 129 80 108
split_gain=45890.7 25467.5 10307 8952.62 7462.34 7350.96 6277.25 5976.66 5815.64 5152.85 5100.92 5061.7 4939.75 5262.72 4915.13 3584.41 3556.94 3457.63 3303.26 3296.39 3283.67 3228.43 3217.49 3141.14 3037.03 2963.66 2927.52 2906.66 2987.4 2893.64
threshold=-1.6324499999999997 -0.72895499999999991 1.0000000180025095e-35 -2.6663999999999999 -1.4324499999999998 -2.4169499999999995 -0.73889499999999997 -0.36217499999999997 1.5000000000000002 -1.7247499999999998 3.5000000000000004 -1.5345499999999996 -1.5781499999999997 1.5000000000000002 -2.1675999999999997 1.7706500000000001 1.0000000180025095e-35 3.2085500000000002 0.28333500000000006 0.52500000000000013 0.93407000000000007 2.2174500000000008 0.34803000000000001 1.9000000000000001 0.78161500000000006 18.880000000000006 -1.9786499999999998 1.5000000000000002 -2.3657499999999998 19.220500000000005
decision_type=2 2 2 2 2 2 2 2 2 2 2 2 2 2 2 2 2 2 2 2 2 2 2 2 2 2 2 2 2 2
left_child=1 3 4 23 15 10 8 18 9 -7 26 14 13 17 -9 -2 -15 -5 -6 -3 27 29 -13 -1 -10 -25 -4 -11 -29 -16
right_child=2 19 5 12 7 6 -8 11 24 20 -12 22 -14 16 21 -17 -18 -19 -20 -21 -22 -23 -24 25 -26 -27 -28 28 -30 -31
leaf_value=0.082189203494747412 0.036655739755955735 0.0028942562664314247 0.021293415858936324 0.022066303804582275 0.010054996718488893 0.42571164225799996 -0.051222290480427562 0.061068797053039581 -0.027811450263431778 0.005344084850300781 -0.024840989542263783 -0.04944881693524588 0.0010255650700113081 0.095816943132437243 -0.0061429515278198414 -0.00060594212621907625 0.015375444395208172 0.097403059680722409 -0.018516011457541396 -0.040759006387256491 -0.061009467498953612 -0.038849062296576899 -0.017071890315703799 0.16042976912429155 0.077985403815856072 0.68251323082617354 -0.11353066323342889 0.64022679675151328 0.15861935623811166 0.21206641026766473
leaf_count=14261 11085 13153 432 11833 28181 114 8279 2249 4227 352 2954 21279 6172 7412 21686 15449 1687 1748 15782 6443 331 10058 12001 931 808 28 5922 34 608 153
internal_value=0 0.719314 -0.282727 1.14104 -0.177369 -0.886663 -0.447624 -0.290896 0.29002 2.06291 -1.58253 -0.477938 0.813694 1.02955 -0.207445 0.299214 1.61805 0.635257 -0.00403058 -0.229171 1.50785 -0.308188 -0.755469 1.76159 -0.21667 3.51346 -2.08728 2.41629 3.6825 -0.0922843
internal_count=225652 63668 161984 44072 137923 24061 14753 111389 6474 1439 9308 67426 28852 22680 34146 26534 9099 13581 43963 19596 1325 31897 33280 15220 5035 959 6354 994 642 21839
shrinkage=0.05


Tree=20
num_leaves=31
num_cat=0
split_feature=69 44 128 113 75 129 128 54 102 4 129 127 107 26 59 58 90 110 43 18 122 57 16 110 78 52 22 71 128 128
split_gain=41551.2 22898.6 10733.3 8413.84 7189.13 5520.81 5229.15 4969.85 4943.86 5456.37 4248.99 4241.73 4090.21 5016.47 3968.81 3959.77 3643.22 3623.62 3447.85 3541.63 3346.42 3337.56 3279.85 3269.42 3192.97 3058.63 3019.83 3016.16 3001.36 3192.97
threshold=-1.7879499999999997 -0.57523999999999986 -0.84999999999999998 1.0000000180025095e-35 -6.2727499999999994 0.50000000000000011 0.75000000000000011 -1.2378499999999997 3.7082500000000005 -1.2980499999999997 1.7000000000000004 0.52500000000000013 0.55576500000000018 -1.4032499999999997 -1.8465499999999999 -6.8127499999999985 -2.9251999999999998 1.8616000000000001 -4.1497499999999992 8.6997000000000018 1.0000000180025095e-35 1.0000000180025095e-35 1.3753500000000003 0.57127500000000009 -7.7383999999999995 5.3343000000000016 0.84965500000000016 2.3735000000000004 0.65000000000000002 -0.34999999999999992
decision_type=2 2 2 2 2 2 2 2 2 2 2 2 2 2 2 2 2 2 2 2 2 2 2 2 2 2 2 2 2 2
left_child=1 4 24 5 -1 -4 8 15 9 23 -5 -8 13 -11 17 18 22 -12 -6 -20 -3 -14 -16 -7 -2 -18 -13 -17 29 -9
right_child=2 20 3 10 7 6 11 28 -10 12 14 26 21 -15 16 27 25 -19 19 -21 -22 -23 -24 -25 -26 -27 -28 -29 -30 -31
leaf_value=0.083175075159658524 0.26206727206078639 -0.0045811475759685158 0.066709714123793604 -0.0056111127366192089 0.04332905893365302 -0.0077117210688668102 -0.019091020338572615 -0.00720988237702607 0.050977827679583136 -0.0051759327774032497 0.041469776603000691 -0.045614731317589197 0.054792933743034344 -0.045439720831717878 -0.012224962258932931 0.02019053643839866 0.016004565731343633 0.15216888683824251 0.22034422086038563 -0.40852375782054406 -0.07380931417522936 -0.011629141445996636 -0.16627999420867545 0.035163580419930882 -0.048715668556907482 0.089983874932780525 -0.10718414978170612 0.074218631632881921 -0.029793202767027755 0.052396130198318638
leaf_count=16033 83 14319 1977 23709 548 11408 10094 3548 2990 11340 2714 5886 2076 24340 1312 4331 17034 1016 842 23 1988 21249 469 7286 19358 1522 3010 6401 2620 6126
internal_value=0 0.740046 -0.24882 -0.157887 1.14315 -0.320559 -0.353379 0.801781 -0.242265 -0.290822 0.188242 -0.825505 -0.439981 -0.652858 0.484236 1.25549 0.310324 1.43245 2.82913 4.07246 -0.260416 -0.114347 -1.05586 0.179979 -0.947777 0.44145 -1.32894 1.0483 0.353571 0.610705
internal_count=225652 56779 168873 149432 40472 101656 99679 24439 80689 77699 47776 18990 59005 35680 24067 12145 20337 3730 1413 865 16307 23325 1781 18694 19441 18556 8896 10732 12294 9674
shrinkage=0.05


Tree=21
num_leaves=31
num_cat=0
split_feature=65 44 128 113 75 128 115 44 28 44 7 97 51 123 122 66 7 16 96 128 26 11 110 16 14 15 49 83 83 6
split_gain=37632.4 20813 9223.42 8374.31 7709.55 5691.91 5496.57 8980.5 5318.68 5082.1 4344.93 3905.69 3853.88 3949.59 3795.19 4169.2 3424.43 3342.71 4236.73 3250.84 3217.21 3324.46 3200.11 3167.68 3142.67 3674.11 3167.76 3137.81 3124.54 3103.07
threshold=-1.6324499999999997 -0.72895499999999991 -0.94999999999999984 1.0000000180025095e-35 -6.2727499999999994 0.55000000000000016 1.0000000180025095e-35 0.38939000000000007 1.0231500000000002 2.6676500000000005 -1.3814499999999998 1.4501500000000001 -2.4169499999999995 0.8500000000000002 1.5000000000000002 -0.84823999999999988 -2.3844499999999997 0.036908000000000003 -1.46885 -0.34999999999999992 -0.62370999999999988 -2.1038499999999996 4.5732500000000007 0.21428500000000003 434.22500000000008 39.967500000000008 0.54315500000000017 -1.5791499999999996 -0.43125499999999994 4.113500000000001
decision_type=2 2 2 2 2 2 2 2 2 2 2 2 2 2 2 2 2 2 2 2 2 2 2 2 2 2 2 2 2 2
left_child=1 4 -2 6 28 10 7 8 12 17 -6 -5 -4 14 15 16 -14 -8 -19 -12 29 -22 -13 -9 25 -21 -27 -17 -1 -10
right_child=2 -3 3 11 5 -7 9 23 20 -11 19 22 13 -15 -16 27 -18 18 -20 24 21 -23 -24 -25 -26 26 -28 -29 -30 -31
leaf_value=0.081515579241565106 -0.061659412631483959 -0.010302868789215366 -0.048953947074956074 -0.0015821573042077983 0.084697823758101601 -0.0015537498845476373 0.0013324120013879623 -0.036457428732334422 0.063367076087244553 0.023430978021422699 0.0041921205853079268 0.025861913722659575 0.19384909423284938 -0.059862261930576526 -0.025811718365428588 0.046339347096810861 0.04400547639338253 0.023994864573817432 -0.037689322972482696 0.052931590257706752 0.41096208335033491 -0.0033627562198739699 0.17379567774082039 -0.074488389734513938 -0.17505373908458532 0.44353241985065672 -0.072036495150589366 -0.063043796064032168 -0.10290322886388191 0.36426696054051433
leaf_count=16100 9116 19596 8817 35518 6091 7520 17804 12246 2298 11318 5512 13179 421 2971 5883 1079 4042 3298 17851 8318 49 4055 376 9903 148 109 41 1671 233 89
internal_value=0 0.651384 -0.256027 -0.197756 1.03263 0.711695 -0.358691 -0.58171 -0.237549 -0.12124 0.987952 0.142639 -0.447833 -0.156304 0.0798476 0.566019 1.16281 -0.292627 -0.561404 0.683572 0.568598 0.0316821 0.599308 -1.06923 1.06724 1.14709 6.0522 -0.402517 1.57769 1.49172
internal_count=225652 63668 161984 152868 44072 27739 103795 53524 31375 50271 20219 49073 24884 16067 13096 7213 4463 38953 21149 14128 6491 4104 13555 22149 8616 8468 150 2750 16333 2387
shrinkage=0.05


Tree=22
num_leaves=31
num_cat=0
split_feature=65 11 128 128 80 10 106 10 54 57 114 116 15 2 100 71 129 27 102 54 38 110 129 128 7 102 6 94 0 78
split_gain=33963.3 14948.3 8664.79 7505.05 7339.4 6277.47 5719.27 5961.22 5636.24 5153.14 4898.58 4177.02 3769.3 3667.45 3979.03 3663.89 3285.75 3190.33 3109.01 3068.63 3053.62 3589.7 3271.41 2997.23 2987.46 2984.24 2846.42 2838.77 2807.72 2774.63
threshold=-1.6324499999999997 -0.55185499999999987 -0.74999999999999989 0.45000000000000007 -2.8105999999999995 -3.7140999999999997 -0.56458499999999989 -0.69222499999999987 -0.8989649999999999 -0.64175999999999989 1.0000000180025095e-35 1.0000000180025095e-35 5.7315000000000014 -0.57927999999999991 5.5678500000000009 -0.36019999999999991 1.9000000000000001 1.1022500000000004 -1.49305 -0.042983999999999987 1.7676000000000003 -1.0634499999999998 1.3 0.55000000000000016 3.9072500000000008 -2.2762499999999997 -3.8318499999999998 -5.7116499999999997 -1.9573499999999997 -7.7383999999999995
decision_type=2 2 2 2 2 2 2 2 2 2 2 2 2 2 2 2 2 2 2 2 2 2 2 2 2 2 2 2 2 2
left_child=1 4 29 5 16 20 7 15 23 -8 11 -5 -3 -11 27 26 -1 -13 -10 -12 21 -4 -22 -6 -24 -21 -7 -15 -9 -2
right_child=2 12 3 10 8 6 9 28 18 13 19 17 -14 14 -16 -17 -18 -19 -20 25 22 -23 24 -25 -26 -27 -28 -29 -30 -31
leaf_value=0.070312005207759376 0.19720474407225849 0.0092835165005995535 -0.044662989782231495 -0.0064206405884200375 0.069676870286623324 0.19431773287290377 0.063657678190734548 0.043002829002216462 0.056466977793187045 0.021461048795572223 -0.026097832543872601 -0.024544538261430531 -0.040191351638499802 0.16788240549223568 0.067077058522423877 0.029540980387808655 0.16294428176495301 -0.08277375331809006 -0.0054312071757071315 0.060893073085012045 -0.01623894666638279 0.057511401412798119 0.1318048691418674 0.016138599840198904 0.40617973528747858 -0.10056353400084971 -0.033624553726834226 -0.014157980331825566 -0.048622906209231341 -0.038904393523876354
leaf_count=14298 125 18207 1141 34658 9646 141 3933 894 2584 17996 3930 8247 4882 216 1670 6810 1026 3291 9439 310 347 3486 934 3586 111 3727 4778 25115 12910 27214
internal_value=0 0.618815 -0.243226 -0.139009 0.984314 0.0546708 -0.0247318 -0.408383 0.653036 0.175468 -0.426801 -0.301911 -0.0235516 0.0795238 -0.153547 0.115807 1.53028 -0.823067 0.157441 -1.15097 1.03699 0.646312 2.33559 1.10335 3.21898 -1.76331 -0.541815 -0.252114 -0.853777 -0.756497
internal_count=225652 63668 161984 134645 40579 80482 74463 25533 25255 48930 54163 46196 23089 44997 27001 11729 15324 11538 12023 7967 6019 4627 1392 13232 1045 4037 4919 25331 13804 27339
shrinkage=0.05


Tree=23
num_leaves=31
num_cat=0
split_feature=69 44 128 59 96 70 16 127 128 129 46 115 128 11 97 129 68 13 59 103 76 76 114 129 12 75 114 86 101 31
split_gain=30796.4 17669.7 8120.05 7081.8 8274.62 5601.27 5140.15 4833.62 6533.02 4809.7 5172.9 4317.05 4134.82 4080.9 4043.42 4317.89 3835.79 3629.27 3472.73 3458.79 3377.87 3434.76 3309.66 3248.89 3857.66 3130.83 3097.74 3048.18 2965.86 2944.59
threshold=-1.8453499999999996 -0.57523999999999986 -0.84999999999999998 -1.8465499999999999 0.10988500000000001 1.5198500000000001 0.06254750000000002 0.52500000000000013 0.55000000000000016 1.9000000000000001 -3.2333999999999992 1.0000000180025095e-35 0.65000000000000002 -0.37466499999999997 1.3628500000000001 0.70000000000000007 -0.62397499999999984 -4.111699999999999 0.45835500000000001 3.9351500000000006 -1.5781499999999997 -1.5960499999999997 1.0000000180025095e-35 1.1000000000000003 -4.8977499999999994 1.7218500000000001 1.0000000180025095e-35 1.8083500000000001 1.5849000000000002 -0.41853499999999993
decision_type=2 2 2 2 2 2 2 2 2 2 2 2 2 2 2 2 2 2 2 2 2 2 2 2 2 2 2 2 2 2
left_child=1 5 -2 9 7 11 -6 14 -9 10 27 12 23 16 15 -5 -8 -18 -17 22 21 -11 -16 25 -25 -1 -3 -4 -15 -29
right_child=2 26 3 4 6 -7 13 8 -10 20 -12 -13 -14 28 19 18 17 -19 -20 -21 -22 -23 -24 24 -26 -27 -28 29 -30 -31
leaf_value=0.071560789966353983 -0.040734046122014395 -0.0043292888090690988 0.12384430034692551 0.099898308148960877 -0.010579300345046606 0.014505335807877696 0.022692624341672296 0.00046695356125032333 -0.052498923920822539 0.049399219133692114 0.0024007503067938088 0.028919683167686096 0.028195226888210873 -0.072359769776494665 0.039434784027415959 0.024914045011007732 0.32138545077238512 -0.048948559273714304 -0.012240897565545602 -0.25732745369098015 0.037146098218720565 0.21494111773629371 -0.032783755039813504 0.17273012769301266 0.087650177752985059 -0.015216691948768526 -0.072691527649294582 0.1548445394457949 -0.020968946830338519 0.83859412828460345
leaf_count=7299 19653 13707 344 1015 21134 8579 3573 14872 9567 641 20662 8148 4470 11629 13050 7922 67 5254 30508 105 4336 613 1806 1589 8248 1212 1885 31 3701 32
internal_value=0 0.649666 -0.210073 -0.13131 -0.231688 1.00513 -0.571993 -0.0359173 -0.405346 0.336345 0.117558 1.20323 1.42635 -0.886427 0.130029 -0.0378651 -0.347565 -0.885709 -0.0916348 0.572685 1.16096 2.60644 0.613108 1.63646 2.02787 1.18407 -0.251879 3.64804 -1.19906 10.0429
internal_count=225652 55137 170515 150862 124203 39545 45358 78845 24439 26659 21069 30966 22818 24224 54406 39445 8894 5321 38430 14961 5590 1254 14856 18348 9837 8511 15592 407 15330 63
shrinkage=0.05


Tree=24
num_leaves=31
num_cat=0
split_feature=65 44 114 59 75 128 97 91 57 128 110 111 44 7 87 28 7 127 29 0 129 51 40 91 128 14 10 35 11 61
split_gain=27826.4 15933.9 8031.45 6475.31 5933.53 5922.42 5949.88 4666.74 4494.1 4409.78 3861.2 4555 3745.65 3667.71 3516.86 3350.11 3442.26 3264.08 3206.91 3754.31 3181.75 3112.49 3107.87 3054.53 3017.03 3238.72 3126.07 2943.39 2920.72 2944.67
threshold=-1.6324499999999997 -0.73889499999999997 1.0000000180025095e-35 -1.6139499999999998 -6.2727499999999994 -0.94999999999999984 1.6952500000000004 0.13914000000000001 1.0000000180025095e-35 0.55000000000000016 -1.8407499999999997 47.380500000000005 1.0000000180025095e-35 -1.3814499999999998 1.0842500000000002 0.82935500000000006 -2.3844499999999997 0.67500000000000016 0.15806000000000001 13.533500000000002 1.7000000000000004 -2.4169499999999995 1.2174500000000001 -3.0811999999999995 -0.34999999999999992 434.22500000000008 0.084788500000000003 -1.3589499999999999 -0.080552499999999985 1.4172500000000003
decision_type=2 2 2 2 2 2 2 2 2 2 2 2 2 2 2 2 2 2 2 2 2 2 2 2 2 2 2 2 2 2
left_child=1 4 5 12 -1 -2 7 10 -9 13 -7 14 15 -6 18 20 22 -3 19 27 -4 -5 -17 -20 -15 26 -26 -12 -29 -30
right_child=2 17 3 21 9 6 -8 8 -10 -11 11 -13 -14 24 -16 16 -18 -19 23 -21 -22 -23 -24 -25 25 -27 -28 28 29 -31
leaf_value=0.068931281091026086 -0.049096044681010413 0.00014937784974369386 -0.032845404070742913 -0.075902272362170814 0.075704389738954603 -0.04154489533074078 0.014364471872935143 0.047368010950506134 -0.0038931289286452801 -0.0020332914147771219 -0.031116870971169337 0.117621547401424 -0.050048088890138391 -8.2197690549124175e-05 0.011200045663710785 0.54318532422184951 0.086983845782849734 -0.053852325717351837 -0.12629499419955678 0.29151481558541653 0.072862337428829818 -0.034317952902018806 -0.15545275673270226 -0.036396533074303385 0.079653520542348921 -0.20715072553574557 0.018476250916168013 0.048145002529591335 -0.012591838031007935 -0.37198542279416119
leaf_count=16212 7656 16663 1717 7848 6005 15313 33366 4770 41260 7457 8316 670 1819 5448 9915 78 816 3363 1056 103 1216 10547 20 8980 4504 123 3893 3171 3289 58
internal_value=0 0.560125 -0.220158 -0.753274 0.899004 -0.127154 -0.0769181 -0.202326 0.0283793 0.615532 -0.411077 -0.230281 0.181454 0.860527 -0.279881 0.740542 2.41221 -0.178384 -0.479936 -0.1862 0.219605 -1.04119 8.01212 -0.917115 0.579553 0.951192 1.02581 -0.227976 0.275171 -0.376395
internal_count=225652 63668 161984 24061 43642 137923 130267 96901 46030 27430 50871 35558 5666 19973 34888 3847 914 20026 24973 14937 2933 18395 98 10036 13968 8520 8397 14834 6518 3347
shrinkage=0.05


Tree=25
num_leaves=31
num_cat=0
split_feature=73 76 44 114 116 52 95 54 129 115 10 44 122 71 15 129 59 53 47 111 112 58 42 16 111 129 42 5 6 11
split_gain=25040.7 17420.5 11202.6 10788 7376.72 6316.99 5904.6 5453.7 5324.97 6234.73 4633.9 4434.17 4995.65 4399.15 3855.09 3697.26 4486.56 3514.29 3351.13 3464.95 3205.67 3781.84 3183.77 3146.01 3313.4 3108.22 2919.28 2885.87 2852.56 2817.46
threshold=-72.567999999999984 -1.5781499999999997 -0.73996499999999987 1.0000000180025095e-35 1.0000000180025095e-35 4.7362000000000011 1.2395500000000002 -1.2162499999999998 1.5000000000000002 1.0000000180025095e-35 -2.5806999999999998 1.0313000000000001 2.5000000000000004 -0.11810499999999999 8.499900000000002 1.7000000000000004 -3.9018499999999996 -1.1349499999999997 -0.95059999999999989 -2.5727999999999995 -0.53812499999999985 1.8790500000000001 -14.312499999999998 2.2903500000000006 -1.5219499999999997 1.3 -4.1833499999999999 2.0188500000000005 -6.2957499999999991 0.60452000000000006
decision_type=2 2 2 2 2 2 2 2 2 2 2 2 2 2 2 2 2 2 2 2 2 2 2 2 2 2 2 2 2 2
left_child=-1 2 7 4 5 6 18 8 -2 10 -10 13 27 -5 -14 -15 -17 -18 20 -20 -3 -22 -7 -21 -25 -24 -9 29 -8 -13
right_child=1 3 -4 11 -6 22 28 26 9 -11 -12 12 14 15 -16 16 17 -19 19 23 21 -23 25 24 -26 -27 -28 -29 -30 -31
leaf_value=0.062590456893527158 0.030551902147366628 -0.00067911447914728747 -0.021563476888182033 -0.055086573467936342 -0.027607291397222206 0.20486209222527507 0.21683519505152182 0.064052980262952017 0.18890031457067338 -0.0052961677302214016 0.084784079076086538 -0.097043530999709901 -0.0296744925556949 -0.034801970478179588 -0.15995917245051505 0.19633216362893005 0.095485086388916326 -0.017720225436829492 -0.16785018526339521 0.016526347157182996 -0.045589845038662036 0.1279990371020471 -0.021279579869063196 0.071405831519580618 -0.03485580084659011 0.040181283882013974 0.0069498816039070517 -0.017904314867407085 -0.028608031991809647 -0.20689635931682041
leaf_count=14923 10193 18095 11034 7267 33027 260 119 2646 1327 1576 5490 1205 4798 3818 644 388 982 2271 272 38852 7750 327 2557 843 5653 10522 14522 500 22659 1132
internal_value=0 -0.0886482 0.449552 -0.242248 -0.138608 -0.0120396 -0.102908 0.721382 1.09674 1.68662 2.10103 -0.877179 -1.46271 -0.547993 -0.901845 -0.0085087 0.712445 0.329073 0.0378392 0.201483 -0.247405 -0.771241 0.632191 0.222827 -0.42132 0.563308 0.315017 -2.53857 -0.546515 -3.00508
internal_count=225652 210729 46788 163941 140936 107909 94570 35754 18586 8393 6817 23005 8279 14726 5442 7459 3641 3253 71792 45620 26172 8077 13339 45348 6496 13079 17168 2837 22778 2337
shrinkage=0.05


Tree=26
num_leaves=31
num_cat=0
split_feature=69 44 113 128 128 129 58 110 9 12 25 2 106 54 115 102 16 103 104 102 13 127 4 13 39 114 4 44 53 71
split_gain=23133.4 13263.7 7257.92 5558.32 4908.93 4759.99 4563.76 4337.06 4606.62 3692.27 4642.95 3621.45 3603.82 5133.95 3586.42 4137.97 3356.33 3271.57 3039.83 3019.8 2946.48 2928.56 2872.03 2648.52 2608.65 2505.12 2498.03 3151.85 2493.26 2486.31
threshold=-1.7879499999999997 -0.57523999999999986 1.0000000180025095e-35 -0.84999999999999998 0.65000000000000002 0.50000000000000011 -7.4067499999999988 0.12242000000000001 -6.6607999999999992 -0.17495499999999997 -0.79293999999999987 -1.8705499999999999 1.3721500000000002 3.4118500000000007 1.0000000180025095e-35 -2.0009499999999996 -0.60865499999999984 -6.9898999999999996 -1.7100499999999996 4.7075500000000003 -3.7378499999999995 0.67500000000000016 -1.7332499999999997 0.42384000000000005 5.2030500000000011 1.0000000180025095e-35 6.196600000000001 1.5742500000000004 1.81545 4.1377000000000015
decision_type=2 2 2 2 2 2 2 2 2 2 2 2 2 2 2 2 2 2 2 2 2 2 2 2 2 2 2 2 2 2
left_child=1 4 3 -2 6 -5 -1 9 26 10 29 -10 -4 -14 15 16 -8 -17 -18 -13 -6 -11 -12 -19 -25 -3 -9 -28 -27 -7
right_child=2 25 12 5 20 7 14 8 11 21 22 19 13 -15 -16 17 18 23 -20 -21 -22 -23 -24 24 -26 28 27 -29 -30 -31
leaf_value=0.10039901638552312 -0.04690050199507434 -0.0031599521005907338 -0.00058249801442017456 0.064400039549557073 0.068198679802734599 -0.022801966592206239 0.047568804417312066 0.050963002831233034 0.030235057643712978 -0.0078741533061120386 0.010104885399040246 -0.014354947223732437 0.022390594996333057 0.15898338761861175 0.014859022967965253 0.48111219619001661 0.28504127154105519 0.048957240435719772 0.10831176903210477 0.09975434699569341 -0.0066082235184711791 -0.045655902080437752 -0.080853067008397575 -0.013990139060142848 0.4476061705620058 -0.023716769990886288 0.12063257707239583 0.68344274691173013 -0.14275598281879642 0.16665009794418106
leaf_count=4191 13211 14319 43315 1977 1647 10806 2721 2572 5838 31862 989 33527 9952 739 7498 42 263 11853 3251 590 6556 6113 7085 2419 31 1331 86 35 657 176
internal_value=0 0.552187 -0.185658 -0.327809 0.858983 -0.248509 1.03458 -0.278983 -0.0377693 -0.459364 -0.818554 -0.123094 0.116687 0.636648 0.889284 1.10501 1.78516 0.809384 2.43078 -0.247632 0.16823 -0.279121 -1.39423 0.783505 -0.162991 -0.209241 1.22816 5.66858 -1.26114 -0.395315
internal_count=225652 56779 168873 114867 40472 101656 32269 99679 42648 57031 19056 39955 54006 10691 28078 20580 6235 14345 3514 34117 8203 37975 8074 14303 2450 16307 2693 121 1988 10982
shrinkage=0.05


Tree=27
num_leaves=31
num_cat=0
split_feature=65 44 114 59 112 16 102 127 66 75 15 76 129 122 51 52 54 99 44 83 122 32 29 110 29 0 112 42 77 20
split_gain=20930.9 11917.1 6426.93 5437.3 5161.99 5113.35 4520.55 4298.21 4297.62 3960.83 3591.68 3454.9 4864.31 3404.1 4246.71 3264.76 3143.58 3149.65 3069.81 3004.96 2969.45 3205.99 2957.22 4455.86 3783.73 3111.44 2967.91 3361.31 3372.03 2950.29
threshold=-1.6324499999999997 -0.73889499999999997 1.0000000180025095e-35 -1.6139499999999998 -1.1652499999999997 -0.14345499999999997 -4.8276999999999992 0.52500000000000013 -1.5345499999999996 -6.2727499999999994 0.65251500000000007 -1.5781499999999997 1.5000000000000002 3.5000000000000004 -2.4169499999999995 4.8756500000000011 -2.1675999999999997 -0.59262499999999985 -0.36117999999999995 -0.43125499999999994 2.5000000000000004 -0.99945499999999987 -0.2742099999999999 -2.5541499999999995 -0.32478499999999993 1.0428500000000003 1.0434500000000002 -1.3959499999999998 -1.5417499999999997 -0.71196499999999985
decision_type=2 2 2 2 2 2 2 2 2 2 2 2 2 2 2 2 2 2 2 2 2 2 2 2 2 2 2 2 2 2
left_child=1 6 4 10 7 22 -1 -2 16 19 20 12 29 14 -5 -10 17 -7 -16 -8 21 -4 24 -24 26 -25 27 28 -6 -11
right_child=2 -3 3 13 5 8 9 -9 15 11 -12 -13 -14 -15 18 -17 -18 -19 -20 -21 -22 -23 23 25 -26 -27 -28 -29 -30 -31
leaf_value=0.13606904794719218 0.021354967851164908 -0.0076441290928367994 0.60064639133034337 -0.095012224430465184 0.012740806140012743 0.07385604068088869 0.059141648028691457 -0.014952905444580267 -0.041460672004153383 0.03852596602632738 -0.023436008487007332 -0.0087297308906123441 0.063570681049395977 -0.014328166064296967 -0.0053100737899695319 0.019987973778732702 -0.012527842593171088 -0.14980083693658686 -0.069695046940958114 -0.12412634904164051 0.001314144729692055 0.10051512048238409 -0.085253058640731336 0.0062832869430439892 0.16666178647010702 -0.038802541912628725 -0.0044904974108079419 0.0073802388874133137 0.10845951538434391 -0.0099791593252205341
leaf_count=1166 26553 20026 33 5320 1562 1747 15241 11762 24259 6333 3369 6003 8464 5662 3826 2373 26785 173 3587 227 1159 1105 1871 15719 401 5058 12174 5247 2239 6208
internal_value=0 0.485791 -0.190941 -0.667841 -0.107745 -0.22773 0.77886 0.204182 -0.430385 0.725536 0.188697 0.49444 0.685643 -0.93167 -1.21853 -0.719708 -0.161956 1.07407 -0.729293 1.12904 1.15293 2.30036 0.0255813 -0.226956 0.290089 -0.0938502 0.232588 0.666371 1.38249 0.290303
internal_count=225652 63668 161984 24061 137923 99608 43642 38315 55337 42476 5666 27008 21005 18395 12733 26632 28705 1920 7413 15468 2297 1138 44271 22648 21623 20777 21222 9048 3801 12541
shrinkage=0.05


Tree=28
num_leaves=31
num_cat=0
split_feature=65 44 113 16 127 62 12 110 29 41 102 98 110 12 29 103 14 0 115 44 110 102 14 64 27 103 64 2 62 73
split_gain=18906.6 10581.8 6458.04 5352.11 4606.35 4455.57 4188.29 4641.99 4479.85 4474.22 3455.34 3171 3107.25 3279.18 3339.62 3254.23 2979.9 2934.71 2845.84 3617.16 2826.06 2761.84 2722.93 2615.65 2634.3 2568.3 2641.64 2532.89 2536.58 2857.57
threshold=-1.6932499999999997 -0.57523999999999986 1.0000000180025095e-35 3.4459000000000004 0.52500000000000013 0.58460500000000015 -0.17495499999999997 -0.76479499999999989 -1.8186499999999997 -17.088999999999995 -4.8276999999999992 -1.4857499999999997 2.4903500000000007 1.01875 -2.0422499999999997 -2.5774499999999994 -1.9154499999999997 13.533500000000002 1.0000000180025095e-35 -0.73934499999999981 -1.9920499999999997 3.7082500000000005 -0.70643499999999981 -1.2563499999999996 -0.54054499999999994 0.92899000000000009 -1.7685499999999996 -1.8086499999999999 2.6716500000000005 -14.279499999999997
decision_type=2 2 2 2 2 2 2 2 2 2 2 2 2 2 2 2 2 2 2 2 2 2 2 2 2 2 2 2 2 2
left_child=1 5 3 4 6 10 7 8 -2 11 -1 -9 13 25 15 -15 -12 -14 19 23 -7 -8 -5 24 -6 -4 -27 28 29 -11
right_child=2 -3 12 22 18 20 21 9 -10 27 16 -13 17 14 -16 -17 -18 -19 -20 -21 -22 -23 -24 -25 -26 26 -28 -29 -30 -31
leaf_value=0.13470245137460679 -0.0141016103342096 -0.0082380758630904351 -0.016947435238703203 -0.026468039825427048 0.05435531774911502 0.06834503891854489 0.0020688384480301654 0.29285487048327924 -0.087217319633059093 -0.40277829963494755 0.098190703759922116 0.047060226653737748 0.036289798368879266 0.47308788302999283 0.015834679355896563 0.096614548784838106 0.038403670458670783 0.38775576872130235 -0.012019306528662515 -0.055278481339489607 -0.017088808426436501 0.069169310565566675 -0.093167411943948689 0.012473742714243691 -0.078068280084941835 0.32009686245982139 0.011804039743770756 -0.01912480595241095 -0.071099913627571037 0.05882885964408914
leaf_count=1043 4100 17504 22397 2972 466 1197 41066 196 4284 34 2230 397 5876 65 14995 491 31864 60 16947 13090 5059 1593 3154 4416 1935 70 9432 15809 501 2409
internal_value=0 0.487058 -0.172026 -0.307071 -0.255141 0.762695 -0.105178 -0.407727 -1.02924 -0.138384 0.901132 2.56602 0.114751 0.0294205 0.405928 2.81253 0.846284 0.796847 -0.541561 -0.797954 -0.0148442 0.091491 -1.21617 -0.207272 -1.04733 -0.15413 0.281504 -0.223901 0.627739 1.04809
internal_count=225652 58897 166755 113369 107243 41393 70389 27730 8384 19346 35137 593 53386 47450 15551 556 34094 5936 36854 19907 6256 42659 6126 6817 2401 31899 9502 18753 2944 2443
shrinkage=0.05


Tree=29
num_leaves=31
num_cat=0
split_feature=65 11 128 128 127 85 1 54 110 46 62 86 14 25 109 80 64 127 109 95 59 64 15 54 107 115 26 46 114 8
split_gain=17123.1 8457.31 6489.74 6130.82 6010.2 5086.74 5456.63 4896.24 4225.18 6752.97 4510.6 3622.51 3945.76 3277.49 3507.29 3197.67 3541.4 3132.55 3041.14 2982.43 2974.88 2840.33 2732.94 2711.5 3632.77 2700.29 3148.86 2684.28 2664.42 2664.33
threshold=-1.6324499999999997 -0.47132999999999997 -0.74999999999999989 0.45000000000000007 0.52500000000000013 3.2009500000000002 -2.1461499999999996 -0.87679499999999988 -1.5442499999999997 0.84188000000000007 -1.7415499999999999 -0.59967499999999985 434.22500000000008 -0.76189499999999988 0.099516500000000022 -1.9834499999999997 0.018694500000000006 0.67500000000000016 -1.2503499999999999 -2.4509999999999992 -3.0319499999999997 5104.0500000000011 5.7315000000000014 3.4118500000000007 3.1158000000000006 1.0000000180025095e-35 0.94846500000000011 -2.7335499999999997 1.0000000180025095e-35 -1.09215
decision_type=2 2 2 2 2 2 2 2 2 2 2 2 2 2 2 2 2 2 2 2 2 2 2 2 2 2 2 2 2 2
left_child=1 7 -2 5 23 6 -4 19 9 10 -8 12 25 15 -15 16 -10 22 -11 -1 27 -12 -3 -5 -25 26 -9 -16 -7 -29
right_child=2 17 3 4 -6 28 8 11 13 18 21 -13 -14 14 20 -17 -18 -19 -20 -21 -22 -23 -24 24 -26 -27 -28 29 -30 -31
leaf_value=0.12840097596683697 -0.030845219857921213 0.015164626155899219 0.044544756963800898 -0.0066615441481588491 -0.036305325873609295 0.040837207203116822 -0.058440641459533385 0.067544338414415941 0.46555853488278531 -0.11415153232452241 0.015200465470644875 -0.0057300499625838955 -0.16290135527495297 -0.028499017857251643 0.60586168542504315 0.02177405026006014 0.074079820664750565 -0.045807084082218667 -0.040391907370150304 0.04721582909908436 0.0015232622697398711 0.48729465845972303 -0.031623820041008686 0.037827180949887219 0.35270286517140148 0.00015696155896034855 -0.055929154328242185 -0.039807783564269221 -0.024127266847280573 0.12249946352318769
leaf_count=1197 27339 14885 5965 28775 23293 11971 2689 6768 84 2388 7305 9151 240 11085 24 10655 185 3557 3369 20594 21736 32 3949 1999 96 2768 559 368 1818 808
internal_value=0 0.439387 -0.172702 -0.0825083 -0.342621 0.0925432 -0.0217701 0.707821 -0.111417 -0.556533 -0.0608698 0.343609 0.749325 0.0448918 -0.108128 0.521447 3.92652 -0.0554623 -1.41975 1.03351 0.115086 0.34519 0.107086 -0.053262 1.04512 0.844597 1.16248 1.64785 0.64544 1.43419
internal_count=225652 63668 161984 134645 54163 80482 66693 41277 60728 15783 10026 19486 10335 44945 34021 10924 269 22391 5757 21791 22936 7337 18834 30870 2095 10095 7327 1200 13789 1176
shrinkage=0.05


Tree=30
num_leaves=31
num_cat=0
split_feature=92 76 114 44 116 97 80 94 1 64 11 14 44 99 115 54 128 70 99 62 94 15 128 16 1 80 112 122 44 54
split_gain=15529.8 9101.28 8469.57 8242.67 5905.68 5432.48 4497.71 4579.68 4275.4 4208.73 4897.22 3977.63 3780.88 3535.43 3401.84 3392.81 3225.25 3179.6 3057.94 3036.56 2860.8 2827.41 2819.41 2737.92 2661.69 2581.45 2585.06 2560.61 2544.66 2537.01
threshold=-2.5540499999999997 -1.5781499999999997 1.0000000180025095e-35 -0.73996499999999987 1.0000000180025095e-35 1.3628500000000001 1.0240500000000001 0.96820000000000006 -0.72462499999999996 -1.2377499999999999 -1.12225 1.25485 -0.24194999999999997 -1.5156499999999997 1.0000000180025095e-35 3.2063000000000001 -0.74999999999999989 6.6261500000000009 -1.5534999999999999 -3.2739499999999997 -6.6735999999999995 6.3770500000000014 0.8500000000000002 -3.4180499999999996 -2.2509499999999996 3.0745500000000008 13.288000000000002 3.5000000000000004 -1.4819499999999997 -0.27392499999999992
decision_type=2 2 2 2 2 2 2 2 2 2 2 2 2 2 2 2 2 2 2 2 2 2 2 2 2 2 2 2 2 2
left_child=12 3 4 8 5 6 20 -8 13 24 -11 27 14 18 17 16 28 21 29 -15 23 -1 -18 -3 -4 -16 -27 -12 -7 -2
right_child=1 2 9 -5 -6 15 7 -9 -10 10 11 -13 -14 19 25 -17 22 -19 -20 -21 -22 -23 -24 -25 -26 26 -28 -29 -30 -31
leaf_value=0.065242565361840629 0.080924674809516872 0.70255320185706738 0.037416341530659605 -0.021616618214211167 -0.023688836702354367 0.41393310211133216 -0.036002430159552276 0.026676013535937133 0.013281341537059566 0.028266203080642524 -0.037589312130345123 -0.075504701169608238 -0.050083520137974305 0.16040579028204288 0.019056164566988609 0.052881828531076674 0.024777672726029393 -0.31106631286956116 0.40888138578009248 0.011885550949112991 0.00022221702261684251 -0.031357603130439421 -0.030409663801719444 0.1117342692176887 -0.087354002013839457 -0.27520396875517145 0.14246391853690149 0.019688886641547519 -0.033680645382239 -0.0037111262704059844
leaf_count=13647 6626 21 468 10718 32516 32 18117 3473 18304 3354 6136 4862 1089 367 5477 5730 19015 58 67 5528 53218 802 2635 296 4932 143 50 2861 4088 1022
internal_value=0 -0.0846216 -0.192956 0.32642 -0.100708 0.0130613 -0.1331 -0.518398 0.581239 -0.760568 -0.51893 -0.781329 0.813292 1.0057 0.91125 0.361645 0.20689 1.16795 1.45122 0.422637 0.0222856 1.19761 0.361218 3.01747 -1.53081 0.254461 -3.34 -0.387503 -0.604081 1.3923
internal_count=225652 204386 161754 42632 139141 106625 75125 21590 31914 22613 17213 13859 21266 13610 20177 31500 25770 14507 7715 5895 53535 14449 21650 317 5400 5670 193 8997 4120 7648
shrinkage=0.05


Tree=31
num_leaves=31
num_cat=0
split_feature=69 44 128 113 16 128 129 58 111 7 8 58 115 129 2 26 13 59 46 115 86 104 129 13 7 14 128 86 41 16
split_gain=14155.9 8392.87 6003.89 5021.06 4449.63 4343.13 4253.95 3939.21 3328.76 3517.21 3414.79 5522.36 4944.54 4625.2 4241.77 4468.53 3327.09 2974.42 2969.78 2965.39 3090.92 4526.52 2959.61 3291.58 3073.69 3165.73 2919.75 2984.32 2776.31 3532.2
threshold=-1.7879499999999997 -0.57523999999999986 -0.94999999999999984 1.0000000180025095e-35 3.4459000000000004 0.65000000000000002 0.50000000000000011 -7.4067499999999988 47.380500000000005 9.5242000000000022 -0.45768999999999999 0.10114500000000001 1.0000000180025095e-35 1.5000000000000002 -1.8496499999999998 -1.1215499999999998 -1.3679499999999998 1.15215 0.28356000000000009 1.0000000180025095e-35 -2.1071499999999994 -1.7351499999999997 1.7000000000000004 -3.4393499999999997 -3.1382999999999996 13.145500000000002 0.45000000000000007 4.2887000000000013 -1.8824499999999997 0.32853000000000004
decision_type=2 2 2 2 2 2 2 2 2 2 2 2 2 2 2 2 2 2 2 2 2 2 2 2 2 2 2 2 2 2
left_child=1 5 -2 4 6 7 18 -1 10 -10 14 -12 13 -13 -8 -16 -14 -17 -4 20 21 -9 -5 -24 25 -25 27 28 29 -15
right_child=2 -3 3 22 -6 -7 8 19 9 -11 11 12 16 26 15 17 -18 -19 -20 -21 -22 -23 23 24 -26 -27 -28 -29 -30 -31
leaf_value=0.087275610911567464 -0.045826814382060856 -0.008686965029264488 0.099146394589583256 -0.004034265706921252 -0.053509796527038835 0.0013135687039828893 0.021503952890487933 0.16859747434879527 0.07061654748910659 0.69724423822987347 0.026287458423610018 -0.062609532163339407 -0.042663746987172575 0.32760253434734687 -0.010705313426585174 -0.054863446357447124 0.011077372703434311 0.016613460174666562 -0.029278418054446788 0.0083886969961756621 0.030429975962502527 0.055291113493546998 0.1875418854864507 0.10839100233941575 0.015627574755425255 0.6300266508133181 -0.041549200503322205 0.19102305728813698 -0.0060220220385765683 -0.064967535303655982
leaf_count=4191 9523 16307 1512 25570 5837 8203 4685 1020 849 23 12239 6716 3306 140 16117 14737 22350 1615 641 7498 13071 6489 290 471 24645 31 6199 203 11077 97
internal_value=0 0.431952 -0.145232 -0.099138 -0.220935 0.675998 -0.172575 0.841163 -0.202414 1.74289 -0.219466 -0.0764194 -0.223559 -0.545526 -0.45943 -0.587779 0.0830472 -0.956081 1.21822 0.706177 0.902336 1.41365 0.159569 0.401079 0.362448 2.81207 -0.277635 0.0202036 -0.047982 3.33861
internal_count=225652 56779 168873 159350 108343 40472 102506 32269 100353 872 99481 62327 50088 24432 37154 32469 25656 16352 2153 28078 20580 7509 51007 25437 25147 502 17716 11517 11314 237
shrinkage=0.05


Tree=32
num_leaves=31
num_cat=0
split_feature=11 80 114 2 128 128 58 96 54 129 105 5 123 115 73 9 58 71 30 5 64 101 71 1 10 53 102 119 21 39
split_gain=13547.4 9441.1 6434.96 5905.75 5617.86 6936.43 5147.03 5121.29 5112.5 4495.07 4345.54 3803.31 3549.25 3477.56 3419.52 3293.92 2978.45 2911.95 2819.05 2808.97 3119.08 2927.72 2756.37 2755.85 2701.86 2686.78 2651.56 2641.73 2595.01 2959.75
threshold=-0.39423999999999998 -2.5974999999999997 1.0000000180025095e-35 -2.1959499999999994 -0.44999999999999996 0.25000000000000006 -1.9153499999999999 -1.07175 -0.12880499999999998 1.9000000000000001 -5.5030499999999991 1.09555 0.75000000000000011 1.0000000180025095e-35 -2.9193499999999992 0.18048000000000003 1.6288500000000001 -0.59883999999999993 1.8163500000000001 -2.8954499999999999 -0.84584499999999985 4.3561500000000004 -3.3982999999999994 5.5588000000000006 2.5979000000000005 -1.4964499999999996 -1.9015499999999996 1.0000000180025095e-35 -0.61806499999999998 0.36365000000000008
decision_type=2 2 2 2 2 2 2 2 2 2 2 2 2 2 2 2 2 2 2 2 2 2 2 2 2 2 2 2 2 2
left_child=1 9 7 -3 25 6 10 14 -4 28 18 13 16 -12 -2 -15 -9 -7 -6 20 -8 -21 -16 -13 -23 -5 -10 -28 -1 -30
right_child=2 3 8 4 5 17 19 12 26 -11 11 23 -14 15 22 -17 -18 -19 -20 21 -22 24 -24 -25 -26 -27 27 -29 29 -31
leaf_value=0.052719780342221606 0.24380975625928372 0.049754993485025795 -0.011063908498891755 0.016285513393959127 0.019607015296299612 -0.022910923696193072 -0.0059822927122233352 -0.011689763739484623 0.0074109567131207732 0.12195516992027931 0.16797720537565952 0.0058423005899650949 -0.037849397579252271 0.018175979520205453 -0.046376222553276891 0.65420661369959521 0.03762881213829454 0.0074914803147420441 -0.27750415875177298 0.0043727895670246089 0.20561268789638662 0.063210091373604269 0.012202709381075219 0.18608114511797241 0.60828774986059775 -0.028068079183511514 -0.092341946821385468 -0.022617442683614496 0.045921627189151742 -0.02172555474856384
leaf_count=10641 155 7123 7997 4244 1611 12259 305 55807 1072 1737 2028 1260 12993 664 2147 21 3239 22029 84 12861 406 1970 31049 255 23 17467 5978 1758 3279 3190
internal_value=0 0.26629 -0.225456 0.123716 0.043614 0.211605 0.657074 -0.13382 -0.800137 0.906351 1.45046 1.9928 -0.28381 2.70155 0.190161 0.753495 -0.179687 -0.067566 0.0976584 0.355165 2.29688 0.262223 0.168281 0.723591 1.39001 -0.387959 -1.3257 -1.52994 0.750747 0.251268
internal_count=225652 103457 122195 84610 77487 55776 21488 105390 16805 18847 5923 4228 72039 2713 33351 685 59046 34288 1695 15565 711 14854 33196 1515 1993 21711 8808 7736 17110 6469
shrinkage=0.05


Tree=33
num_leaves=31
num_cat=0
split_feature=11 65 122 96 54 86 128 1 111 67 115 46 73 54 66 56 112 16 92 50 1 57 128 5 57 121 66 24 52 25
split_gain=12226.6 8648.8 5807.55 4621.97 4614.04 4153.88 3958.77 3553.38 3132.74 3218.72 3115.78 3113.55 3086.12 3009.61 2945.39 3752.94 3768.52 3120.95 2786.8 2760.61 2694.02 2707.73 2678.59 3487.19 2650.5 2631.84 2610.64 2817.97 2595.72 2766.5
threshold=-0.39423999999999998 -1.7650999999999997 1.0000000180025095e-35 -1.07175 -0.12880499999999998 1.09955 -0.84999999999999998 -1.4641499999999998 47.380500000000005 -1.3395499999999998 1.0000000180025095e-35 0.95967500000000017 -2.9193499999999992 -2.0240499999999995 -1.5126999999999997 -0.26157499999999995 -0.55509999999999982 -1.1257999999999997 9.4312000000000022 -0.23987999999999998 -2.5325499999999996 1.6080500000000002 0.45000000000000007 5.1514000000000015 -13.938999999999998 2.5000000000000004 -1.6904499999999996 -1.41475 2.2158500000000005 -1.2141499999999998
decision_type=2 2 2 2 2 2 2 2 2 2 2 2 2 2 2 2 2 2 2 2 2 2 2 2 2 2 2 2 2 2
left_child=1 5 3 12 11 10 -3 13 14 -10 -1 -4 -2 18 15 19 -17 24 -8 -5 21 -12 23 -7 -16 -14 -18 -28 29 -9
right_child=2 6 4 8 -6 22 7 28 9 -11 20 -13 25 -15 17 16 26 -19 -20 -21 -22 -23 -24 -25 -26 -27 27 -29 -30 -31
leaf_value=0.052033883683599513 0.23161926748170969 -0.032741006210463358 0.010627093317497421 0.0050292848342586337 -0.062970620668457142 0.019363505338315278 0.071975903202294481 0.014419035959973146 0.053042204672907503 0.3941763072431862 0.096840825558875701 -0.056558533045570618 0.0010989821679391451 0.012997574814575016 -0.23078755635192724 0.019792475586730831 -0.042545011152424178 -0.034905209062506826 -0.23988529370255668 0.13438221257373992 0.0061779509882833429 0.5547936095935958 -0.031068944454458208 0.41545861246330401 0.0029305659258612895 0.036742146518607029 0.58405808621439437 0.0599759223841567 0.022452795717392168 -0.015806475300966905
leaf_count=20120 155 7436 5481 23007 8808 7186 3830 10864 678 77 415 2516 26775 8391 123 3603 11059 24011 73 420 6871 35 3457 56 8810 6421 29 222 9751 24972
internal_value=0 0.252976 -0.214183 -0.127129 -0.76013 0.63135 0.0320354 0.120276 -0.269619 1.75667 0.837416 -0.210214 0.180653 0.597395 -0.29108 -0.102656 -0.494791 -0.510368 1.32286 0.146967 0.278802 2.64919 0.102825 0.448528 -0.00575077 0.159867 -0.77852 2.41054 -0.00839436 -0.132867
internal_count=225652 103457 122195 105390 16805 38140 65317 57881 72039 755 27441 7997 33351 12294 71284 38340 14913 32944 3903 23427 7321 450 10699 7242 8933 33196 11310 251 45587 35836
shrinkage=0.05


Tree=34
num_leaves=31
num_cat=0
split_feature=11 80 114 54 63 128 128 96 54 129 25 111 67 63 73 27 9 2 68 68 7 26 66 56 112 45 127 47 50 11
split_gain=11034.5 8006.12 5241.32 5165.1 4265.41 5022.79 7131.87 4171.33 4164.17 4095.8 2923.11 2827.3 2917.96 2848.28 2785.22 2758.66 2721.82 2695.56 3826.04 2951.96 3183.47 2692.73 2658.21 3387.02 3401.09 2546.81 2514.5 3711.05 3010.01 2624.1
threshold=-0.39423999999999998 -2.5974999999999997 1.0000000180025095e-35 -2.5140999999999996 -1.2593499999999997 -0.44999999999999996 0.25000000000000006 -1.07175 -0.12880499999999998 1.9000000000000001 -0.99262499999999998 47.380500000000005 -1.7666999999999999 7.7284500000000014 -2.9193499999999992 -0.35193499999999994 0.5311800000000001 -1.5223499999999996 -1.9261499999999996 0.6198950000000002 -0.53272499999999989 2.1037500000000002 -1.5126999999999997 -0.26157499999999995 -0.55509999999999982 -1.4779999999999998 0.67500000000000016 0.72504500000000005 -0.23987999999999998 9.7151500000000013
decision_type=2 2 2 2 2 2 2 2 2 2 2 2 2 2 2 2 2 2 2 2 2 2 2 2 2 2 2 2 2 2
left_child=1 9 7 -3 15 -6 17 14 10 -1 -4 22 13 -13 -2 -5 -17 18 -7 -20 -21 -8 23 26 -25 -18 28 29 -9 -28
right_child=2 3 8 4 5 6 21 11 -10 -11 -12 12 -14 -15 -16 16 25 -19 19 20 -22 -23 -24 24 -26 -27 27 -29 -30 -31
leaf_value=0.034060425284424226 0.2200383046846236 0.036622235345696738 0.038015365117803242 0.021516924326297003 -0.016753351381879188 0.30138594268180019 0.0017841014992414921 0.011993326870018643 -0.059822089468428957 0.11464195659745509 -0.029022766387766599 -0.19324825764859765 0.36125793054345112 0.092530608080281601 0.0075936628985280672 -0.065767712943442566 0.090162510250981889 0.033995562170585095 0.031457407713062685 0.12372091823612615 0.51240739393652535 -0.13887712765647017 -0.024242462660792205 0.018802851577018768 -0.036979689663469074 -0.023018919133665883 0.032686621411564094 -0.07599816203575116 0.16209690040470484 -0.18827559444923991
leaf_count=17110 155 11486 2271 3018 15871 199 24653 18876 8808 1737 5726 103 84 568 33196 4034 526 13225 1475 695 57 345 32944 3603 11310 9026 2008 2059 340 144
internal_value=0 0.240327 -0.203474 0.109034 0.0111116 0.142016 0.328289 -0.120773 -0.722124 0.829742 -0.199704 -0.256138 1.66883 0.973258 0.17162 -0.434488 -0.626601 0.857658 1.82662 1.45122 3.06365 -0.00314358 -0.276526 -0.0975231 -0.470051 -0.335727 0.139618 -0.560234 0.292984 0.358021
internal_count=225652 103457 122195 84610 73124 56520 40649 105390 16805 18847 7997 72039 755 671 33351 16604 13586 15651 2426 2227 752 24998 71284 38340 14913 9552 23427 4211 19216 2152
shrinkage=0.05


Tree=35
num_leaves=31
num_cat=0
split_feature=13 127 128 128 66 51 114 96 10 41 129 61 70 51 25 110 110 61 22 129 54 2 128 128 91 25 6 57 87 39
